tree
version=v3
num_class=1
num_tree_per_iteration=1
label_index=0
max_feature_idx=1
objective=regression
feature_names=Column_0 Column_1
feature_infos=[-1.8808199999999999:-0.30189500000000002] [2:12]
tree_sizes=2941 3009 3009 3027 3031 3026 3024 3040 3017 3016 3037 3009 3012 3010 2991 3029 3037 3025 3015 3014 3048 3051 3041 3050 3076 3028 3070 3031 3023 3001 2999 3053 3029 3026 3015 3011 3038 3052 3031 3050 3056 3039 3035 3045 3054 3052 3036 2987 3016 3017 3028 3004 3060 3026 3008 3026 3031 3042 3047 3022 2978 3038 3024 3011 2986 2991 2986 3000 3036 3006 3022 2985 2994 2997 3048 2993 3006 3025 3035 2954 2986 3000 3021 2994 2960 2972 2999 3001 2964 3000 3016 2976 2947 2991 2944 2995 3033 2977 3023 3024

Tree=0
num_leaves=31
num_cat=0
split_feature=0 1 1 0 0 0 0 0 1 1 1 1 0 1 1 0 0 1 1 0 0 1 1 0 1 0 0 1 0 0
split_gain=401636 212774 66862.8 29773.1 20143 18283.1 18848.3 16106 9294.31 7894.95 5177.61 5756.42 3815.06 3608.55 5074.6 3243.23 2437.16 2025.98 1912.76 1849.7 1564.27 1375.23 2534.35 1335.83 1287.51 1266.18 1938.82 1205.97 2116.9 1190.42
threshold=-0.59897099999999992 10.900000000000002 4.3000000000000007 -1.5242699999999998 -0.5175209999999999 -1.32317 -0.63682099999999986 -0.87240649999999997 2.9000000000000004 11.500000000000002 5.5000000000000009 6.7000000000000002 -0.67132099999999995 5.5000000000000009 7.3000000000000016 -1.4350649999999998 -0.77640599999999993 5.5000000000000009 5.1000000000000005 -0.63682099999999986 -1.6422149999999998 6.9000000000000012 6.7000000000000002 -0.56512099999999987 5.7000000000000002 -0.62967099999999987 -0.85967099999999996 3.5000000000000004 -0.75952099999999989 -0.96942099999999987
decision_type=2 2 2 2 2 2 2 2 2 2 2 2 2 2 2 2 2 2 2 2 2 2 2 2 2 2 2 2 2 2
left_child=1 2 8 20 10 -4 7 18 25 15 -2 24 16 -6 21 -5 -9 -18 -7 27 -3 22 -15 -13 -12 26 -1 28 -10 -20
right_child=4 3 5 9 13 6 -8 12 19 -11 11 23 -14 14 -16 -17 17 -19 29 -21 -22 -23 -24 -25 -26 -27 -28 -29 -30 -31
leaf_value=-4.5341329122273715 -4.4555361674945706 -4.387314855487694 -4.571458726978582 -4.5020064070894348 -4.3937630229342108 -4.6496002886754102 -4.6096370413938086 -4.7380966217553118 -4.6360324674944549 -4.4900721809679229 -4.517359002025807 -4.5280628909823397 -4.7011462780905777 -4.4979193430941438 -4.4130690963448451 -4.5985278559586291 -4.7262771724255863 -4.7802807828523708 -4.6889130060759285 -4.5521096958583991 -4.4357335903392032 -4.5615820704468391 -4.3880934926957247 -4.4795723666043488 -4.628120411738899 -4.4874287593905828 -4.5832009416903805 -4.6212704435182417 -4.7257003985783523 -4.7103848643043822
leaf_weight=14322 18214 16213 9699 4277 38353 9132 16907 44958 8010 16603 1312 9785 15499 9144 31146 18710 8461 38820 66497 2483 11339 2039 2728 13546 5245 2467 18396 12747 3922 42210
leaf_count=14322 18214 16213 9699 4277 38353 9132 16907 44958 8010 16603 1312 9785 15499 9144 31146 18710 8461 38820 66497 2483 11339 2039 2728 13546 5245 2467 18396 12747 3922 42210
internal_value=-4.59674 -4.64867 -4.68316 -4.48707 -4.44603 -4.70609 -4.71147 -4.71911 -4.59044 -4.54262 -4.49756 -4.52317 -4.74705 -4.41631 -4.4355 -4.58057 -4.75477 -4.77062 -4.69356 -4.63438 -4.40724 -4.48571 -4.47268 -4.49991 -4.60596 -4.55651 -4.56172 -4.64266 -4.66551 -4.69725
internal_weight=0 381672 314530 67142 131512 252183 242484 225577 62347 39590 48102 29888 107738 83410 45057 22987 92239 47281 117839 27162 27552 13911 11872 23331 6557 35185 32718 24679 11932 108707
internal_count=513184 381672 314530 67142 131512 252183 242484 225577 62347 39590 48102 29888 107738 83410 45057 22987 92239 47281 117839 27162 27552 13911 11872 23331 6557 35185 32718 24679 11932 108707
is_linear=0
shrinkage=1


Tree=1
num_leaves=31
num_cat=0
split_feature=0 1 1 0 0 0 0 0 1 1 1 1 0 0 0 1 1 0 1 1 1 0 0 0 0 1 1 1 1 1
split_gain=325521 171020 54599.1 24116.2 15770 18948.9 15166.2 10632.2 7544.12 6394.91 4354.8 5008.94 2704.2 2686.84 2636.76 2498.05 3584.64 1766.46 1674.92 1534.23 1404.43 1285.9 1230.28 1224.13 1540.24 1218.69 1171.23 1137.97 1758.81 1126.48
threshold=-0.59545949999999992 10.900000000000002 4.3000000000000007 -1.5242699999999998 -0.63682099999999986 -0.89477099999999987 -0.50652099999999989 -1.3506149999999997 2.9000000000000004 11.500000000000002 5.5000000000000009 6.7000000000000002 -0.66787099999999988 -0.78285899999999986 -1.4200649999999999 5.5000000000000009 7.3000000000000016 -0.64372099999999988 7.7000000000000002 8.9000000000000021 5.1000000000000005 -1.6202149999999997 -0.55822099999999997 -0.62632099999999991 -0.87240649999999997 5.7000000000000002 3.9000000000000004 6.9000000000000012 6.7000000000000002 5.1000000000000005
decision_type=2 2 2 2 2 2 2 2 2 2 2 2 2 2 2 2 2 2 2 2 2 2 2 2 2 2 2 2 2 2
left_child=1 2 8 21 5 7 10 -4 23 14 -2 25 13 29 -5 -8 27 -10 -15 -20 -9 -3 -13 24 -1 -12 -19 28 -17 -7
right_child=6 3 4 9 -6 12 15 20 17 -11 11 22 -14 18 -16 16 -18 26 19 -21 -22 -23 -24 -25 -26 -27 -28 -29 -30 -31
leaf_value=0.058054056197787779 0.13234202876687892 0.18591380639426791 0.032335182094949899 0.07884690591912602 -0.0086674906012306086 -0.078864530525739759 0.18457617526547004 -0.044275184634521805 -0.042137783623529448 0.095998990598078551 0.081308286584219583 0.068349882750444665 -0.091408776024837268 -0.13767418695014363 -0.0032887231737953266 0.09434265502694078 0.16811223369329645 0.0020932667756621949 -0.20105930445632639 -0.1504733213786249 -0.087661920265015625 0.140175647936231 0.11299055412279238 0.10455036826694222 0.014004372272693756 -0.021683636538998918 0.14259572038133389 0.03213299107992381 0.189446377350907 -0.12731265318166687
leaf_weight=13309 19882 18295 8405 4993 18459 5337 35892 8062 24242 16603 1438 10813 13953 27698 17994 8274 28641 2356 11089 13053 100052 9257 14389 2486 19669 5715 793 1866 2542 47627
leaf_count=13309 19882 18295 8405 4993 18459 5337 35892 8062 24242 16603 1438 10813 13953 27698 17994 8274 28641 2356 11089 13053 100052 9257 14389 2486 19669 5715 793 1866 2542 47627
internal_value=0 -0.0462587 -0.0770025 0.0987054 -0.0976717 -0.104655 0.137124 -0.0760041 0.00643563 0.0487087 0.0955092 0.0728755 -0.132765 -0.138271 0.0145519 0.165277 0.148514 -0.0329851 -0.154456 -0.173709 -0.0844266 0.170547 0.0938373 0.0368826 0.0317816 -0.000978704 0.0374754 0.104252 0.116694 -0.122431
internal_weight=0 383732 316590 67142 253735 235276 129452 116519 62855 39590 52237 32355 118757 104804 22987 77215 41323 27391 51840 24142 108114 27552 25202 35464 32978 7153 3149 12682 10816 52964
internal_count=513184 383732 316590 67142 253735 235276 129452 116519 62855 39590 52237 32355 118757 104804 22987 77215 41323 27391 51840 24142 108114 27552 25202 35464 32978 7153 3149 12682 10816 52964
is_linear=0
shrinkage=0.1


Tree=2
num_leaves=31
num_cat=0
split_feature=0 1 1 0 0 0 0 0 1 1 1 0 0 1 1 1 1 0 0 1 1 1 1 1 1 1 0 0 0 1
split_gain=263843 140691 43571.3 19534.1 14510.3 12311.1 10522.1 11283.2 6094.38 5434.84 3300.5 2967.48 2225.93 1807.21 1721.23 1690.06 3212.48 1584.46 1444.22 1306.41 2339.58 1526.22 1925.87 1454.42 1281.76 1139.47 1100.16 1073.23 1038.21 993.184
threshold=-0.6021709999999999 10.900000000000002 4.3000000000000007 -1.5242699999999998 -0.52802099999999996 -1.3370649999999997 -0.64032099999999992 -0.86600649999999979 2.9000000000000004 11.700000000000001 4.3000000000000007 -0.44660649999999996 -0.67802099999999987 5.1000000000000005 11.300000000000002 5.7000000000000002 6.7000000000000002 -0.7662064999999999 -1.4350649999999998 7.3000000000000016 5.7000000000000002 7.9000000000000012 8.5000000000000018 6.7000000000000002 5.1000000000000005 6.9000000000000012 -1.6845099999999997 -0.64702099999999996 -0.98320649999999998 3.9000000000000004
decision_type=2 2 2 2 2 2 2 2 2 2 2 2 2 2 2 2 2 2 2 2 2 2 2 2 2 2 2 2 2 2
left_child=1 2 8 26 10 -4 7 24 -1 14 -2 15 13 -9 18 -6 -17 -15 -5 20 -12 -21 -23 -22 -7 -25 -3 -10 -26 -29
right_child=4 3 5 9 11 6 -8 12 27 -11 19 -13 -14 17 -16 16 -18 -19 -20 21 23 22 -24 25 28 -27 -28 29 -30 -31
leaf_value=0.03199941696180824 0.12237540006990832 0.17590444419759549 0.02535562890201401 0.063890608365841178 0.14777682872290432 -0.043277905955878063 -0.017780423258370367 -0.087817485670508705 -0.038241680381389725 0.1036004792755789 0.079515058095790139 0.16219628340368225 -0.090533865495764865 -0.12192762723542716 0.048427019542705958 0.03502314399636506 0.12606168631593381 -0.15071382959604498 -0.014926982445831695 0.13497312175811954 -0.034597579291462656 -0.0017510027101904149 0.083364244013117705 0.1288235008320868 -0.07287128179659956 0.00977514138013931 0.13567577779060078 -0.0077797983219307712 -0.092187414161726419 0.12679910436679759
leaf_weight=34932 10674 12202 9034 2825 19522 9438 17039 9016 24038 10992 7104 45023 16955 41669 12643 4805 20049 35336 13130 3614 4788 3538 10692 1205 61238 2416 15350 2186 50999 732
leaf_count=34932 10674 12202 9034 2825 19522 9438 17039 9016 24038 10992 7104 45023 16955 41669 12643 4805 20049 35336 13130 3614 4788 3538 10692 1205 61238 2416 15350 2186 50999 732
internal_value=0 -0.0425022 -0.0707105 0.0888348 0.120965 -0.0892587 -0.0935428 -0.0992891 0.00443318 0.0438378 0.0739759 0.144109 -0.12365 -0.130177 0.0208673 0.125757 0.108461 -0.135137 -0.000971502 0.0584884 0.0372636 0.0769406 0.0622021 0.00156925 -0.078672 0.0493922 0.153492 -0.0312896 -0.0816483 0.0259802
internal_weight=0 379754 312612 67142 133430 250724 241690 224651 61888 39590 44031 89399 102976 86021 28598 44376 24854 77005 15955 33357 15513 17844 14230 8409 121675 3621 27552 26956 112237 2918
internal_count=513184 379754 312612 67142 133430 250724 241690 224651 61888 39590 44031 89399 102976 86021 28598 44376 24854 77005 15955 33357 15513 17844 14230 8409 121675 3621 27552 26956 112237 2918
is_linear=0
shrinkage=0.1


Tree=3
num_leaves=31
num_cat=0
split_feature=0 1 1 0 0 0 0 0 1 1 1 1 0 0 0 0 1 1 1 1 0 0 0 1 1 1 0 1 1 0
split_gain=214305 110568 36346.2 15897.4 13397 12026.4 8700.06 6881.83 4994.49 4306.44 2936.09 3569.21 2678.55 2249.09 1493.51 1450.95 1378.35 2061.52 1352.56 1311.14 1219.87 1321.42 1013.42 996.406 982.394 980.852 1685.53 970.511 959.266 893.298
threshold=-0.58862099999999995 10.900000000000002 4.3000000000000007 -1.5400149999999997 -0.62967099999999987 -0.91397099999999987 -0.48872099999999991 -1.3782149999999997 2.9000000000000004 11.300000000000002 5.5000000000000009 6.7000000000000002 -0.65782099999999988 -0.82302099999999989 -1.4490649999999998 -0.63320649999999989 5.5000000000000009 7.3000000000000016 11.700000000000001 5.5000000000000009 -0.62967099999999987 -0.84322099999999989 -0.68480599999999991 6.9000000000000012 6.7000000000000002 3.5000000000000004 -0.77300649999999982 6.9000000000000012 5.7000000000000002 -0.54812099999999986
decision_type=2 2 2 2 2 2 2 2 2 2 2 2 2 2 2 2 2 2 2 2 2 2 2 2 2 2 2 2 2 2
left_child=1 2 8 -3 5 7 10 -4 20 14 -2 28 13 -7 -5 25 -8 23 -11 -15 21 -1 -21 24 -18 26 -10 -9 -12 -13
right_child=6 3 4 9 -6 12 16 27 15 18 11 29 -14 19 -16 -17 17 -19 -20 22 -22 -23 -24 -25 -26 -27 -28 -29 -30 -31
leaf_value=0.046099324095154839 0.11380276438223172 0.14111141644359268 0.035681681895016928 0.06670789836641558 0.0041428008434578186 -0.091229332927402207 0.15323289411208443 -0.051078967679785307 -0.02505455744507868 0.045779253906644779 0.077681322017067456 0.063626113257751318 -0.060693754630915031 -0.091229340234450521 -0.012301987966805435 0.041525208533157734 0.081680464269129061 0.1404584679855308 0.092732118535687691 -0.13153790600589266 0.089028433880421379 0.0058686921779176528 -0.096720738737515813 0.014720635139574102 0.15779297820329141 -0.014042596599909663 -0.10248474573330052 -0.072615621889730739 -0.008408497723888431 0.099927358185010084
leaf_weight=15658 22334 26026 7098 2905 18450 43674 31910 29776 7588 13149 1621 11739 12555 13242 13560 2897 6820 24625 11502 51712 3287 17060 9972 1587 2257 12866 4466 70383 6422 16043
leaf_count=15658 22334 26026 7098 2905 18450 43674 31910 29776 7588 13149 1621 11739 12555 13242 13560 2897 6820 24625 11502 51712 3287 17060 9972 1587 2257 12866 4466 70383 6422 16043
internal_value=0 -0.0367398 -0.0611716 0.0799513 -0.0779529 -0.084306 0.113664 -0.0594699 0.00636763 0.0412377 0.0853459 0.0676054 -0.104617 -0.109266 0.00163811 -0.0254587 0.138172 0.124553 0.0676872 -0.11978 0.0309562 0.025122 -0.125909 0.0878246 0.100606 -0.0332457 -0.0537424 -0.066213 0.00894219 0.0845886
internal_weight=0 387826 320684 67142 256862 238412 125358 107257 63822 41116 58159 35825 131155 118600 16465 27817 67199 35289 24651 74926 36005 32718 61684 10664 9077 24920 12054 100159 8043 27782
internal_count=513184 387826 320684 67142 256862 238412 125358 107257 63822 41116 58159 35825 131155 118600 16465 27817 67199 35289 24651 74926 36005 32718 61684 10664 9077 24920 12054 100159 8043 27782
is_linear=0
shrinkage=0.1


Tree=4
num_leaves=31
num_cat=0
split_feature=0 1 1 0 0 0 0 0 1 1 1 0 0 0 1 1 0 0 1 1 1 0 0 0 0 0 1 1 0 1
split_gain=173665 90295.4 29214.8 12902.8 9581.63 10059.3 7657.05 5513.2 4034.83 3881.26 2484.65 1653.22 1967.07 1384.69 1264.43 2092.61 1106.54 1080.62 1074.2 1025.82 986.397 890.84 967.317 880.105 1236.39 866.747 1350.56 818.263 759.456 724.112
threshold=-0.5921209999999999 10.900000000000002 4.3000000000000007 -1.5088149999999998 -0.63320649999999989 -0.92362099999999991 -0.4958209999999999 -1.3646149999999999 2.9000000000000004 11.700000000000001 4.3000000000000007 -0.65422099999999983 -0.81942099999999984 -0.55145949999999988 5.7000000000000002 7.3000000000000016 -1.5988149999999999 -0.6505209999999999 11.300000000000002 5.3000000000000016 3.9000000000000004 -0.69152099999999994 -0.75607099999999983 -0.64372099999999988 -0.82980649999999978 -0.80287099999999989 3.5000000000000004 6.9000000000000012 -1.4064149999999997 6.9000000000000012
decision_type=2 2 2 2 2 2 2 2 2 2 2 2 2 2 2 2 2 2 2 2 2 2 2 2 2 2 2 2 2 2
left_child=1 2 8 16 5 7 10 -4 23 18 -2 12 -7 -12 -8 29 -3 25 28 -14 -19 22 -21 24 -1 -10 -27 -9 -5 -16
right_child=6 3 4 9 -6 11 14 27 17 -11 13 -13 19 -15 15 -17 -18 20 -20 21 -22 -23 -24 -25 -26 26 -28 -29 -30 -31
leaf_value=0.040296910362570632 0.11031739421673346 0.13492632405438584 0.028525831375136985 0.03941665380900454 -0.0012595096708418621 -0.081829967742263421 0.13675834576180429 -0.044863471005444473 -0.015574657076753921 0.08544959291247263 0.040842370920457186 -0.053591945109343758 -0.07855309124882795 0.077352297225862732 0.083936912898329816 0.12520173655027841 0.092262640836089552 -0.0034720774617705546 0.03628064928165281 -0.10463230633609413 0.11433425475975736 -0.090308243948908559 -0.13248242883392303 0.070746834669498077 0.00066469896644169796 -0.091583501058358413 -0.017143444888697328 -0.065209430406641275 -0.014906457762449379 0.01267838441393941
leaf_weight=16739 13895 20361 7752 3261 18421 50021 34444 28081 14075 10500 18286 9351 10559 24051 8822 26240 8667 2831 12145 25020 949 14438 24866 4130 14859 4875 4874 66762 12208 1701
leaf_count=16739 13895 20361 7752 3261 18421 50021 34444 28081 14075 10500 18286 9351 10559 24051 8822 26240 8667 2831 12145 25020 949 14438 24866 4130 14859 4875 4874 66762 12208 1701
internal_value=0 -0.0334365 -0.0556468 0.0719562 -0.0707298 -0.0761329 0.101209 -0.052558 0.00514787 0.0336991 0.0736254 -0.0941483 -0.0971845 0.0615831 0.122991 0.110093 0.122188 -0.0235678 0.0140214 -0.107441 0.0261042 -0.112183 -0.118514 0.0273341 0.0216598 -0.031449 -0.0543673 -0.0591854 -0.00345467 0.0724183
internal_weight=0 385745 318603 67142 255271 236850 127439 102595 63332 38114 56232 134255 124904 42337 71207 36763 29028 27604 27614 74883 3780 64324 49886 35728 31598 23824 9749 94843 15469 10523
internal_count=513184 385745 318603 67142 255271 236850 127439 102595 63332 38114 56232 134255 124904 42337 71207 36763 29028 27604 27614 74883 3780 64324 49886 35728 31598 23824 9749 94843 15469 10523
is_linear=0
shrinkage=0.1


Tree=5
num_leaves=31
num_cat=0
split_feature=0 1 1 0 0 0 0 0 1 1 0 1 1 1 1 0 1 0 1 0 0 0 1 1 1 1 1 0 0 1
split_gain=141048 75515.2 22916.3 10487.7 8537.89 7083.91 4616.02 6451.86 3233.66 2825.46 2076.36 1885.23 1241.67 2522.77 1022.6 1014.3 872.402 846.566 1038.42 812.346 798.895 760.89 759.843 2507.33 1330.06 1279.36 766.024 736.875 712.23 925.678
threshold=-0.60570649999999981 10.900000000000002 4.3000000000000007 -1.5400149999999997 -0.53477099999999989 -1.3092699999999999 -0.64702099999999996 -0.85342099999999987 2.9000000000000004 11.300000000000002 -0.42540649999999997 3.5000000000000004 5.7000000000000002 7.3000000000000016 5.1000000000000005 -1.4064149999999997 11.700000000000001 -0.68125949999999991 5.1000000000000005 -0.75952099999999989 -0.57182099999999991 -1.4350649999999998 8.9000000000000021 7.7000000000000002 7.3000000000000016 9.1000000000000014 7.5000000000000009 -0.91072099999999989 -0.99280649999999981 10.300000000000002
decision_type=2 2 2 2 2 2 2 2 2 2 2 2 2 2 2 2 2 2 2 2 2 2 2 2 2 2 2 2 2 2
left_child=1 2 8 -3 11 21 7 14 27 15 12 -2 -6 -14 -7 -5 -11 18 -9 -20 -13 -4 23 24 -19 -24 -26 -1 29 -16
right_child=4 3 5 9 10 6 -8 17 -10 16 -12 20 13 -15 28 -17 -18 22 19 -21 -22 -23 25 -25 26 -27 -28 -29 -30 -31
leaf_value=0.045253548175783885 0.094051282541727982 0.11443629029868869 0.046704189420855448 0.043272077609474796 0.10948216211602707 -0.027842814805910943 -0.021207878551368277 -0.063764445175341106 -0.023593638710815636 0.037145810390384219 0.12361251338101978 0.023936181884452675 0.037986759193956651 0.098216489546802108 -0.045052417299449705 -0.013415811408132337 0.074854592557163604 -0.070613913978398099 -0.091570885879748376 -0.11321312924509051 0.054539882991868363 -0.0080661683538360198 0.10931571295653607 -0.15769848699542505 0.13134214816084744 -0.056498931653873791 -0.036014583097572946 0.01327001949456651 -0.068614455638936547 -0.073974095233765885
leaf_weight=10216 7940 26026 4407 4257 25310 10029 18493 8259 26728 13149 35063 16289 9960 23045 40489 12208 11502 7120 38770 31382 17907 5976 541 3331 548 3326 546 24428 60710 15229
leaf_count=10216 7940 26026 4407 4257 25310 10029 18493 8259 26728 13149 35063 16289 9960 23045 40489 12208 11502 7120 38770 31382 17907 5976 541 3331 548 3326 546 24428 60710 15229
internal_value=0 -0.0314038 -0.0521964 0.0647606 0.0875207 -0.0656789 -0.0691951 -0.0732237 0.00253959 0.0333164 0.104382 0.0501545 0.092819 0.0800408 -0.0584823 0.00124075 0.0547405 -0.0930925 -0.0973038 -0.101252 0.039962 0.0151808 -0.0716668 -0.0845174 -0.0548405 -0.0333012 0.0478168 0.0227015 -0.0611216 -0.0529574
internal_weight=0 377670 310528 67142 135514 249156 238773 220280 61372 41116 93378 42136 58315 33005 126457 16465 24651 93823 78411 70152 34196 10383 15412 11545 8214 3867 1094 34644 116428 55718
internal_count=513184 377670 310528 67142 135514 249156 238773 220280 61372 41116 93378 42136 58315 33005 126457 16465 24651 93823 78411 70152 34196 10383 15412 11545 8214 3867 1094 34644 116428 55718
is_linear=0
shrinkage=0.1


Tree=6
num_leaves=31
num_cat=0
split_feature=0 1 1 0 0 0 0 0 1 1 1 1 0 1 1 0 1 1 1 1 0 1 1 1 1 1 1 0 1 1
split_gain=114417 61698.7 18387.4 8549.58 7399.55 5817.39 3040.61 5030.15 2597.26 2590.23 1758.9 2917.2 1626.96 946.858 2380.81 863.163 810.512 1743.22 762.809 692.356 637.672 627.128 1674.58 1732.88 1611.81 1209.35 778.589 619.064 599.99 738.381
threshold=-0.6092209999999999 10.900000000000002 4.3000000000000007 -1.5088149999999998 -0.53142099999999981 -1.3092699999999999 -0.88822099999999982 -0.6505209999999999 2.9000000000000004 11.700000000000001 5.5000000000000009 6.7000000000000002 -0.45462099999999994 8.9000000000000021 7.5000000000000009 -1.6633149999999997 5.7000000000000002 6.7000000000000002 6.9000000000000012 11.300000000000002 -0.90102099999999996 8.9000000000000021 7.9000000000000012 7.3000000000000016 9.1000000000000014 8.5000000000000018 7.5000000000000009 -1.4490649999999998 8.7000000000000011 10.300000000000002
decision_type=2 2 2 2 2 2 2 2 2 2 2 2 2 2 2 2 2 2 2 2 2 2 2 2 2 2 2 2 2 2
left_child=1 2 8 15 10 27 18 13 20 19 -2 -12 16 14 -8 -3 -6 -18 -7 -5 -1 22 23 -9 -23 -24 -25 -4 -20 -30
right_child=4 3 5 9 12 6 7 21 -10 -11 11 -13 -14 -15 -16 -17 17 -19 28 -21 -22 24 25 26 -26 -27 -28 -29 29 -31
leaf_value=0.039761775389162674 0.070447226617871603 0.11680830863399412 0.046036001137528287 -0.0029626537592091873 0.095839806144512485 -0.038216009839604076 -0.074893790338688274 -0.035674109222191358 -0.021766208901553667 0.069419174498888125 -0.030091467080138681 0.047015591586872497 0.10687880780300006 -0.066123413896344657 -0.11153124049364778 0.082311667702095817 0.012895081022860327 0.081220066697448301 -0.068180829411803853 0.028938003486612497 0.010553903268141833 0.1538830811546599 -0.14776585070838152 0.15717213837886329 -0.016840924366687698 -0.024147162701947757 0.023845484891135242 -0.0047545782117429623 -0.038980089807094137 -0.064087367447008145
leaf_weight=10994 17449 14189 3765 15469 18484 34327 53307 8595 26499 10500 6274 22512 49070 29513 26581 14839 4635 19213 26880 12145 23351 642 1965 657 3989 1325 1314 6618 27886 20197
leaf_count=10994 17449 14189 3765 15469 18484 34327 53307 8595 26499 10500 6274 22512 49070 29513 26581 14839 4635 19213 26880 12145 23351 642 1965 657 3989 1325 1314 6618 27886 20197
internal_value=0 -0.0285854 -0.0474976 0.0582845 0.0779961 -0.0596027 -0.06281 -0.0732769 0.00175535 0.0271429 0.0453954 0.0302099 0.0944869 -0.0814296 -0.0870841 0.0991738 0.0801227 0.0679407 -0.0505619 0.0110677 0.0199035 -0.0250319 -0.0356798 -0.0162809 0.00682671 -0.0979802 0.0682877 0.0136627 -0.0562154 -0.0495263
internal_weight=0 375547 308405 67142 137637 247561 237178 127888 60844 38114 46235 28786 91402 109401 79888 29028 42332 23848 109290 27614 34345 18487 13856 10566 4631 3290 1971 10383 74963 48083
internal_count=513184 375547 308405 67142 137637 247561 237178 127888 60844 38114 46235 28786 91402 109401 79888 29028 42332 23848 109290 27614 34345 18487 13856 10566 4631 3290 1971 10383 74963 48083
is_linear=0
shrinkage=0.1


Tree=7
num_leaves=31
num_cat=0
split_feature=0 1 1 0 0 0 0 0 1 1 1 1 1 0 1 1 1 1 1 0 1 0 0 0 0 0 0 0 1 1
split_gain=93034.3 47355.7 15782.2 7015.62 6336.77 5672.52 3694.19 2873.78 2647.36 1855.83 1554.13 2475.96 1494.09 1161.57 2705.44 1136.25 1787.2 1138.33 1572.24 1031.91 1575.06 1124.51 894.067 891.74 873.608 772.9 835.181 752.901 988.928 638.577
threshold=-0.58522099999999988 10.900000000000002 4.7000000000000002 -1.5566149999999996 -0.62632099999999991 -0.94967099999999982 -0.47422099999999995 -1.3921149999999998 2.9000000000000004 11.300000000000002 8.9000000000000021 7.5000000000000009 4.3000000000000007 -0.69462099999999982 7.3000000000000016 7.3000000000000016 5.7000000000000002 7.9000000000000012 8.5000000000000018 -0.67132099999999995 9.1000000000000014 -0.78285899999999986 -0.84650599999999987 -0.64032099999999992 -1.4490649999999998 -0.64702099999999996 -0.81942099999999984 -0.7896709999999999 3.5000000000000004 6.7000000000000002
decision_type=2 2 2 2 2 2 2 2 2 2 2 2 2 2 2 2 2 2 2 2 2 2 2 2 2 2 2 2 2 2
left_child=1 2 8 -3 5 7 12 -4 25 24 11 13 -2 22 -15 16 -14 -17 -19 21 -21 -12 -7 27 -5 26 -1 -10 -29 -18
right_child=6 3 4 9 -6 10 -8 -9 23 -11 19 -13 15 14 -16 17 29 18 -20 20 -22 -23 -24 -25 -26 -27 -28 28 -30 -31
leaf_value=0.029294377419274716 0.08549701981175889 0.09518377088827315 0.028198384598224515 0.047335936037312329 0.0059298749735026213 -0.054673382670945986 0.09371896722914036 -0.041144080213216125 -0.011425506481135451 0.044960883286920543 -0.04520782044017483 -0.096297181016820707 0.063541246660496181 -0.050852357269617177 0.11234445419233569 0.10557867432708171 -0.011806315653864597 0.0070544956702050582 0.070235142011041571 0.12922817269678821 -0.032086175508914558 -0.081942975828516729 -0.081084464019682112 0.023886627903583431 -0.0090501325572430336 0.057412980729725428 -0.0036064000997210245 -0.078924550622001349 -0.020131856100317948 0.035986711637837017
leaf_weight=17579 16057 24440 6443 3446 17785 21537 59144 82566 18497 25696 24351 35285 10589 13129 1101 5360 7149 5322 15153 704 4316 12668 31658 4447 13560 4940 13751 4769 7151 4591
leaf_count=17579 16057 24440 6443 3446 17785 21537 59144 82566 18497 25696 24351 35285 10589 13129 1101 5360 7149 5322 15153 704 4316 12668 31658 4447 13560 4940 13751 4769 7151 4591
internal_value=0 -0.0239524 -0.0398514 0.0524561 -0.051612 -0.05599 0.0756869 -0.0361247 0.00173653 0.0280014 -0.0682055 -0.0748347 0.0590803 -0.0636028 -0.0382255 0.0502734 0.0337521 0.0645527 0.0538128 -0.0520092 -0.00946361 -0.0577787 -0.0703914 -0.0179402 0.00237562 0.0206505 0.0148539 -0.0240554 -0.0436539 0.00688344
internal_weight=0 389819 322677 67142 251543 233758 123365 89009 71134 42702 144749 102710 64221 67425 14230 48164 22329 25835 20475 42039 5020 37019 53195 34864 17006 36270 31330 30417 11920 11740
internal_count=513184 389819 322677 67142 251543 233758 123365 89009 71134 42702 144749 102710 64221 67425 14230 48164 22329 25835 20475 42039 5020 37019 53195 34864 17006 36270 31330 30417 11920 11740
is_linear=0
shrinkage=0.1


Tree=8
num_leaves=31
num_cat=0
split_feature=0 1 1 0 0 0 0 0 1 1 0 1 1 1 1 1 1 1 0 1 0 0 1 0 0 1 1 0 1 0
split_gain=75457.7 38086.2 12955.6 5727.24 5682.65 4557.84 2772 2356.04 1736.65 1553.86 1247.98 1184.62 1034.64 2297.19 894.511 1456.86 874.43 1234.59 774.522 1272.54 958.891 763.634 991.726 677.827 654.697 2156.06 758.058 610.84 856.099 597.159
threshold=-0.58190649999999999 10.900000000000002 4.3000000000000007 -0.62967099999999987 -1.5566149999999996 -0.94307099999999988 -0.47022099999999994 -1.32317 2.9000000000000004 11.700000000000001 -1.4777149999999997 4.3000000000000007 8.9000000000000021 7.5000000000000009 7.3000000000000016 5.7000000000000002 7.9000000000000012 8.5000000000000018 -0.6747209999999999 9.1000000000000014 -0.7795709999999999 -0.65422099999999983 3.9000000000000004 -0.62632099999999991 -0.69152099999999994 7.3000000000000016 5.1000000000000005 -0.81612099999999987 3.5000000000000004 -0.71182099999999993
decision_type=2 2 2 2 2 2 2 2 2 2 2 2 2 2 2 2 2 2 2 2 2 2 2 2 2 2 2 2 2 2
left_child=1 2 8 5 -3 7 11 -4 23 10 -6 -2 13 24 15 -13 -16 -18 20 -20 -14 27 -23 -1 26 -26 -7 -10 29 -29
right_child=6 4 3 -5 9 12 -8 -9 21 -11 -12 14 18 -15 16 -17 17 -19 19 -21 -22 22 -24 -25 25 -27 -28 28 -30 -31
leaf_value=0.014424541493088356 0.078071688249634563 0.085665394693564281 0.01395144153107262 0.0040112520181260301 0.05863671298364681 -0.038476285178401966 0.084918367440073458 -0.038117612189773241 -0.0071831931122218048 0.055672873032322691 0.0042949446566849956 0.058879287459786149 -0.041088091391430201 -0.087526411312807376 0.095537120504032291 0.0077645761407479363 0.0088182796575185223 0.064674943594596121 0.11431577671425684 -0.030978979530408068 -0.075934163413255762 -0.003922230640570794 0.10236604872716551 0.060471323099167508 -0.04746055644296733 0.1051179444885235 -0.066764490871751556 -0.043215738124677827 -0.010900727547677595 -0.11420140947567994
leaf_weight=32978 16164 24440 9699 21434 5061 12042 57079 83539 13225 12023 25618 10659 23725 34264 5332 11693 5357 15142 700 4341 11837 3480 1174 3540 12861 998 44406 3346 5192 1835
leaf_count=32978 16164 24440 9699 21434 5061 12042 57079 83539 13225 12023 25618 10659 23725 34264 5332 11693 5357 15142 700 4341 11837 3480 1174 3540 12861 998 44406 3346 5192 1835
internal_value=0 -0.0213482 -0.0355286 -0.0455027 0.0472105 -0.0499541 0.068876 -0.0327012 0.00448565 0.0252012 0.0132595 0.0546457 -0.0610348 -0.0662953 0.046787 0.0321397 0.0594616 0.0500779 -0.0474868 -0.0108032 -0.0526868 -0.0141309 0.0228896 0.0188882 -0.0559483 -0.0364732 -0.0607298 -0.0214321 -0.0395986 -0.0683574
internal_weight=0 391758 324616 259846 67142 238412 121426 93238 64770 42702 30679 64347 145174 104571 48183 22352 25831 20499 40603 5041 35562 28252 4654 36518 70307 13859 56448 23598 10373 5181
internal_count=513184 391758 324616 259846 67142 238412 121426 93238 64770 42702 30679 64347 145174 104571 48183 22352 25831 20499 40603 5041 35562 28252 4654 36518 70307 13859 56448 23598 10373 5181
is_linear=0
shrinkage=0.1


Tree=9
num_leaves=31
num_cat=0
split_feature=0 1 1 0 0 0 0 0 0 1 1 1 1 1 0 1 1 1 1 1 0 0 1 1 1 1 1 1 1 1
split_gain=61197.5 33123.4 9758.29 4638 4602.95 3402.57 1710.13 1692.12 1653.89 1623.84 1340.53 1198.89 1095.42 875.692 679.247 678.995 983.431 724.24 1502.15 1081.95 644.47 598.91 592.689 2022.99 875.044 1737.64 862.46 528.072 932.511 567.903
threshold=-0.61280649999999992 10.900000000000002 4.7000000000000002 -0.54145949999999987 -1.5566149999999996 -1.0091699999999999 -1.4064149999999997 -0.64702099999999996 -0.82980649999999978 2.9000000000000004 11.300000000000002 4.3000000000000007 3.1000000000000005 8.5000000000000018 -0.69462099999999982 5.7000000000000002 6.7000000000000002 6.9000000000000012 7.1000000000000005 8.1000000000000014 -1.4064149999999997 -0.75607099999999983 7.7000000000000002 8.7000000000000011 9.9000000000000021 9.7000000000000011 7.3000000000000016 9.1000000000000014 7.1000000000000005 9.7000000000000011
decision_type=2 2 2 2 2 2 2 2 2 2 2 2 2 2 2 2 2 2 2 2 2 2 2 2 2 2 2 2 2 2
left_child=1 2 9 12 -3 6 -4 8 27 -1 20 -5 -2 15 21 -13 -17 -18 -19 -20 -6 -10 26 -24 25 -25 -16 28 -7 -29
right_child=3 4 5 11 10 7 -8 -9 14 -11 -12 13 -14 -15 22 16 17 18 19 -21 -22 -23 23 24 -26 -27 -28 29 -30 -31
leaf_value=0.014027260512360999 0.065453870130051259 0.077098855025541965 0.027662545295527471 0.08500366671088827 0.031953906294468669 -0.038130443249287042 -0.029564216052183179 -0.019072707204445757 -0.061057626915006484 -0.017176750123185616 0.037095047281640862 0.070691331226768489 0.021762253141851345 0.077999316270227992 -0.044316926282475355 0.017802990045345985 0.10110782958984375 -0.024069536407515149 0.083035973834604246 0.030837846604298658 -0.011302446050449493 -0.081259405481850178 -0.12330955176162449 -0.036956596416686659 -0.096343583583442222 0.12644415790488006 0.036809085394911713 -0.011634754039736088 -0.063494721582825472 -0.04333761385378003
leaf_weight=34069 6845 24440 5762 30242 4798 31578 55714 14770 32676 32669 25696 15158 35493 20921 9132 9371 3125 2439 9051 7075 12208 26639 3857 3807 1530 785 1530 8624 26793 16387
leaf_count=34069 6845 24440 5762 30242 4798 31578 55714 14770 32676 32669 25696 15158 35493 20921 9132 9371 3125 2439 9051 7075 12208 26639 3857 3807 1530 785 1530 8624 26793 16387
internal_value=0 -0.021122 -0.0350648 0.056458 0.0424894 -0.0444849 -0.0242005 -0.0514864 -0.0544174 -0.00124745 0.0226811 0.0684713 0.0288261 0.0610245 -0.0646933 0.0533409 0.0448738 0.0565695 0.0490725 0.060135 0.000901716 -0.0701305 -0.0490688 -0.0665844 -0.0308463 -0.00902332 -0.0326753 -0.0445637 -0.049773 -0.0324062
internal_weight=0 373464 306322 139720 67142 239584 61476 178108 163338 66738 42702 97382 42338 67140 79956 46219 31061 21690 18565 16126 17006 59315 20641 9979 6122 4592 10662 83382 58371 25011
internal_count=513184 373464 306322 139720 67142 239584 61476 178108 163338 66738 42702 97382 42338 67140 79956 46219 31061 21690 18565 16126 17006 59315 20641 9979 6122 4592 10662 83382 58371 25011
is_linear=0
shrinkage=0.1


Tree=10
num_leaves=31
num_cat=0
split_feature=0 1 1 0 0 0 0 0 1 1 0 1 1 0 0 1 1 0 0 1 1 1 1 1 0 0 1 1 1 1
split_gain=49827.6 24849.1 8593.54 4069.4 3778.54 2968.61 1857.2 1841.58 1134.12 1105.18 1014.03 803.92 1401.73 588.881 581.372 834.667 577.845 534.488 706.602 592.254 529.732 521.963 612.055 641.27 957.26 550.395 511.624 1370.86 621.307 1619.65
threshold=-0.57862099999999994 10.900000000000002 4.3000000000000007 -0.62307099999999982 -1.5774149999999998 -0.87900649999999991 -0.46227099999999993 -1.3092699999999999 2.9000000000000004 11.300000000000002 -0.65782099999999988 5.5000000000000009 6.7000000000000002 -1.3921149999999998 -0.65422099999999983 3.9000000000000004 6.9000000000000012 -0.6505209999999999 -0.82642099999999996 2.3000000000000003 2.5000000000000004 5.1000000000000005 8.9000000000000021 7.7000000000000002 -0.74922099999999991 -0.71182099999999993 6.7000000000000002 5.7000000000000002 7.9000000000000012 8.5000000000000018
decision_type=2 2 2 2 2 2 2 2 2 2 2 2 2 2 2 2 2 2 2 2 2 2 2 2 2 2 2 2 2 2
left_child=1 2 8 5 -3 7 11 -4 17 13 21 -2 -13 -6 -10 -16 -9 18 19 -1 -19 -7 23 25 -25 -23 27 -5 -28 -30
right_child=6 4 3 26 9 10 -8 16 14 -11 -12 12 -14 -15 15 -17 -18 20 -20 -21 -22 22 -24 24 -26 -27 28 -29 29 -31
leaf_value=0.047986268008111573 0.05910101563610444 0.071731880621402691 0.010836418076915204 0.021378461103219157 0.027731727048325286 -0.034320098567683213 0.070534866100190149 -0.022671521535009682 -0.017571179353435155 0.034148982367806745 -0.027873736625304953 0.002229520296639973 0.046695912766427899 -0.010952758398083226 -0.0036430181835398635 0.091711053492678996 -0.037996708291643248 0.018720565500587007 -0.0062754528878178149 0.0094937767324697678 0.080764606256110996 -0.062482194155744492 -0.045191065163031431 -0.059434103154797073 -0.10250539420236393 -0.035998202455374592 0.049910306086192367 -0.067944175480803212 -0.072723332783713693 0.028201535446180134
leaf_weight=6424 26139 22432 10383 4257 5914 10613 52968 35961 23598 27036 15534 9174 31197 11760 3645 1227 77903 3437 14042 10581 2295 32167 27190 12447 8814 10379 4264 2881 2115 6407
leaf_count=6424 26139 22432 10383 4257 5914 10613 52968 35961 23598 27036 15534 9174 31197 11760 3645 1227 77903 3437 14042 10581 2295 32167 27190 12447 8814 10379 4264 2881 2115 6407
internal_value=0 -0.0171655 -0.028557 -0.036663 0.0382405 -0.0402482 0.056564 -0.0294803 0.00390659 0.0214371 -0.0516691 0.0454378 0.0365913 0.00199168 -0.0110781 0.0203716 -0.0331566 0.015506 0.0103262 0.0240351 0.043562 -0.0553069 -0.0577546 -0.0631083 -0.0772898 -0.0560215 0.00677353 -0.0146734 0.0187467 0.00315388
internal_weight=0 393706 326564 261315 67142 241391 119478 124247 65249 44710 117144 66510 40371 17674 28470 4872 113864 36779 31047 17005 5732 101610 90997 63807 21261 42546 19924 7138 12786 8522
internal_count=513184 393706 326564 261315 67142 241391 119478 124247 65249 44710 117144 66510 40371 17674 28470 4872 113864 36779 31047 17005 5732 101610 90997 63807 21261 42546 19924 7138 12786 8522
is_linear=0
shrinkage=0.1


Tree=11
num_leaves=31
num_cat=0
split_feature=0 1 1 0 0 0 0 1 0 1 1 1 1 1 1 1 1 1 0 1 1 0 0 0 0 1 1 1 1 1
split_gain=40407.8 19978.6 7019.49 3506.22 3109.2 2580.37 1503.72 1274.33 1212.45 1130.28 954.228 1502.36 876.78 800.158 1184.91 650.632 1074.61 584.851 1005.65 2101.01 1834.35 1039.03 567.159 546.408 514.335 491.594 1125.9 519.702 1368.21 785.294
threshold=-0.57522099999999987 10.900000000000002 4.7000000000000002 -0.62307099999999982 -1.5088149999999998 -1.0023699999999998 -0.41327099999999994 11.700000000000001 -1.4200649999999999 2.9000000000000004 8.9000000000000021 7.5000000000000009 4.3000000000000007 7.3000000000000016 5.7000000000000002 7.9000000000000012 8.5000000000000018 9.9000000000000021 -0.68480599999999991 9.7000000000000011 9.1000000000000014 -0.74237099999999989 -1.4777149999999997 -1.7091099999999997 -0.62967099999999987 6.7000000000000002 5.7000000000000002 7.9000000000000012 8.5000000000000018 7.3000000000000016
decision_type=2 2 2 2 2 2 2 2 2 2 2 2 2 2 2 2 2 2 2 2 2 2 2 2 2 2 2 2 2 2
left_child=1 2 9 5 23 8 12 -6 -4 -1 11 -7 -2 14 -14 -15 -17 18 21 20 -20 -12 -9 -3 -11 26 -5 29 -29 -27
right_child=6 4 3 25 7 10 -8 22 -10 24 17 -13 13 15 -16 16 -18 -19 19 -21 -22 -23 -24 -25 -26 27 -28 28 -30 -31
leaf_value=0.014202201334635213 0.061564805866629546 0.077868005188032136 0.027100696145912109 0.020718634239605238 0.004361233053352934 -0.039997039757737822 0.071065219076709402 -0.026864095854281858 -0.023703721630893838 -0.015233033113591971 -0.021381610997939324 -0.063650222808696991 0.04790351545968019 0.076826753948892615 0.007792220368297147 0.010761240644537278 0.05443855595905929 -0.044769607501717122 0.10449559259929737 0.14721896491116948 -0.053902613243814249 -0.073761816247514086 0.052775609029327153 0.04905860195188997 0.021344373901025102 0.0028924837476255812 -0.060381039430922517 -0.063851356934715095 0.025577788440337632 0.085558356031769048
leaf_weight=37051 23356 10092 5100 3832 27614 79016 29436 987 59511 31280 20860 40677 14016 6843 15519 7760 20551 20430 972 1008 2950 4627 9513 18936 4383 2278 3094 2275 6898 2319
leaf_count=37051 23356 10092 5100 3832 27614 79016 29436 987 59511 31280 20860 40677 14016 6843 15519 7760 20551 20430 972 1008 2950 4627 9513 18936 4383 2278 3094 2275 6898 2319
internal_value=0 -0.0152896 -0.0254471 -0.0332393 0.0344164 -0.0367123 0.0514988 0.0156365 -0.0196935 0.00197031 -0.04316 -0.0480354 0.0449571 0.0389609 0.0268273 0.0491551 0.0424667 -0.0316834 -0.0228939 0.018449 -0.0146464 -0.0308909 0.0452895 0.0590746 -0.0107377 0.00622089 -0.0155104 0.0171512 0.00339842 0.0445941
internal_weight=0 395703 328561 255847 67142 235151 117481 38114 64611 72714 170540 119693 88045 64689 29535 35154 28311 50847 30417 4930 3922 25487 10500 29028 35663 20696 6926 13770 9173 4597
internal_count=513184 395703 328561 255847 67142 235151 117481 38114 64611 72714 170540 119693 88045 64689 29535 35154 28311 50847 30417 4930 3922 25487 10500 29028 35663 20696 6926 13770 9173 4597
is_linear=0
shrinkage=0.1


Tree=12
num_leaves=31
num_cat=0
split_feature=0 1 1 0 0 0 0 1 0 0 0 1 0 1 0 0 1 1 1 1 1 1 1 1 1 1 1 1 1 0
split_gain=32774.9 17780 5083.67 2812.77 2525.72 2028.28 1087 945.804 936.897 904.971 844.352 798.656 1038.92 775.823 667.025 538.911 523.328 530.932 838.315 624.681 887.867 462.437 1075.4 1244.13 776.04 678.305 640.376 611.988 545.45 461.562
threshold=-0.61602099999999982 10.900000000000002 4.7000000000000002 -0.54487099999999988 -1.5774149999999998 -0.95960599999999985 -1.4064149999999997 2.3000000000000003 -0.65782099999999988 -0.81280649999999988 -0.40042099999999997 11.500000000000002 -1.4350649999999998 3.5000000000000004 -0.74237099999999989 -0.88822099999999982 4.3000000000000007 7.3000000000000016 6.9000000000000012 6.7000000000000002 5.7000000000000002 7.3000000000000016 7.9000000000000012 8.5000000000000018 5.7000000000000002 6.4000000000000012 9.1000000000000014 3.9000000000000004 8.9000000000000021 -0.66452099999999992
decision_type=2 2 2 2 2 2 2 2 2 2 2 2 2 2 2 2 2 2 2 2 2 2 2 2 2 2 2 2 2 2
left_child=1 2 7 13 -3 6 -4 14 9 -7 16 12 -6 -2 -1 -9 -5 18 19 20 -18 24 -23 -24 27 -26 28 -15 -25 -17
right_child=3 4 5 10 11 8 -8 15 -10 -11 -12 -13 -14 21 -16 29 17 -19 -20 -21 -22 22 23 26 25 -27 -28 -29 -30 -31
leaf_value=0.037628695101064542 0.047413024600714303 0.058356716292518353 0.021686274999426963 0.058515511191790319 0.038992962433619743 -0.034227264717013019 -0.023309845597494546 0.0066163393167056415 -0.018100610654236286 -0.050557825737319421 0.066713205375275628 0.032676192944685455 -0.0065305586050756845 -0.047142561974400136 -0.011080714656505569 -0.019987200599682928 0.047207958567893914 0.048771504043343433 -0.024139200144774248 0.08400078653734315 0.0041317778787487653 0.073982713234475916 -0.04093070128406183 0.036217154818672624 -0.0551983945710691 0.0036293763617187519 0.011386927345071565 0.030873599674487402 0.12097163501284891 0.010058839367669135
leaf_weight=9116 7973 22432 5762 20800 6848 68026 78680 18207 18012 67710 23430 19152 18710 1150 4065 28594 11708 30353 2647 2363 8092 3485 3375 2286 3428 4577 6839 8001 1137 6226
leaf_count=9116 7973 22432 5762 20800 6848 68026 78680 18207 18012 67710 23430 19152 18710 1150 4065 28594 11708 30353 2647 2363 8092 3485 3375 2286 3428 4577 6839 8001 1137 6226
internal_value=0 -0.0156038 -0.0258778 0.0409297 0.0309748 -0.0326911 -0.0202395 -0.00136606 -0.0395299 -0.0423735 0.0501174 0.0172367 0.00566699 0.019316 0.0226068 -0.00732502 0.0449986 0.0399018 0.0290505 0.0354031 0.0296033 0.0127807 0.0244073 0.011738 0.00117727 -0.0215626 0.0290599 0.0210694 0.0643696 -0.0146148
internal_weight=0 371540 304398 141644 67142 238190 84442 66208 153748 135736 99393 44710 25558 42251 13181 53027 75963 55163 24810 22163 19800 34278 17122 13637 17156 8005 10262 9151 3423 34820
internal_count=513184 371540 304398 141644 67142 238190 84442 66208 153748 135736 99393 44710 25558 42251 13181 53027 75963 55163 24810 22163 19800 34278 17122 13637 17156 8005 10262 9151 3423 34820
is_linear=0
shrinkage=0.1


Tree=13
num_leaves=31
num_cat=0
split_feature=0 0 1 1 0 0 0 0 0 0 1 1 0 1 1 1 1 1 1 1 1 1 1 1 1 1 1 1 1 1
split_gain=26642.4 13201.8 4056.07 3888.27 2664.46 1623.09 986.647 953.575 784.054 994.86 670.645 613.641 520.411 507.735 507.603 429.982 425.926 1012.55 569.894 1393.25 704.895 601.751 538.502 627.559 409.148 406.954 779.435 406.789 1676.43 400.861
threshold=-0.57182099999999991 -1.3921149999999998 4.3000000000000007 11.100000000000001 -0.63320649999999989 -0.84650599999999987 -1.6202149999999997 -0.43402099999999993 -0.65422099999999983 -0.81612099999999987 2.3000000000000003 11.900000000000002 -0.68125949999999991 3.1000000000000005 5.1000000000000005 5.3000000000000016 6.7000000000000002 5.7000000000000002 7.9000000000000012 8.5000000000000018 7.3000000000000016 6.9000000000000012 9.1000000000000014 8.9000000000000021 3.9000000000000004 3.9000000000000004 3.5000000000000004 9.7000000000000011 9.9000000000000021 8.9000000000000021
decision_type=2 2 2 2 2 2 2 2 2 2 2 2 2 2 2 2 2 2 2 2 2 2 2 2 2 2 2 2 2 2
left_child=1 6 8 4 5 14 -1 13 9 10 -3 -5 -7 -2 -4 -16 17 -6 20 -20 21 -18 23 -21 -12 26 -10 -24 -29 -14
right_child=7 2 3 11 16 12 -8 -9 25 -11 24 -13 29 -15 15 -17 18 -19 19 22 -22 -23 27 -25 -26 -27 -28 28 -30 -31
leaf_value=0.055819029754287854 0.053546292682033141 0.037856685980420732 -0.0026028332961639811 0.010102270127190229 0.01175494528249095 -0.044665304528854748 0.026027361324249355 0.054998497091498282 0.030470723983550975 -0.017339137991462712 0.0080295977026055149 0.056539633921643628 -0.034922457852367743 0.03204834424206781 -0.054977199577589841 -0.024468403413592753 0.066226537475115477 -0.053682734471003704 -0.060990889343995214 0.020803825740923969 0.071265704813890024 -0.030064547365639318 -0.025097772718272376 0.1188865974986882 -0.026886696755900902 0.078861212375564704 -0.051244107809366363 0.13394328451398665 -0.025648045296651208 -0.0034672617283481679
leaf_weight=18295 13301 6763 10368 17118 5876 75184 28332 39049 9196 23274 20293 3413 16196 63124 4797 124886 973 3957 2936 1955 2955 1949 2958 979 4021 1327 1337 985 1984 5403
leaf_count=18295 13301 6763 10368 17118 5876 75184 28332 39049 9196 23274 20293 3413 16196 63124 4797 124886 973 3957 2936 1955 2955 1949 2958 979 4021 1327 1337 985 1984 5403
internal_value=0 -0.0122775 -0.0189172 -0.024099 -0.027355 -0.0307765 0.0377167 0.0422855 0.00337785 -0.00170545 0.0100028 0.0178219 -0.040735 0.0357898 -0.0238947 -0.0255969 0.00210432 -0.0145785 0.0113859 -0.00128834 0.0368271 0.00199953 0.0184935 0.0535315 0.00225521 0.0266732 0.0200983 0.00114884 0.0272982 -0.0270539
internal_weight=0 397710 351083 284872 264341 236834 46627 115474 66211 54351 31077 20531 96783 76425 140051 129683 27507 9833 17674 11797 5877 2922 8861 2934 24314 11860 10533 5927 2969 21599
internal_count=513184 397710 351083 284872 264341 236834 46627 115474 66211 54351 31077 20531 96783 76425 140051 129683 27507 9833 17674 11797 5877 2922 8861 2934 24314 11860 10533 5927 2969 21599
is_linear=0
shrinkage=0.1


Tree=14
num_leaves=31
num_cat=0
split_feature=0 1 1 0 0 0 1 1 0 0 1 0 1 0 1 1 1 1 1 1 1 1 0 1 1 0 0 1 1 1
split_gain=21612.1 11751.8 3383.29 1931.53 1687.38 1460.68 837.399 795.806 733.255 1023.79 669.462 587.488 536.571 474.364 416.432 1225.28 1165.91 969.583 712.006 700.075 410.947 1919.66 387.189 377.645 404.819 361.666 351.685 599.333 373.591 349.988
threshold=-0.61602099999999982 10.900000000000002 5.1000000000000005 -0.52097099999999996 -1.5088149999999998 -1.2950699999999997 2.9000000000000004 11.900000000000002 -0.85662099999999997 -0.66452099999999992 3.1000000000000005 -0.79942099999999983 5.3000000000000016 -0.39100649999999992 8.9000000000000021 7.9000000000000012 7.3000000000000016 9.1000000000000014 7.5000000000000009 8.5000000000000018 9.7000000000000011 9.9000000000000021 -1.7345649999999997 3.5000000000000004 4.3000000000000007 -0.94307099999999988 -0.68812099999999987 3.9000000000000004 3.9000000000000004 8.1000000000000014
decision_type=2 2 2 2 2 2 2 2 2 2 2 2 2 2 2 2 2 2 2 2 2 2 2 2 2 2 2 2 2 2
left_child=1 2 6 10 22 -4 25 -6 -7 -10 -2 -8 -11 -5 15 16 -14 -16 -18 29 -19 -22 -3 -13 26 -1 28 -28 -25 -17
right_child=3 4 5 13 7 8 11 -9 9 12 -12 23 14 -15 17 19 18 20 -20 -21 21 -23 -24 24 -26 -27 27 -29 -30 -31
leaf_value=0.027693788409726784 0.043674713014656225 0.062001518423877328 0.0080301636225336703 0.038689036620774241 0.0055823264079197625 -0.0238017304129211 -0.0023994268566457973 0.047487032422408142 -0.040693786434092605 0.066779848372004985 0.014067805770519637 -0.046284047130321082 -0.028723438618248633 0.05650581773871003 0.11035762261772918 -0.054200515756690298 0.13112577828159674 -0.041919380247682769 0.0137325533785576 -0.023265421453742101 0.14357565152914006 -0.04690532861906252 0.036206243836202683 0.01658192650028743 -0.029833908491569333 0.0029057205962991178 -0.015794704859846236 0.085605973265741195 -0.048353718190617866 -0.13693303485670208
leaf_weight=7590 9112 8053 11067 66027 32857 114379 26916 5257 78284 770 47190 5872 6973 19315 751 759 778 2322 1538 1555 798 1570 20975 1777 8815 26218 1182 1150 1767 1567
leaf_count=7590 9112 8053 11067 66027 32857 114379 26916 5257 78284 770 47190 5872 6973 19315 751 759 778 2322 1538 1555 798 1570 20975 1777 8815 26218 1182 1150 1767 1567
internal_value=0 -0.0126709 -0.0210236 0.0332365 0.0251971 -0.0273871 -0.00355737 0.0113622 -0.0292356 -0.0355994 0.0188594 -0.0121221 -0.0150223 0.0427214 -0.0184068 -0.0280214 -0.00830574 0.00486561 0.0531678 -0.07521 -0.0120266 0.0172855 0.0433624 -0.0248487 -0.0162809 0.00847072 0.00405082 0.0342099 -0.0157943 -0.109936
internal_weight=0 371540 304398 141644 67142 223111 81287 38114 212044 97665 56302 47479 19381 85342 18611 13170 9289 5441 2316 3881 4690 2368 29028 20563 14691 33808 5876 2332 3544 2326
internal_count=513184 371540 304398 141644 67142 223111 81287 38114 212044 97665 56302 47479 19381 85342 18611 13170 9289 5441 2316 3881 4690 2368 29028 20563 14691 33808 5876 2332 3544 2326
is_linear=0
shrinkage=0.1


Tree=15
num_leaves=31
num_cat=0
split_feature=0 1 1 0 0 0 0 1 1 1 1 1 1 0 1 0 1 0 1 1 0 1 1 1 0 0 1 1 0 0
split_gain=17676 8870.21 2721.05 2213.84 2087.08 1282.73 789.039 716.227 699 1372.22 457.129 464.01 914.359 747.414 1303.64 647.459 460.994 711.877 1400.26 1130.77 678.083 433.497 1478.27 396.617 342.493 336.996 395.473 399.275 476.638 326.757
threshold=-0.56852099999999994 11.300000000000002 2.9000000000000004 -1.3921149999999998 -0.62967099999999987 -0.84990649999999979 -1.5774149999999998 3.9000000000000004 5.7000000000000002 6.7000000000000002 5.5000000000000009 8.9000000000000021 7.7000000000000002 -0.70840649999999983 7.3000000000000016 -0.74577099999999985 9.9000000000000021 -0.69152099999999994 9.7000000000000011 9.1000000000000014 -0.73562099999999986 6.9000000000000012 7.1000000000000005 3.5000000000000004 -0.72192099999999992 -1.0279699999999996 10.300000000000002 11.100000000000001 -1.32317 -1.3370649999999997
decision_type=2 2 2 2 2 2 2 2 2 2 2 2 2 2 2 2 2 2 2 2 2 2 2 2 2 2 2 2 2 2
left_child=1 2 -1 -4 5 7 -3 -5 -2 -10 23 12 13 -12 -15 -14 17 20 19 -19 -13 -11 -23 24 -7 26 -9 29 -29 -28
right_child=8 6 3 4 -6 10 -8 25 9 21 11 16 15 14 -16 -17 -18 18 -20 -21 -22 22 -24 -25 -26 -27 27 28 -30 -31
leaf_value=0.010256330876947191 0.043365976028867492 0.048452940942329652 0.016842989765069264 0.012926372340467399 0.0042257473416601457 -0.023143844544036882 0.02130606237144235 -0.004676495808390419 -0.0041575408099541813 0.068229475158011962 -0.041082825741168116 -0.012988149573050748 -0.038030077373508803 -0.026782040343830662 0.053684177342301034 -0.07304047605172341 -0.043455565078997976 0.083539009820231394 0.12196953772560802 -0.040596681828465278 -0.064590028520154164 -0.037222306211902922 0.036621686068512155 -0.014930127535488178 -0.067857432263377093 -0.022527506820534737 0.0014305936538709758 -0.055494721872058596 0.018692111166677294 -0.031732249611928227
leaf_weight=37594 51942 17727 17062 7553 31360 4099 27036 29769 11135 3568 22645 9154 10006 10063 2517 11189 8236 977 1017 2948 3528 2889 43992 24724 2943 88830 3494 1088 4245 19854
leaf_count=37594 51942 17727 17062 7553 31360 4099 27036 29769 11135 3568 22645 9154 10006 10063 2517 11189 8236 977 1017 2948 3528 2889 43992 24724 2943 88830 3494 1088 4245 19854
internal_value=0 -0.00989143 -0.0151824 -0.0181964 -0.0201876 -0.023035 0.0320567 -0.0171071 0.0348219 0.0276155 -0.0310828 -0.0350166 -0.0401007 -0.0302258 -0.0106824 -0.0565123 -0.0239244 -0.0147972 0.0173981 -0.00969717 -0.0273433 0.0346284 0.0320711 -0.0208935 -0.0418306 -0.0186473 -0.0127504 -0.0211305 0.00355705 -0.0267695
internal_weight=0 399658 354895 317301 300239 268879 44763 154833 113526 61584 114046 82280 56420 35225 12580 21195 25860 17624 4942 3925 12682 50449 46881 31766 7042 147280 58450 28681 5333 23348
internal_count=513184 399658 354895 317301 300239 268879 44763 154833 113526 61584 114046 82280 56420 35225 12580 21195 25860 17624 4942 3925 12682 50449 46881 31766 7042 147280 58450 28681 5333 23348
is_linear=0
shrinkage=0.1


Tree=16
num_leaves=31
num_cat=0
split_feature=0 1 1 0 0 0 0 0 0 1 1 1 1 1 1 1 1 1 1 1 1 1 1 0 1 1 0 1 1 0
split_gain=14329.3 7142.58 2253.58 1927.4 1504.99 974.297 646.966 591.732 665.376 564.241 563.071 544.872 659.477 787.961 547.789 878.887 462.21 848.041 404.62 379.311 357.616 602.451 333.715 514.091 1227.55 1056.36 623.843 454.391 334.594 507.678
threshold=-0.56512099999999987 11.300000000000002 4.3000000000000007 -1.4200649999999999 -0.62307099999999982 -0.93340599999999985 -1.5988149999999999 -0.65782099999999988 -0.85342099999999987 4.3000000000000007 8.5000000000000018 8.1000000000000014 7.3000000000000016 6.9000000000000012 6.7000000000000002 5.7000000000000002 8.9000000000000021 7.5000000000000009 9.1000000000000014 2.3000000000000003 3.9000000000000004 3.5000000000000004 9.9000000000000021 -0.68812099999999987 9.7000000000000011 9.1000000000000014 -0.73890949999999989 10.300000000000002 10.100000000000001 -0.71182099999999993
decision_type=2 2 2 2 2 2 2 2 2 2 2 2 2 2 2 2 2 2 2 2 2 2 2 2 2 2 2 2 2 2
left_child=1 2 7 -4 5 -5 -3 8 19 -2 11 12 13 14 15 -11 17 -7 -12 -1 21 -9 23 26 25 -25 -18 28 29 -24
right_child=9 6 3 4 -6 16 -8 20 -10 10 18 -13 -14 -15 -16 -17 22 -19 -20 -21 -22 -23 27 24 -26 -27 -28 -29 -30 -31
leaf_value=0.033080596535610136 0.042525130874351322 0.044707709175296123 0.01777307059689897 -0.014338300506786611 0.0036479992760469222 -0.024191125170936877 0.019736178802978028 0.024645168844769163 -0.012289113988322126 0.033248297381727035 0.057400218940288177 -0.0030877495748387017 0.047753226700752931 -0.026173821052241419 0.061170111440064873 -0.0029541601096664638 -0.0090479611309307699 -0.043449057955984111 0.030282967342137087 0.0035689942594038871 0.068128106901748489 -0.043193272891674926 -0.0033802180873260994 0.080603124541148638 0.11305860206975427 -0.036384156204171868 -0.052979932197536321 -0.00517739061296875 -0.060535653599657159 -0.074034924816634803
leaf_weight=5561 33709 16339 14824 105460 26002 69624 28424 10333 28201 17410 8401 7825 10289 3483 3513 10907 15616 34049 15948 20086 1484 1499 3527 1026 1063 3116 4076 5024 4936 1429
leaf_count=5561 33709 16339 14824 105460 26002 69624 28424 10333 28201 17410 8401 7825 10289 3483 3513 10907 15616 34049 15948 20086 1484 1499 3527 1026 1063 3116 4076 5024 4936 1429
internal_value=0 -0.00880306 -0.0135252 -0.0173507 -0.0192444 -0.0216355 0.0288511 0.00297922 -0.00168841 0.0317189 0.0270354 0.0212913 0.0254746 0.0189833 0.0239247 0.019304 -0.0269988 -0.0305159 0.0396391 0.00996795 0.0218545 0.0160507 -0.01784 -0.0107536 0.0171964 -0.00740566 -0.0181413 -0.0296684 -0.0421069 -0.0237526
internal_weight=0 401699 356936 289772 274948 248946 44763 67164 53848 111485 77776 53427 45602 35313 31830 28317 143486 103673 24349 25647 13316 11832 39813 24897 5205 4142 19692 14916 9892 4956
internal_count=513184 401699 356936 289772 274948 248946 44763 67164 53848 111485 77776 53427 45602 35313 31830 28317 143486 103673 24349 25647 13316 11832 39813 24897 5205 4142 19692 14916 9892 4956
is_linear=0
shrinkage=0.1


Tree=17
num_leaves=31
num_cat=0
split_feature=0 0 1 1 0 0 0 0 0 0 1 1 1 1 1 1 1 1 1 1 1 1 1 1 1 1 1 0 0 1
split_gain=11617.6 5784.38 1947.51 1647.57 1452.58 822.257 557.101 517.099 468.907 574.491 679.105 445.024 981.248 643.807 640.43 1546.21 659.247 620.46 505.377 550.562 399.867 1564.76 392.177 333.596 576.945 554.025 518.777 373.895 361.512 350.151
threshold=-0.56172099999999991 -1.3646149999999999 4.7000000000000002 11.100000000000001 -0.64372099999999988 -0.82642099999999996 -1.5088149999999998 -0.40472099999999994 -0.64702099999999996 -0.73212099999999991 2.3000000000000003 6.7000000000000002 5.5000000000000009 5.1000000000000005 7.9000000000000012 8.5000000000000018 7.3000000000000016 6.9000000000000012 9.1000000000000014 8.9000000000000021 9.7000000000000011 9.9000000000000021 8.7000000000000011 6.9000000000000012 8.7000000000000011 10.100000000000001 6.7000000000000002 -1.0658149999999997 -1.0768699999999998 9.1000000000000014
decision_type=2 2 2 2 2 2 2 2 2 2 2 2 2 2 2 2 2 2 2 2 2 2 2 2 2 2 2 2 2 2
left_child=1 6 8 4 5 23 -1 -2 9 10 -3 12 13 -6 16 -16 17 -13 19 22 -20 -22 -17 26 28 29 27 -4 -25 -26
right_child=7 2 3 -5 11 -7 -8 -9 -10 -11 -12 14 -14 -15 15 18 -18 -19 20 -21 21 -23 -24 24 25 -27 -28 -29 -30 -31
leaf_value=0.032292829789739484 0.025111178105481344 0.027397598408493668 0.010601051500833925 0.012767369476749094 -0.018395780368413842 -0.029376508324002765 0.010844433049022249 0.041384612522577691 0.018718203062576096 -0.019888287479774804 -0.002547109948129503 0.059134096735816578 -0.040953335521698248 0.051465725440277658 -0.057848641675176261 0.056151644368429524 0.060502935902605082 -0.025299865765372916 -0.022285234836708669 0.097304976709238489 0.11189343126397155 -0.021672968079573939 -0.021377730811550248 -0.003310102965715911 -0.019894556357936737 -0.022429780498196498 0.027271751635446307 -0.016782550073064378 -0.033859370911231479 0.0034541717567447201
leaf_weight=30529 84050 9450 5880 18318 2611 79873 20072 25435 13640 13627 38140 1302 6597 2666 3892 1316 3964 2625 3939 1303 1314 2638 1294 4421 9475 37224 3560 32802 31288 19939
leaf_count=30529 84050 9450 5880 18318 2611 79873 20072 25435 13640 13627 38140 1302 6597 2666 3892 1316 3964 2625 3939 1303 1314 2638 1294 4421 9475 37224 3560 32802 31288 19939
internal_value=0 -0.00783557 -0.012367 -0.0162191 -0.0182619 -0.0212332 0.0237849 0.0288917 0.00195118 -0.00178475 0.00339904 0.000546193 -0.0152428 0.016899 0.00849457 -0.00318888 0.0317341 0.00269428 0.0148335 0.044217 0.000262722 0.0227365 0.0177137 -0.0167347 -0.0198206 -0.0143245 -0.00925807 -0.01262 -0.0300772 -0.00406705
internal_weight=0 403699 353098 278241 259923 224462 50601 109485 74857 61217 47590 35461 11874 5277 23587 15696 7891 3927 11804 3913 7891 3952 2610 144589 102347 66638 42242 38682 35709 29414
internal_count=513184 403699 353098 278241 259923 224462 50601 109485 74857 61217 47590 35461 11874 5277 23587 15696 7891 3927 11804 3913 7891 3952 2610 144589 102347 66638 42242 38682 35709 29414
is_linear=0
shrinkage=0.1


Tree=18
num_leaves=31
num_cat=0
split_feature=0 1 1 0 0 0 1 0 1 0 0 1 1 1 1 1 1 1 1 1 1 1 1 1 1 1 1 1 1 1
split_gain=9475.37 5293.79 1289.35 1303.93 1042.28 726.62 489.518 451.975 436.798 411.522 440.035 316.984 634.215 297.784 800.779 932.337 663.985 551.874 547.335 381.205 360.773 320 300.923 718.053 294.081 1244.14 291.455 272.903 1199.32 1009.38
threshold=-0.61952099999999988 11.300000000000002 2.9000000000000004 -1.4632149999999997 -0.49937099999999995 -0.87562099999999987 3.1000000000000005 -1.6422149999999998 5.1000000000000005 -0.6747209999999999 -0.76282099999999986 7.7000000000000002 7.9000000000000012 7.3000000000000016 7.9000000000000012 8.5000000000000018 5.7000000000000002 9.1000000000000014 6.1000000000000005 8.9000000000000021 8.7000000000000011 8.3000000000000025 6.9000000000000012 6.7000000000000002 9.7000000000000011 9.9000000000000021 7.5000000000000009 7.7000000000000002 7.3000000000000016 8.5000000000000018
decision_type=2 2 2 2 2 2 2 2 2 2 2 2 2 2 2 2 2 2 2 2 2 2 2 2 2 2 2 2 2 2
left_child=1 2 -1 -4 6 8 -2 -3 -5 10 -7 26 -13 16 -15 21 -8 19 -18 20 -17 -16 23 -20 -19 -26 -12 28 -11 -29
right_child=4 7 3 5 -6 9 13 -9 -10 27 11 12 -14 14 15 17 18 24 22 -21 -22 -23 -24 -25 25 -27 -28 29 -30 -31
leaf_value=0.005650058297933842 0.031931515440008655 0.038991584240626459 0.017970336384942623 0.0028713227483262043 0.03014404516984855 -0.019006815139727958 0.015401037991840028 0.017133248182698783 -0.013616219059387886 -0.012067258746914181 -0.027585133540615397 -0.10629227005907993 -0.03680882774179587 0.049894103418503491 -0.01002019574933851 0.057860122511261394 -0.045929881208159135 -0.0085125969073840176 -0.012319532521705423 0.08162272604476159 -0.0036598322734015692 -0.060318901069174369 -0.024532606878051248 0.062171060533095623 0.088397596992892347 -0.01161546929671005 0.01940538274029259 -0.06721332859694483 0.075123043914710974 -0.0031133174683061348
leaf_weight=33531 11553 13579 11482 18378 73211 59924 17331 31184 127850 15002 25494 1424 16949 5810 3828 1900 3881 5792 3847 1921 1913 1889 3459 1950 1928 3505 1392 3553 1763 7961
leaf_count=33531 11553 13579 11482 18378 73211 59924 17331 31184 127850 15002 25494 1424 16949 5810 3828 1900 3881 5792 3847 1921 1913 1889 3459 1950 1928 3505 1392 3553 1763 7961
internal_value=0 -0.00847481 -0.0129192 -0.0150576 0.0217868 -0.0164135 0.013109 0.023764 -0.0115441 -0.0217487 -0.0246279 -0.0320704 -0.0421941 0.00942043 0.0167706 0.00828382 0.00254836 0.0200568 -0.0144075 0.0452965 0.0269953 -0.0266398 -0.00119036 0.0127377 0.00716378 0.023876 -0.0251522 -0.0110395 -0.00289837 -0.0228934
internal_weight=0 369466 324703 291172 143718 279690 70507 44763 146228 133462 105183 45259 18373 58954 28486 22676 30468 16959 13137 5734 3813 5717 9256 5797 11225 5433 26886 28279 16765 11514
internal_count=513184 369466 324703 291172 143718 279690 70507 44763 146228 133462 105183 45259 18373 58954 28486 22676 30468 16959 13137 5734 3813 5717 9256 5797 11225 5433 26886 28279 16765 11514
is_linear=0
shrinkage=0.1


Tree=19
num_leaves=31
num_cat=0
split_feature=0 0 1 1 0 0 1 0 0 1 1 1 1 1 1 1 1 1 1 1 1 1 1 1 1 0 0 0 1 1
split_gain=7712.48 3898.86 1366.31 1028.87 962.842 540.899 450.56 397.497 388.482 347.222 879.282 543.549 445.459 813.624 427.466 330.85 314.998 719.524 521.049 450.099 1063.11 447.253 425.177 354.473 398.758 312.283 309.754 471.673 523.27 301.034
threshold=-0.56172099999999991 -1.3370649999999997 4.7000000000000002 11.100000000000001 -0.64372099999999988 -0.79622099999999996 11.300000000000002 -0.70142099999999996 -0.39595949999999996 7.7000000000000002 8.7000000000000011 7.3000000000000016 9.9000000000000021 9.7000000000000011 8.3000000000000025 11.100000000000001 6.7000000000000002 5.5000000000000009 5.1000000000000005 7.9000000000000012 8.5000000000000018 7.3000000000000016 6.9000000000000012 9.1000000000000014 8.9000000000000021 -1.4777149999999997 -0.6505209999999999 -0.72547099999999987 2.3000000000000003 7.5000000000000009
decision_type=2 2 2 2 2 2 2 2 2 2 2 2 2 2 2 2 2 2 2 2 2 2 2 2 2 2 2 2 2 2
left_child=1 6 26 4 5 -4 15 -7 -2 11 14 -9 13 -12 -11 -1 17 18 -6 21 -21 22 -18 24 -22 -17 27 28 -3 -23
right_child=8 2 3 -5 16 7 -8 9 -10 10 12 -13 -14 -15 -16 25 19 -19 -20 20 23 29 -24 -25 -26 -27 -28 -29 -30 -31
leaf_value=0.015547038132618164 0.020604166356267058 0.023804462557422617 -0.014289889010647705 0.010969158567810567 -0.01727362479788826 -0.031075799311890442 0.025802467455563988 -0.012097977199474372 0.035625106853723963 -0.036591729914982621 -0.0091465222248818309 0.046455369017854638 -0.048301059831679746 0.092269918609664089 -0.098331205248265899 0.0040098308793086344 0.049210203646148587 -0.035061350042757969 0.045575485571458046 -0.048192485388030254 0.014128246228802741 0.089039688293265293 -0.020684642900122674 -0.00012791470160287516 0.081863894946558713 -0.041870055335312246 0.015007219410988565 -0.019174131582923463 -0.0021884721430698757 0.030599663159612531
leaf_weight=14762 88084 9663 156298 16127 2611 41403 33086 11084 21401 2806 4608 1850 1857 955 1868 4452 1302 6597 2666 3892 2610 1323 2625 7891 1303 2225 14191 11986 39017 2641
leaf_count=14762 88084 9663 156298 16127 2611 41403 33086 11084 21401 2806 4608 1850 1857 955 1868 4452 1302 6597 2666 3892 2610 1323 2625 7891 1303 2225 14191 11986 39017 2641
internal_value=0 -0.00638424 -0.0102677 -0.0135354 -0.015066 -0.0175026 0.018485 -0.0250616 0.0235403 -0.0151125 -0.0272932 -0.00372287 -0.00589279 0.00826363 -0.0612664 0.00719233 0.000238562 -0.013045 0.0144785 0.0069257 -0.00286896 0.0264083 0.00248905 0.0120751 0.0366837 -0.0112789 0.001707 -0.00140418 0.00297114 0.0501042
internal_weight=0 403699 349174 274317 258190 222729 54525 66431 109485 25028 12094 12934 7420 5563 4674 21439 35461 11874 5277 23587 15696 7891 3927 11804 3913 6677 74857 60666 48680 3964
internal_count=513184 403699 349174 274317 258190 222729 54525 66431 109485 25028 12094 12934 7420 5563 4674 21439 35461 11874 5277 23587 15696 7891 3927 11804 3913 6677 74857 60666 48680 3964
is_linear=0
shrinkage=0.1


Tree=20
num_leaves=31
num_cat=0
split_feature=0 0 1 1 0 0 0 1 1 1 1 1 0 0 0 0 0 1 1 1 1 1 0 0 0 1 1 1 1 1
split_gain=6262.63 3540.39 1017.62 1011.71 728.436 508.638 405.751 382.829 378.649 689.759 626.462 300.417 719.116 452.503 283.843 252.991 346.576 1019.88 493.172 487.754 471.484 776.985 447.886 374.786 308.411 237.632 581.336 706.957 509.039 423.904
threshold=-0.61952099999999988 -1.3370649999999997 5.1000000000000005 11.100000000000001 -0.4817209999999999 -0.94967099999999982 -1.7091099999999997 3.1000000000000005 8.9000000000000021 7.5000000000000009 10.100000000000001 10.700000000000001 -1.2681649999999998 -1.2681649999999998 -1.0836149999999998 -1.0237699999999996 -0.69462099999999982 7.3000000000000016 5.3000000000000016 5.3000000000000016 6.9000000000000012 6.7000000000000002 -0.7896709999999999 -0.70840649999999983 -0.81280649999999988 7.3000000000000016 7.9000000000000012 8.5000000000000018 5.7000000000000002 9.1000000000000014
decision_type=2 2 2 2 2 2 2 2 2 2 2 2 2 2 2 2 2 2 2 2 2 2 2 2 2 2 2 2 2 2
left_child=1 6 5 8 7 -3 -1 -2 9 15 -10 13 -13 -12 -11 -4 18 19 22 -18 21 24 -17 -23 -20 28 -27 -28 -9 -29
right_child=4 2 3 -5 -6 -7 -8 25 10 14 11 12 -14 -15 -16 16 17 -19 20 -21 -22 23 -24 -25 -26 26 27 29 -30 -31
leaf_value=0.034737257413518866 0.026947774367427499 0.014007128030773844 -0.0014351756724780788 0.0098722426411446979 0.025738607769249324 -0.0054012707291826783 0.012525344780963938 0.013051391426928316 -0.0025240236135960687 0.00021514397874272445 0.017255357248124503 -0.059588040815845761 0.0029243331778465373 -0.029994169225735064 -0.030641043433876958 -0.067805206627178219 0.050545344631583923 0.08609433274196332 -0.008987817491866076 -0.017109814677257387 -0.031124033267185776 0.030701856108393457 -0.0040290693177592787 -0.1035230890053758 -0.029549975975448856 0.040794031773323317 -0.020599953179154019 0.037951879555993565 -0.0114239218754174 0.0066588468304587065
leaf_weight=10092 13228 17152 13718 16127 63283 63470 44433 19870 43684 3184 2212 2211 10973 24218 46809 3693 1182 1204 20239 10822 15822 5030 1569 217 11405 6673 6584 6580 14847 12653
leaf_count=10092 13228 17152 13718 16127 63283 63470 44433 19870 43684 3184 2212 2211 10973 24218 46809 3693 1182 1204 20239 10822 15822 5030 1569 217 11405 6673 6584 6580 14847 12653
internal_value=0 -0.00688986 -0.0109629 -0.0142972 0.0177122 -0.00127221 0.0166365 0.0113974 -0.0160836 -0.0193572 -0.0107824 -0.0198892 -0.0075592 -0.0260397 -0.0286758 -0.01387 -0.0162663 -0.0016475 -0.0195968 -0.010448 -0.0166828 -0.0104892 -0.0487887 0.0251507 -0.0163987 0.00833673 0.0144834 0.00768283 0.00258433 0.0173648
internal_weight=0 369466 314941 234319 143718 80622 54525 80435 218192 134894 83298 39614 13184 26430 49993 84901 71183 13208 57975 12004 52713 36891 5262 5247 31644 67207 32490 25817 34717 19233
internal_count=513184 369466 314941 234319 143718 80622 54525 80435 218192 134894 83298 39614 13184 26430 49993 84901 71183 13208 57975 12004 52713 36891 5262 5247 31644 67207 32490 25817 34717 19233
is_linear=0
shrinkage=0.1


Tree=21
num_leaves=31
num_cat=0
split_feature=0 0 1 1 0 0 1 1 0 1 1 1 1 1 1 1 1 1 1 0 1 1 1 0 1 1 0 0 0 1
split_gain=5146.56 2603.46 952.818 1021.16 713.134 653.417 387.778 587.449 328.559 326.803 377.209 388.98 412.356 542.281 357.161 530.638 313.343 467.551 431.92 381.657 294.669 727.075 488.64 359.045 287.579 264.83 270.743 261.388 255.535 250.286
threshold=-0.55822099999999997 -1.4064149999999997 2.9000000000000004 11.500000000000002 -0.64702099999999996 -0.77300649999999982 5.1000000000000005 5.3000000000000016 -0.93660599999999994 4.3000000000000007 8.5000000000000018 8.1000000000000014 7.3000000000000016 6.9000000000000012 6.7000000000000002 5.7000000000000002 7.7000000000000002 7.9000000000000012 3.5000000000000004 -0.71860599999999986 6.9000000000000012 7.9000000000000012 6.7000000000000002 -1.0658149999999997 7.1000000000000005 4.3000000000000007 -0.69152099999999994 -1.7615149999999997 -0.70840649999999983 7.5000000000000009
decision_type=2 2 2 2 2 2 2 2 2 2 2 2 2 2 2 2 2 2 2 2 2 2 2 2 2 2 2 2 2 2
left_child=1 27 -3 4 5 6 -4 8 -8 -2 11 12 13 14 15 -11 18 -18 28 -20 22 23 -9 -22 25 26 -21 -1 -7 -25
right_child=9 2 3 -5 -6 16 7 20 -10 10 -12 -13 -14 -15 -16 -17 17 -19 19 24 21 -23 -24 29 -26 -27 -28 -29 -30 -31
leaf_value=0.03713234187152397 0.027807284467188081 0.0069237202226142859 0.00055013005448306554 0.020241699728580469 0.00076696057484407481 -0.022357896445250217 -0.022110294282504949 -0.0070197184181170109 -0.069496285355571258 0.020749643294734121 0.026359078190853369 -0.0098603469507582212 0.03266480987963119 -0.029427555748271546 0.044083012279222691 -0.0079532290684720102 -0.075913252889385607 -0.026057232011943633 -0.024189005920927788 -0.021398413953350796 -0.0024810605673796608 -0.0089385627072661681 0.028603719786451515 -0.023743367461644967 0.023295467779568833 -0.01379597743445022 0.049560563554519051 0.01463496263857517 -0.072772002415698159 -0.044828208764442039
leaf_weight=5961 32698 38410 29875 10976 45572 2079 3377 30350 2582 16763 23340 7597 9849 3249 3403 10460 2039 24278 14856 861 4927 102606 4410 14077 3447 13734 1432 38647 1947 9382
leaf_count=5961 32698 38410 29875 10976 45572 2079 3377 30350 2582 16763 23340 7597 9849 3249 3403 10460 2039 24278 14856 861 4927 102606 4410 14077 3447 13734 1432 38647 1947 9382
internal_value=0 -0.00515077 -0.00796544 -0.00973707 -0.0107923 -0.0127707 -0.0099648 -0.0117942 -0.0426424 0.0194703 0.0158191 0.0110256 0.0146546 0.00941815 0.0135391 0.00972103 -0.0215168 -0.02992 -0.0157511 -0.0121171 -0.0106852 -0.0128572 -0.00250017 -0.0270217 -0.00290787 -0.00854354 0.0229161 0.0176413 -0.0467385 -0.0321759
internal_weight=0 405825 361217 322807 311831 266259 201586 171711 5959 107359 74661 51321 43724 33875 30626 27223 64673 26317 38356 34330 165752 130992 34760 28386 19474 16027 2293 44608 4026 23459
internal_count=513184 405825 361217 322807 311831 266259 201586 171711 5959 107359 74661 51321 43724 33875 30626 27223 64673 26317 38356 34330 165752 130992 34760 28386 19474 16027 2293 44608 4026 23459
is_linear=0
shrinkage=0.1


Tree=22
num_leaves=31
num_cat=0
split_feature=0 1 1 0 0 0 1 0 1 1 1 1 1 1 1 1 1 0 1 1 0 1 1 1 1 1 1 0 0 1
split_gain=4175.6 2113.32 781.293 526.552 596.192 428.336 269.726 269.243 258.378 261.251 341.096 274.393 478.467 238.792 476.929 217.852 204.238 282.239 197.473 364.142 349.989 284.553 451.497 500.57 167.029 292.024 356.453 244.883 193.974 593.913
threshold=-0.5548209999999999 11.300000000000002 2.9000000000000004 -1.4632149999999997 -0.62632099999999991 -0.90427099999999994 3.9000000000000004 -1.5774149999999998 3.5000000000000004 8.5000000000000018 8.1000000000000014 7.3000000000000016 6.9000000000000012 6.7000000000000002 5.7000000000000002 9.1000000000000014 11.900000000000002 -1.4777149999999997 10.300000000000002 10.100000000000001 -0.74237099999999989 8.9000000000000021 6.9000000000000012 6.7000000000000002 5.5000000000000009 3.5000000000000004 3.9000000000000004 -0.71860599999999986 -0.69152099999999994 4.3000000000000007
decision_type=2 2 2 2 2 2 2 2 2 2 2 2 2 2 2 2 2 2 2 2 2 2 2 2 2 2 2 2 2 2
left_child=1 2 -1 -4 5 6 -5 -3 -2 10 11 12 13 14 -10 -11 -9 -18 19 21 -21 22 23 24 25 27 -27 -7 -28 -30
right_child=8 7 3 4 -6 18 -8 16 9 15 -12 -13 -14 -15 -16 -17 17 -19 -20 20 -22 -23 -24 -25 -26 26 28 -29 29 -31
leaf_value=0.0063218904464249883 0.026596378211242194 0.025495094938475099 0.012319193321410708 0.016001894120195894 0.0024856319631387496 -0.01427326356302863 -0.0078136912738388468 0.0048262160814822467 0.019231107072311925 0.037455772775604336 -0.0085245905264872673 0.029534992221740931 -0.026719558936290196 0.039383666233349879 -0.0066288363981753147 0.01692249269069019 -0.011438574333968375 0.0374416465446075 0.0081486702936139025 -0.067672844108701322 -0.010700044573412493 -0.0052137398079677606 -0.02454923083021357 0.02089008743283647 -0.020766546405955974 0.020618883970935271 -0.01453465799053328 -0.049542503377179303 0.074669786540142322 -0.0081206800031189477
leaf_weight=38684 25139 17727 11482 4943 36724 5934 125399 20695 23501 7897 7489 9621 3144 3348 10239 14947 1570 4771 3656 2556 1865 26703 44226 4447 22328 4499 20422 2946 1038 5244
leaf_count=38684 25139 17727 11482 4943 36724 5934 125399 20695 23501 7897 7489 9621 3144 3348 10239 14947 1570 4771 3656 2556 1865 26703 44226 4447 22328 4499 20422 2946 1038 5244
internal_value=0 -0.00458388 -0.0071113 -0.00871312 -0.00948483 -0.0110764 -0.00691053 0.0159173 0.0177506 0.0149773 0.0113746 0.0143639 0.0107359 0.0139111 0.0113834 0.0240207 0.0096373 0.0253391 -0.014799 -0.0153889 -0.0436389 -0.0144825 -0.0167106 -0.0115254 -0.0138351 -0.00997405 -0.00542063 -0.0259741 -0.00980768 0.00555912
internal_weight=0 407859 363096 324412 312930 276206 130342 44763 105325 80186 57342 49853 40232 37088 33740 22844 27036 6341 145864 142208 4421 137787 111084 66858 62411 40083 31203 8880 26704 6282
internal_count=513184 407859 363096 324412 312930 276206 130342 44763 105325 80186 57342 49853 40232 37088 33740 22844 27036 6341 145864 142208 4421 137787 111084 66858 62411 40083 31203 8880 26704 6282
is_linear=0
shrinkage=0.1


Tree=23
num_leaves=31
num_cat=0
split_feature=0 0 1 1 0 0 1 1 1 0 0 1 0 1 1 0 1 1 1 1 0 1 1 1 1 1 0 0 1 0
split_gain=3407.57 1952.63 531.621 571.163 450.18 387.906 262.216 278.93 253.493 217.732 208.855 391.504 290.159 232.058 397.883 328.917 777.76 598.776 226.902 517.274 300.737 215.909 276.31 216.527 207.639 194.662 688.988 442.505 170.974 486.143
threshold=-0.61952099999999988 -1.3646149999999999 3.9000000000000004 11.100000000000001 -0.4817209999999999 -0.92362099999999991 3.5000000000000004 2.9000000000000004 3.1000000000000005 -1.5088149999999998 -0.97642099999999987 10.300000000000002 -1.1081649999999998 8.9000000000000021 7.5000000000000009 -0.69462099999999982 7.3000000000000016 4.3000000000000007 6.9000000000000012 6.7000000000000002 -0.70487099999999991 9.1000000000000014 9.5000000000000018 7.1000000000000005 9.5000000000000018 10.700000000000001 -1.2681649999999998 -1.2545149999999998 10.500000000000002 -1.1916149999999999
decision_type=2 2 2 2 2 2 2 2 2 2 2 2 2 2 2 2 2 2 2 2 2 2 2 2 2 2 2 2 2 2
left_child=1 9 5 10 8 -3 7 -7 -2 -1 11 12 -4 14 15 18 17 -17 19 -12 -21 23 -23 -14 -15 26 -13 -27 29 -28
right_child=4 2 3 -5 -6 6 -8 -9 -10 -11 13 25 21 24 -16 16 -18 -19 -20 20 -22 22 -24 -25 -26 27 28 -29 -30 -31
leaf_value=0.018485986766742572 0.020754714009015324 0.016094193367590322 0.014880734801042919 0.0072561485173663239 0.019375054315248164 -0.0011581012322658718 0.01782309912205244 -0.021189585969497118 0.0056103523416455737 0.0050772220929887844 -0.014695101228701849 0.015116405190537616 -0.0020849077317221243 0.0017664924662921498 -0.023680574348073344 0.063097554407342382 0.078189200382123542 -0.010229545256252621 -0.026230585315585017 0.025829133177679278 -0.11132955985615052 0.029631331007255887 -0.0048404622627208687 -0.018315691553279546 -0.012032828396424852 -0.037962954031764952 0.0011645560668078249 0.0040300097487326178 -0.025924805252534461 -0.072203809963255386
leaf_weight=30529 13228 13166 8676 18318 63283 24379 4921 9724 67207 20072 49639 3078 19342 17152 38595 1199 1204 15638 13538 4322 166 3660 6376 14293 29935 3533 1224 8661 4681 3445
leaf_count=30529 13228 13166 8676 18318 63283 24379 4921 9724 67207 20072 49639 3078 19342 17152 38595 1199 1204 15638 13538 4322 166 3660 6376 14293 29935 3533 1224 8661 4681 3445
internal_value=0 -0.00508223 -0.00797823 -0.00978457 0.0130652 0.00125163 -0.00375598 -0.0068698 0.00810093 0.0131671 -0.0110414 -0.00671414 -0.00182282 -0.0129848 -0.0152496 -0.0114529 0.000544545 -0.00500776 -0.0146517 -0.0117556 0.020756 -0.00514127 0.00773096 -0.00898209 -0.00700626 -0.0171132 -0.0259207 -0.00813672 -0.03943 -0.05297
internal_weight=0 369466 318865 266675 143718 52190 39024 34103 80435 50601 248357 76969 52347 171388 124301 85706 18041 16837 67665 54127 4488 43671 10036 33635 47087 24622 12428 12194 9350 4669
internal_count=513184 369466 318865 266675 143718 52190 39024 34103 80435 50601 248357 76969 52347 171388 124301 85706 18041 16837 67665 54127 4488 43671 10036 33635 47087 24622 12428 12194 9350 4669
is_linear=0
shrinkage=0.1


Tree=24
num_leaves=31
num_cat=0
split_feature=0 1 1 0 0 0 1 1 0 1 1 1 0 1 1 1 1 0 1 1 1 0 1 0 0 1 1 1 1 0
split_gain=2780.92 1424.35 516.414 337.174 574.624 292.936 247.919 496.655 254.334 232.476 361.093 345.855 228.637 212.534 319.999 341.532 356.154 325.79 194.489 531.297 289.418 235.989 206.127 191.154 184.904 163.636 385.175 300.065 268.454 416.985
threshold=-0.5548209999999999 11.300000000000002 2.9000000000000004 -0.64702099999999996 -0.77300649999999982 -1.4632149999999997 5.1000000000000005 5.3000000000000016 -1.0461199999999997 7.7000000000000002 7.1000000000000005 7.9000000000000012 -0.39100649999999992 6.9000000000000012 6.4000000000000012 5.5000000000000009 3.5000000000000004 -0.71860599999999986 6.9000000000000012 7.9000000000000012 6.7000000000000002 -1.1174149999999998 7.5000000000000009 -1.6633149999999997 -0.70487099999999991 10.100000000000001 9.1000000000000014 9.5000000000000018 10.700000000000001 -1.2545149999999998
decision_type=2 2 2 2 2 2 2 2 2 2 2 2 2 2 2 2 2 2 2 2 2 2 2 2 2 2 2 2 2 2
left_child=1 2 -1 4 5 -4 -7 8 -8 10 13 -11 -2 14 15 16 24 -17 20 21 -9 -20 -23 -3 -6 26 -21 -28 -27 -30
right_child=12 23 3 -5 9 6 7 18 -10 11 -12 -13 -14 -15 -16 17 -18 -19 19 25 -22 22 -24 -25 -26 28 27 -29 29 -31
leaf_value=0.0051054553849338548 0.012278052984102394 0.023748072055598701 0.0095973091293592681 0.00068211865024621094 -0.017001214365405647 0.0015797438354181127 -0.0028450868267118272 -0.0041017976122233631 -0.049279147475497685 -0.063498946467266115 0.010635563716295026 -0.020619393948733255 0.024317790831620143 -0.047644761809486881 0.012328321956026614 -0.057808718542553345 -0.0027995746924237589 -0.017373153628931302 0.0072077880652431266 -0.010017842351965036 0.023314213924397146 -0.016727170607731344 -0.034980118026169273 0.0090832640261781575 -0.060050780881687443 -0.01626783631197537 0.020554232041111731 -0.002012650979137858 -0.017352072010501537 0.0095543095260316943
leaf_weight=38684 86010 12230 11482 47332 2201 29875 1620 30350 4339 2039 6072 24278 19315 1985 4041 3527 14125 4580 2661 26207 4410 15370 10355 32533 1825 27941 10173 14002 9956 13666
leaf_count=38684 86010 12230 11482 47332 2201 29875 1620 30350 4339 2039 6072 24278 19315 1985 4041 3527 14125 4580 2661 26207 4410 15370 10355 32533 1825 27941 10173 14002 9956 13666
internal_value=0 -0.00374084 -0.00581576 -0.00711804 -0.0084505 -0.00593765 -0.0068254 -0.00829342 -0.0366557 -0.0167035 -0.0117372 -0.0239416 0.014486 -0.0159451 -0.0138684 -0.0178999 -0.010278 -0.0349649 -0.00726967 -0.00904224 -0.000623529 -0.021142 -0.0240745 0.0130899 -0.0365157 -0.00567314 -0.00162003 0.00748364 -0.00963341 -0.00178596
internal_weight=0 407859 363096 324412 277080 212407 200925 171050 5959 64673 38356 26317 105325 32284 30299 26258 18151 8107 165091 130331 34760 28386 25725 44763 4026 101945 50382 24175 51563 23622
internal_count=513184 407859 363096 324412 277080 212407 200925 171050 5959 64673 38356 26317 105325 32284 30299 26258 18151 8107 165091 130331 34760 28386 25725 44763 4026 101945 50382 24175 51563 23622
is_linear=0
shrinkage=0.1


Tree=25
num_leaves=31
num_cat=0
split_feature=0 0 1 1 1 1 1 1 1 1 0 1 1 1 1 1 1 0 1 1 0 1 0 0 1 0 1 0 1 1
split_gain=2270.96 1328.96 387.392 356.399 314.477 321.329 465.655 469.732 506.043 329.145 290.021 254.434 246.803 432.098 456.252 213.178 623.927 280.352 245.435 184.978 297.646 241.186 219.588 292.625 179.547 201.001 320.063 292.253 367.137 282.282
threshold=-0.61280649999999992 -1.3370649999999997 3.9000000000000004 11.100000000000001 3.5000000000000004 8.5000000000000018 8.1000000000000014 7.3000000000000016 5.7000000000000002 9.1000000000000014 -0.93340599999999985 5.1000000000000005 9.5000000000000018 9.9000000000000021 9.7000000000000011 6.4000000000000012 6.9000000000000012 -0.53477099999999989 6.7000000000000002 11.700000000000001 -1.4777149999999997 11.100000000000001 -1.4490649999999998 -1.5400149999999997 3.5000000000000004 -0.65782099999999988 2.5000000000000004 -0.70487099999999991 2.3000000000000003 2.3000000000000003
decision_type=2 2 2 2 2 2 2 2 2 2 2 2 2 2 2 2 2 2 2 2 2 2 2 2 2 2 2 2 2 2
left_child=1 19 10 -4 -2 6 7 8 11 -7 -3 -6 -11 14 -14 17 18 -10 -17 20 -1 -22 23 -21 25 27 29 28 -12 -27
right_child=4 2 3 -5 5 9 -8 -9 15 12 24 -13 13 -15 -16 16 -18 -19 -20 22 21 -23 -24 -25 -26 26 -28 -29 -30 -31
leaf_value=0.013970376910657535 0.019652663573004388 0.014995040520382913 -0.009022640953431511 0.0063157297396363877 0.0056538528569104029 0.031105970574402036 -0.016099931107271426 0.024501084771434256 -0.039549032694548382 -0.0055140001649160476 0.015083489056955675 0.024994727842542044 0.010304087199914429 -0.0058257692247531394 0.057229144408621035 -0.0042976487072200363 -0.02446005492167997 -0.0064266762943507348 0.036558636448133307 0.020733652544492078 0.0067150287751763203 -0.01840011472754239 0.041087690192319899 -0.015038157259175428 0.014694657862704345 0.0099522001876939641 0.035107622007654798 -0.029671101376875859 -0.011399489077198484 -0.066621750901060664
leaf_weight=21672 31593 11928 249750 16127 20863 10682 9332 13392 3763 7164 7330 10092 4617 4983 3759 2242 5003 7963 4272 10829 8837 6740 3548 2899 5178 1429 2881 5277 18313 726
leaf_count=21672 31593 11928 249750 16127 20863 10682 9332 13392 3763 7164 7330 10092 4617 4983 3759 2242 5003 7963 4272 10829 8837 6740 3548 2899 5178 1429 2881 5277 18313 726
internal_value=0 -0.00406887 -0.00653533 -0.00809228 0.0108759 0.00831141 0.00483929 0.00773032 0.00358637 0.0168704 0.00126603 0.0119594 0.00946091 0.0174915 0.0313632 -0.00756482 0.00209859 -0.017056 0.0224966 0.0103585 0.00639185 -0.00415202 0.0189111 0.0131796 -0.0027151 -0.00522227 0.0133041 -0.00823969 -0.00382938 -0.0158449
internal_weight=0 373464 318939 265877 139720 108127 76922 67590 54198 31205 53062 30955 20523 13359 8376 23243 11517 11726 6514 54525 37249 15577 17276 13728 41134 35956 5036 30920 25643 2155
internal_count=513184 373464 318939 265877 139720 108127 76922 67590 54198 31205 53062 30955 20523 13359 8376 23243 11517 11726 6514 54525 37249 15577 17276 13728 41134 35956 5036 30920 25643 2155
is_linear=0
shrinkage=0.1


Tree=26
num_leaves=31
num_cat=0
split_feature=0 0 1 1 0 0 0 1 1 1 1 0 1 1 1 0 1 1 0 1 1 1 0 1 1 1 1 0 0 0
split_gain=1868.37 968.122 366.148 393.338 273.095 364.469 215.359 365.631 222.435 194.517 388.547 209.102 179.052 276.67 291.177 207.53 206.035 322.904 178.467 172.663 401.388 249.6 199.466 181.651 320.443 247.879 223.319 395.072 389.902 171.457
threshold=-0.55145949999999988 -1.3921149999999998 2.9000000000000004 11.700000000000001 -0.64702099999999996 -0.7662064999999999 -0.69812099999999988 3.5000000000000004 4.3000000000000007 5.1000000000000005 5.3000000000000016 -0.9076209999999999 5.5000000000000009 4.9000000000000012 4.7000000000000002 -0.74577099999999985 6.4000000000000012 6.9000000000000012 -0.3859209999999999 6.9000000000000012 7.9000000000000012 6.7000000000000002 -0.92022099999999984 10.100000000000001 9.1000000000000014 9.5000000000000018 10.700000000000001 -1.2545149999999998 -1.2681649999999998 -0.73890949999999989
decision_type=2 2 2 2 2 2 2 2 2 2 2 2 2 2 2 2 2 2 2 2 2 2 2 2 2 2 2 2 2 2
left_child=1 -1 -3 4 5 9 12 -8 -9 -4 11 -11 13 14 -7 -16 -14 -18 -2 21 22 -12 -21 24 -22 -26 28 -28 -25 -19
right_child=18 2 3 -5 -6 6 7 8 -10 10 19 -13 16 -15 15 -17 17 29 -20 20 23 -23 -24 26 25 -27 27 -29 -30 -31
leaf_value=0.010535701508512803 0.010150447170946805 0.0043866071272505242 0.0017224487367933164 0.017900857809362042 0.00047956726423977689 -0.010528202151295725 -0.053580168549421658 0.030962271050473202 -0.0070927085684040908 -0.017624586628229206 -0.0030187520285769663 -0.056116774490880407 -0.043727802060923575 0.015487450349031581 -0.13286240809672586 -0.038359321690659837 0.016526507474313844 -0.012395023630588163 0.021267011259303564 -0.010945109291873881 -0.0081142015508809777 0.022155711247053678 -0.027734951012225208 0.013300779373673632 0.019409607817330025 -0.0008732888720560405 -0.01764390309258217 0.0065057414341280779 -0.020807590179168785 -0.032039061872091427
leaf_weight=46627 85956 38979 30630 6814 49048 5419 1621 1646 22976 3841 31030 2231 4390 3297 333 769 2180 7416 17358 16612 26889 4511 12326 3958 10400 14324 10990 17659 21870 11084
leaf_count=46627 85956 38979 30630 6814 49048 5419 1621 1646 22976 3841 31030 2231 4390 3297 333 769 2180 7416 17358 16612 26889 4511 12326 3958 10400 14324 10990 17659 21870 11084
internal_value=0 -0.00302936 -0.00477062 -0.00587138 -0.00638165 -0.00763547 -0.0144209 -0.00757732 -0.0045487 -0.00563424 -0.0069099 -0.0317675 -0.0195687 -0.00812097 -0.0200573 -0.0669161 -0.0240518 -0.019875 0.0120182 -0.00602501 -0.00765732 0.000176487 -0.0180967 -0.00480979 -0.000558616 0.00765859 -0.00883747 -0.00275827 -0.0155807 -0.0241645
internal_weight=0 409870 363243 324264 317450 268402 61131 26243 24622 207271 176641 6072 34888 9818 6521 1102 25070 20680 103314 170569 135028 35541 28938 106090 51613 24724 54477 28649 25828 18500
internal_count=513184 409870 363243 324264 317450 268402 61131 26243 24622 207271 176641 6072 34888 9818 6521 1102 25070 20680 103314 170569 135028 35541 28938 106090 51613 24724 54477 28649 25828 18500
is_linear=0
shrinkage=0.1


Tree=27
num_leaves=31
num_cat=0
split_feature=0 1 1 0 0 1 1 0 1 1 1 1 1 1 1 1 1 1 1 0 1 0 0 1 1 0 1 1 1 1
split_gain=1520.21 835.823 276.568 260.7 326.911 312.08 669.758 272.339 246.599 578.768 228.874 1577.19 233.661 819.869 707.034 500.765 636.902 420.581 310.016 206.576 199.755 185.814 170.003 257.592 208.376 174.146 158.629 322.097 210.449 157.547
threshold=-0.57862099999999994 11.300000000000002 2.3000000000000003 -1.0321699999999996 -0.6747209999999999 3.1000000000000005 2.5000000000000004 -0.75607099999999983 3.9000000000000004 4.3000000000000007 9.7000000000000011 9.9000000000000021 7.9000000000000012 7.3000000000000016 8.5000000000000018 9.1000000000000014 8.9000000000000021 7.5000000000000009 8.3000000000000025 -0.75607099999999983 10.300000000000002 -0.4172209999999999 -1.3646149999999999 11.100000000000001 11.100000000000001 -1.2950699999999997 7.7000000000000002 7.9000000000000012 7.5000000000000009 8.5000000000000018
decision_type=2 2 2 2 2 2 2 2 2 2 2 2 2 2 2 2 2 2 2 2 2 2 2 2 2 2 2 2 2 2
left_child=1 2 19 20 7 6 -6 -5 -7 -10 12 -12 13 -11 18 16 -16 -15 -14 -1 -4 -2 23 -22 -24 -26 28 -28 -9 -29
right_child=21 -3 3 4 5 8 -8 26 9 10 11 -13 14 17 15 -17 -18 -19 -20 -21 22 -23 24 -25 25 -27 27 29 -30 -31
leaf_value=0.018648845492635652 0.0075326229413781491 0.0098660933976855575 0.006394784392390742 -0.0066023616371454312 -0.035719404189844477 -0.029729563183414166 0.040651827007332587 -0.012675449115800775 0.05923686944344933 -0.0082657644104482762 0.099740866718778187 -0.023411792263130858 -0.029231812442331823 0.080894345815607546 -0.0025153801936361781 -0.022943117583214497 0.076725937017192949 0.017048346467037408 -0.084124984130561173 -0.0058734209385150685 0.010946983752132336 0.016505325031789888 -0.013697496738389731 -0.013766952349048303 -0.025985393562070403 0.019311464329620276 -0.070455633817014821 -0.0017132481537892172 0.028761203363497863 -0.024832131882571093
leaf_weight=8676 88221 44763 29379 160165 1533 3113 4576 27435 1559 19990 1570 3080 3056 1551 3065 4623 1516 3082 1551 5687 13029 31257 21318 6236 1093 3798 1320 3938 1283 11721
leaf_count=8676 88221 44763 29379 160165 1533 3113 4576 27435 1559 19990 1570 3080 3056 1551 3065 4623 1516 3082 1551 5687 13029 31257 21318 6236 1093 3798 1320 3938 1283 11721
internal_value=0 -0.00299828 -0.00464855 -0.00523185 -0.00673039 0.000205328 0.0214871 -0.00854516 -0.00251706 -0.00061951 -0.00278542 0.0181688 -0.0053206 0.000518926 -0.0157316 0.000276059 0.0237081 0.0384222 -0.0477122 0.00893931 -3.22021e-05 0.00988 -0.00418443 0.00294719 -0.00942655 0.0091889 -0.0153545 -0.023017 -0.0108242 -0.0190181
internal_weight=0 393706 348943 334580 259727 53865 6109 205862 47756 44643 43084 4650 38434 24623 13811 9204 4581 4633 4607 14363 74853 119478 45474 19265 26209 4891 45697 16979 28718 15659
internal_count=513184 393706 348943 334580 259727 53865 6109 205862 47756 44643 43084 4650 38434 24623 13811 9204 4581 4633 4607 14363 74853 119478 45474 19265 26209 4891 45697 16979 28718 15659
is_linear=0
shrinkage=0.1


Tree=28
num_leaves=31
num_cat=0
split_feature=0 0 1 1 1 1 1 1 1 0 1 0 1 1 1 1 1 1 1 1 0 1 1 1 1 1 1 1 1 0
split_gain=1246.77 763.16 259.208 265.394 386.188 402.115 428.095 272.34 244.592 263.295 233.189 261.308 238.267 274.079 228.21 204.385 358.974 389.958 197.629 503.813 228.459 212.419 193.989 284.141 193.859 179.602 319.699 179.243 176.643 211.473
threshold=-0.61952099999999988 -1.32317 3.5000000000000004 8.5000000000000018 8.1000000000000014 7.3000000000000016 5.7000000000000002 9.1000000000000014 3.9000000000000004 -0.51027099999999992 5.1000000000000005 -0.96942099999999987 8.9000000000000021 7.5000000000000009 9.5000000000000018 9.5000000000000018 9.9000000000000021 9.7000000000000011 6.4000000000000012 6.9000000000000012 -0.53477099999999989 6.7000000000000002 4.3000000000000007 5.1000000000000005 10.700000000000001 8.9000000000000021 8.7000000000000011 7.5000000000000009 10.100000000000001 -1.2816649999999996
decision_type=2 2 2 2 2 2 2 2 2 2 2 2 2 2 2 2 2 2 2 2 2 2 2 2 2 2 2 2 2 2
left_child=1 -1 -2 4 5 6 8 25 9 -4 11 -3 13 -12 -14 -9 17 -17 20 21 -8 -20 -10 -24 28 26 -5 -7 -16 -30
right_child=2 10 3 7 -6 27 18 15 22 -11 12 -13 14 -15 24 16 -18 -19 19 -21 -22 -23 23 -25 -26 -27 -28 -29 29 -31
leaf_value=0.0076195269673359481 0.015782042468510248 0.012431496200439927 -0.042421231027090341 0.031069093779636084 -0.016368931317271861 0.038139175937354226 -0.037013710724609565 -0.0067777834512707975 0.032797159346110091 0.0053762951220416013 -0.0058765268424430459 -0.0029033926795063343 0.006044502352546193 -0.015209570787166171 -0.0026429573925664152 0.007121349136407891 -0.0069043410306074129 0.049913978022198352 -0.0058135660211757478 -0.022985946479416725 -0.0079412361645724693 0.031435074223506179 -0.0012210952540214549 0.021256814848396841 0.001154945107247966 0.04281349995476269 -0.014824953935194727 0.013062580983304076 0.023868371345413173 -0.017010422883589987
leaf_weight=56526 32354 13309 1763 4717 9539 4021 4092 7389 4085 3328 84901 67313 22274 49993 21410 4735 5204 3870 2354 5218 7963 4379 12223 10416 27764 4039 2238 9791 1334 24642
leaf_count=56526 32354 13309 1763 4717 9539 4021 4092 7389 4085 3328 84901 67313 22274 49993 21410 4735 5204 3870 2354 5218 7963 4379 12223 10416 27764 4039 2238 9791 1334 24642
internal_value=0 -0.00307415 0.00790293 0.00561386 0.00250098 0.00508597 0.00130592 0.0132696 0.00891295 -0.0111759 -0.00500574 -0.000371924 -0.00661382 -0.00933544 -0.00284545 0.0066457 0.0138284 0.0263668 -0.00877563 0.000337075 -0.0178097 0.0184122 0.0127399 0.00912079 -0.00548038 0.0260413 0.0163012 0.020363 -0.00936809 -0.0149111
internal_weight=0 369466 143718 111364 79172 69633 55821 32192 31815 5091 312940 80622 232318 134894 97424 21198 13809 8605 24006 11951 12055 6733 26724 22639 75150 10994 6955 13812 47386 25976
internal_count=513184 369466 143718 111364 79172 69633 55821 32192 31815 5091 312940 80622 232318 134894 97424 21198 13809 8605 24006 11951 12055 6733 26724 22639 75150 10994 6955 13812 47386 25976
is_linear=0
shrinkage=0.1


Tree=29
num_leaves=31
num_cat=0
split_feature=0 0 1 0 0 1 0 1 1 1 1 1 1 1 1 1 1 1 1 1 1 0 1 1 1 1 1 1 1 1
split_gain=1018.04 581.841 330.893 230.102 345.193 282.397 228.922 209.751 176.726 290.103 175.462 167.703 465.794 462.016 392.201 815.858 246.769 838.338 487.63 302.26 261.736 246.081 274.869 222.509 258.406 216.91 317.118 206.411 190.214 165.536
threshold=-0.54812099999999986 -1.5088149999999998 11.900000000000002 -0.65422099999999983 -0.80942099999999984 3.9000000000000004 -1.4936149999999999 3.5000000000000004 3.1000000000000005 2.5000000000000004 2.3000000000000003 6.7000000000000002 5.5000000000000009 5.1000000000000005 7.9000000000000012 8.5000000000000018 9.9000000000000021 9.7000000000000011 9.1000000000000014 8.9000000000000021 8.7000000000000011 -0.63320649999999989 8.1000000000000014 4.9000000000000012 3.9000000000000004 7.3000000000000016 6.9000000000000012 4.3000000000000007 7.5000000000000009 8.3000000000000025
decision_type=2 2 2 2 2 2 2 2 2 2 2 2 2 2 2 2 2 2 2 2 2 2 2 2 2 2 2 2 2 2
left_child=1 -1 3 4 5 7 -4 10 9 -5 -3 12 13 23 25 21 17 18 19 20 -17 22 -16 24 -10 26 -13 -26 -27 -23
right_child=-2 2 6 8 -6 -7 -8 -9 11 -11 -12 14 -14 -15 15 16 -18 -19 -20 -21 -22 29 -24 -25 27 28 -28 -29 -30 -31
leaf_value=0.011074677065774169 0.0089799137220039002 0.017206091315284968 -0.072741379731771902 -0.0028714283665948678 -0.0098546814129191335 -0.0039401441035431415 0.026256090630643741 0.031343226022333609 -0.020986903198625534 0.030895994160246146 -0.0015021365035756036 0.041033949914158423 -0.025441831543996658 0.03614877741134729 -0.0073110495487262858 0.036181724170308738 -0.015858321163299386 0.079428533078634261 -0.018119355187348665 0.060379050542556101 -0.019366826394532129 -0.013413179381746673 -0.11996121566418234 -0.039544444619899706 0.042758445317763238 0.061956362075206495 -0.011876214071708042 0.00018456780744163423 0.021187838515853426 -0.056302915031191329
leaf_weight=30529 101321 6974 245 5103 92563 192737 5012 3101 3419 5074 17831 1697 8494 3429 321 1703 3414 1710 5090 1680 1690 2711 666 1680 1719 1719 3407 3374 3424 1347
leaf_count=30529 101321 6974 245 5103 92563 192737 5012 3101 3419 5074 17831 1697 8494 3429 321 1703 3414 1710 5090 1680 1690 2711 666 1680 1719 1719 3407 3374 3424 1347
internal_value=0 -0.00220912 -0.0032726 -0.00362087 -0.00472911 -0.00257885 0.0216424 0.00682312 0.00190005 0.0139642 0.00375774 -0.000429945 -0.00706367 0.00439687 0.00436763 -0.00367228 0.00783537 0.0146483 0.00374858 0.0256898 0.00851386 -0.038542 -0.0833242 -0.00628575 0.000278463 0.0203203 0.00571559 0.0145542 0.0348143 -0.0276499
internal_weight=0 411863 381334 376077 313206 220643 5257 27906 62871 10177 24805 52694 22115 13621 30579 20332 15287 11873 10163 5073 3393 5045 987 10192 8512 10247 5104 5093 5143 4058
internal_count=513184 411863 381334 376077 313206 220643 5257 27906 62871 10177 24805 52694 22115 13621 30579 20332 15287 11873 10163 5073 3393 5045 987 10192 8512 10247 5104 5093 5143 4058
is_linear=0
shrinkage=0.1


Tree=30
num_leaves=31
num_cat=0
split_feature=0 0 1 0 0 1 0 1 1 1 1 1 1 1 1 1 1 1 1 1 1 1 1 1 1 1 1 1 1 1
split_gain=830.203 465.533 265.904 208.073 314.524 301.229 185.427 162.319 280.641 145.289 405.658 361.201 744.376 265.045 236.977 794.71 446.055 313.366 208.207 271.168 259.141 199.096 194.699 184.305 279.014 195.276 155.676 130.03 260.447 217.985
threshold=-0.53810649999999993 -1.5088149999999998 11.900000000000002 -0.66122099999999995 -0.75952099999999989 2.3000000000000003 -1.4936149999999999 3.1000000000000005 2.5000000000000004 6.7000000000000002 5.7000000000000002 7.9000000000000012 8.5000000000000018 8.3000000000000025 9.9000000000000021 9.7000000000000011 9.1000000000000014 8.9000000000000021 3.9000000000000004 4.3000000000000007 5.1000000000000005 8.7000000000000011 5.5000000000000009 7.3000000000000016 6.9000000000000012 7.5000000000000009 6.1000000000000005 7.7000000000000002 7.9000000000000012 7.1000000000000005
decision_type=2 2 2 2 2 2 2 2 2 2 2 2 2 2 2 2 2 2 2 2 2 2 2 2 2 2 2 2 2 2
left_child=1 -1 3 4 5 -3 -4 8 -5 10 18 23 13 -13 15 16 17 21 -9 -20 -21 -14 -22 24 -11 -25 -12 29 -29 -6
right_child=-2 2 6 7 27 -7 -8 9 -10 11 26 12 14 -15 -16 -17 -18 -19 19 20 22 -23 -24 25 -26 -27 -28 28 -30 -31
leaf_value=0.0099672093123348952 0.0084182471874415209 0.015671713809602011 -0.06546724161019131 -0.0030271732774727412 -0.010293695817124486 -0.003411896131458213 0.023630481407928977 -0.01797071422606232 0.027786397486578164 0.036169232075548945 -0.0389414924064388 -0.019249178817736069 0.028752448413973192 -0.064296975367093515 -0.014837852871333074 0.071533037854431866 -0.016311518829568852 0.055343245187519402 0.042170833211287444 -0.012622773029052004 0.029784995528367459 -0.016149354674036779 -0.0088088015740093156 0.055873890455771118 -0.0098469504896483186 0.017499859091313779 -0.010906546644065734 -0.05610735182496334 -0.014044633461080751 0.012674779894781892
leaf_weight=30529 95377 8564 245 5918 33170 242047 5012 3960 5905 1974 3978 3895 1980 1965 3952 1982 5911 1951 1992 5862 3961 1970 1951 1994 3963 3959 3945 1596 18956 4720
leaf_count=30529 95377 8564 245 5918 33170 242047 5012 3960 5905 1974 3978 3895 1980 1965 3952 1982 5911 1951 1992 5862 3961 1970 1951 1994 3963 3959 3945 1596 18956 4720
internal_value=0 -0.00192172 -0.00285892 -0.0031663 -0.0043003 -0.00275976 0.0194781 0.00163672 0.0123627 -0.000437247 -0.00617169 0.00370639 -0.00345281 -0.0343548 0.0067515 0.0129369 0.00310472 0.0225539 0.00223615 0.00804896 0.00227601 0.00635838 0.0170488 0.01792 0.00545302 0.0303535 -0.0249824 -0.0109064 -0.0173111 -0.00743249
internal_weight=0 417807 387278 382021 309053 250611 5257 72968 11823 61145 25649 35496 23606 5860 17746 13794 11812 5901 17726 13766 11774 3950 5912 11890 5937 5953 7923 58442 20552 37890
internal_count=513184 417807 387278 382021 309053 250611 5257 72968 11823 61145 25649 35496 23606 5860 17746 13794 11812 5901 17726 13766 11774 3950 5912 11890 5937 5953 7923 58442 20552 37890
is_linear=0
shrinkage=0.1


Tree=31
num_leaves=31
num_cat=0
split_feature=0 1 1 0 1 0 0 1 1 1 1 1 1 1 1 0 0 1 0 1 1 0 1 1 0 1 1 1 1 1
split_gain=672.465 385.211 168.706 134.522 219.089 168.561 149.915 173.934 249.858 155.074 334.966 191.785 284.192 198.614 164.422 291.001 203.089 184.876 162.875 160.132 181.556 152.105 150.211 146.898 214.372 185.829 167.83 270.201 176.443 182.92
threshold=-0.53810649999999993 11.300000000000002 2.9000000000000004 -1.0461199999999997 10.300000000000002 -0.66452099999999992 -0.75607099999999983 3.9000000000000004 3.5000000000000004 9.1000000000000014 9.5000000000000018 7.1000000000000005 7.7000000000000002 6.7000000000000002 7.5000000000000009 -0.82302099999999989 -0.90102099999999996 7.3000000000000016 -0.86922099999999991 6.4000000000000012 5.7000000000000002 -0.79622099999999996 6.9000000000000012 3.5000000000000004 -0.70142099999999996 5.5000000000000009 6.4000000000000012 6.9000000000000012 7.1000000000000005 7.3000000000000016
decision_type=2 2 2 2 2 2 2 2 2 2 2 2 2 2 2 2 2 2 2 2 2 2 2 2 2 2 2 2 2 2
left_child=1 2 -1 4 -4 6 7 8 -5 11 -11 13 14 19 17 16 -16 18 -13 20 -9 -20 -15 -8 25 -25 -27 -28 -29 -30
right_child=-2 -3 3 5 -6 -7 23 9 -10 10 -12 12 -14 22 15 -17 -18 -19 21 -21 -22 -23 -24 24 -26 26 27 28 29 -31
leaf_value=0.003349098594101959 0.0075764224870409156 0.0070360553548127263 0.008292723465729358 -0.0029719976799620854 -0.0036607553176377459 -0.00010503432903002917 -0.03252845109728552 -0.0086784560759417123 0.027683215153509841 0.016484211159366713 -0.0052798599260633133 -0.015806071562012344 -0.0069420857816778203 0.022449025321926153 -0.03597965738954028 0.0058937794806899861 -0.086064507697591094 -0.0025453861991823622 -0.075787164764166498 -0.02389692270257561 0.0050644748532101902 -0.015269167089601257 -0.0030416600455548228 4.7958965572202127e-05 -0.0010093896030208863 -0.039668292642476087 0.021533938772508341 -0.06390343473173099 0.027200865051246682 -0.020248862268197023
leaf_weight=40068 95377 44763 23371 8121 44583 64828 2946 31248 3953 9306 29453 2848 29282 4616 2329 1078 1241 4665 1163 4673 13884 646 4631 6120 17851 3525 1749 863 866 13137
leaf_count=40068 95377 44763 23371 8121 44583 64828 2946 31248 3953 9306 29453 2848 29282 4616 2329 1078 1241 4665 1163 4673 13884 646 4631 6120 17851 3525 1749 863 866 13137
internal_value=0 -0.00172955 -0.00278136 -0.00351906 0.000450331 -0.00453685 -0.00597199 -0.00445504 0.00706445 -0.00544103 -5.43266e-05 -0.00748184 -0.012541 -0.00377635 -0.0242766 -0.0396405 -0.0533901 -0.016616 -0.0307108 -0.00627526 -0.00445071 -0.054176 0.00968301 -0.0109086 -0.00946465 -0.0152124 -0.0198495 -0.0156448 -0.020019 -0.0173144
internal_weight=0 417807 373044 332976 67954 265022 200194 153137 12074 141063 38759 102304 43252 59052 13970 4648 3570 9322 4657 49805 45132 1809 9247 47057 44111 26260 20140 16615 14866 14003
internal_count=513184 417807 373044 332976 67954 265022 200194 153137 12074 141063 38759 102304 43252 59052 13970 4648 3570 9322 4657 49805 45132 1809 9247 47057 44111 26260 20140 16615 14866 14003
is_linear=0
shrinkage=0.1


Tree=32
num_leaves=31
num_cat=0
split_feature=0 0 1 1 1 1 0 1 1 1 1 1 0 1 1 1 1 1 1 1 1 0 1 1 1 1 0 1 0 0
split_gain=554.213 407.412 193.584 195.217 279.162 190.114 186.524 152.548 148.038 307.215 289.769 185.574 184.251 145.358 242.293 249.143 142.309 368.088 134.408 130.343 127.214 126.292 126.242 197.754 116.97 219.819 110.78 109.025 104.354 102.357
threshold=-0.62307099999999982 -0.97972099999999995 3.5000000000000004 8.5000000000000018 8.3000000000000025 9.1000000000000014 -1.7345649999999997 5.1000000000000005 7.3000000000000016 5.7000000000000002 7.9000000000000012 3.9000000000000004 -0.48530649999999992 9.5000000000000018 9.9000000000000021 9.7000000000000011 6.4000000000000012 6.9000000000000012 6.7000000000000002 11.900000000000002 7.1000000000000005 -1.4936149999999999 4.3000000000000007 5.1000000000000005 8.9000000000000021 8.7000000000000011 -0.53142099999999981 9.3000000000000025 -0.44222099999999992 -1.4632149999999997
decision_type=2 2 2 2 2 2 2 2 2 2 2 2 2 2 2 2 2 2 2 2 2 2 2 2 2 2 2 2 2 2
left_child=1 6 -2 4 8 24 -1 -8 9 11 -10 12 -4 27 15 -15 26 18 -18 21 -19 -9 -13 -24 25 -5 -11 -7 -6 -21
right_child=2 -3 3 5 28 13 7 19 10 16 -12 22 -14 14 -16 -17 17 20 -20 29 -22 -23 23 -25 -26 -27 -28 -29 -30 -31
leaf_value=0.016739585719943439 0.011984585430085017 -0.0048399205029519389 -0.033154569871046327 0.024779562409157338 -0.03492415038003565 0.0046655315225482101 0.012231984627372693 0.0064225556086113834 0.020940767059704407 -0.029152423970034785 -0.0040426350340187168 0.025336662353351771 0.0050271604557000863 0.0052296888243844467 -0.0065296997829494595 0.03921184741410022 -0.0049173415571513264 -0.030892361002499785 0.024422785629932955 0.00081744801123677087 0.003045550636975702 -0.0021684730314579419 -0.0022032265608605164 0.016410576099026918 0.033818892731643249 -0.012873063227613167 -0.0093543922707831576 -0.019459231404495164 -0.0053442768189855975 0.022343098574671705
leaf_weight=8053 32760 217172 2222 4784 2846 3888 11320 20586 10409 4432 8380 4141 2931 4785 5321 3929 2410 3771 4434 4308 1562 101379 12395 10579 4090 2294 7801 3615 2053 4534
leaf_count=8053 32760 217172 2222 4784 2846 3888 11320 20586 10409 4432 8380 4141 2931 4785 5321 3929 2410 3771 4434 4308 1562 101379 12395 10579 4090 2294 7801 3615 2053 4534
