tree
version=v3
num_class=1
num_tree_per_iteration=1
label_index=0
max_feature_idx=1
objective=regression
feature_names=Column_0 Column_1
feature_infos=[-1.8814200000000001:-0.30881799999999998] [2:12]
tree_sizes=2941 3005 3015 3016 3025 3031 3033 3042 3044 3067 3022 3035 3031 3041 3047 3023 3028 3015 3041 3018 3035 3031 3053 3024 3031 3041 3027 3025 3005 3019 3028 3042 3048 3046 3046 3021 2992 3027 3027 3037 3081 3050 3027 3015 3062 3020 3031 3054 2968 3046 3004 3034 3037 2998 3006 3017 3032 3002 3012 3020 2963 2977 3034 2996 2999 3030 3000 2982 2979 2990 2984 3000 3016 3014 2963 2960 3011 2998 2991 3008 3023 2958 3043 3025 2968 3028 2997 2976 3006 2987 2987 3022 3013 2992 2988 2983 2980 3033 3038 2989

Tree=0
num_leaves=31
num_cat=0
split_feature=0 1 1 0 0 0 0 0 1 1 1 1 1 1 1 0 0 0 0 1 1 0 1 1 1 1 1 1 1 1
split_gain=481848 192909 38743.2 26423.7 22895.1 20031.7 24108.9 12666.8 9318.2 6416.86 6353.62 5421.55 4918.21 5232.2 3820.42 2901.56 2680.68 2533.61 1578.06 1540.89 1447.81 1415.51 1392.28 1328.64 1326.56 1377.87 1312.96 2748.4 1303.6 1037.6
threshold=-0.60157099999999986 10.900000000000002 2.7000000000000006 -1.5121149999999999 -0.52142099999999991 -0.63432099999999991 -0.86972099999999986 -1.3448699999999996 11.600000000000003 5.5000000000000009 4.1000000000000005 6.6000000000000005 5.5000000000000009 7.4000000000000012 3.3000000000000003 -0.66422099999999984 -0.78657099999999991 -1.4411149999999997 -1.6222149999999997 4.1000000000000005 6.9000000000000012 -0.5649209999999999 5.5000000000000009 5.7000000000000002 8.9000000000000021 9.1000000000000014 6.9000000000000012 6.6000000000000005 8.1000000000000014 4.3000000000000016
decision_type=2 2 2 2 2 2 2 2 2 2 2 2 2 2 2 2 2 2 2 2 2 2 2 2 2 2 2 2 2 2
left_child=1 2 -1 18 9 6 7 -4 17 -2 -8 23 -6 26 -9 16 -12 -5 -3 -7 -16 -13 29 -11 28 -26 27 -14 -17 -18
right_child=4 3 5 8 12 19 10 14 -10 11 15 21 13 -15 20 24 22 -19 -20 -21 -22 -23 -24 -25 25 -27 -28 -29 -30 -31
leaf_value=-4.6605828189277645 -4.5611215788617221 -4.4907100115096492 -4.6652571457884413 -4.6078082611194136 -4.4947149127620385 -4.6444062961914021 -4.7956614811170137 -4.7155369873787087 -4.5730831574314985 -4.6233284025952273 -4.8366795293061422 -4.6379302718913173 -4.6020782550035211 -4.5167870422236236 -4.7804110007798872 -4.8082138128644507 -4.9101861517391949 -4.7016875009888253 -4.5444969096954093 -4.716882627257184 -4.8014782070632265 -4.5862402039468693 -4.8791754844423112 -4.7370636429948556 -4.5925368161931477 -4.7783924297647422 -4.6630564513078516 -4.4898441141758862 -4.8988297928239328 -4.8314331008753202
leaf_weight=20349 21275 14283 8769 3390 46047 3644 26325 6721 10476 1282 40357 9743 10023 29098 55514 8600 1950 18914 8825 15044 79104 11612 43238 5166 463 2881 2094 2789 1947 11777
leaf_count=20349 21275 14283 8769 3390 46047 3644 26325 6721 10476 1282 40357 9743 10023 29098 55514 8600 1950 18914 8825 15044 79104 11612 43238 5166 463 2881 2094 2789 1947 11777
internal_value=-4.70687 -4.76483 -4.7942 -4.59315 -4.54751 -4.80308 -4.80959 -4.78188 -4.65088 -4.60246 -4.83984 -4.63409 -4.51756 -4.54147 -4.78912 -4.8503 -4.8564 -4.68742 -4.51125 -4.70275 -4.79279 -4.60982 -4.87037 -4.71445 -4.80754 -4.75266 -4.58964 -4.57765 -4.82494 -4.84262
internal_weight=0 382571 326683 55888 139129 306334 287646 150108 32780 49078 137538 27803 90051 44004 141339 111213 97322 22304 23108 18688 134618 21355 56965 6448 13891 3344 14906 12812 10547 13727
internal_count=521700 382571 326683 55888 139129 306334 287646 150108 32780 49078 137538 27803 90051 44004 141339 111213 97322 22304 23108 18688 134618 21355 56965 6448 13891 3344 14906 12812 10547 13727
is_linear=0
shrinkage=1


Tree=1
num_leaves=31
num_cat=0
split_feature=0 1 1 0 0 0 0 0 1 1 1 1 1 1 1 0 0 0 0 1 1 1 1 1 1 0 1 1 0 1
split_gain=390570 157476 31184.4 21470.8 20045 14237.8 14740.2 15113.8 7125.06 5099.47 4462.01 4349.14 4517.5 4234.98 3539.59 2957.6 2223.05 1859.7 1580.61 1486.55 1409.49 1401.87 1322.67 1236.59 1196.59 1132.55 1054.1 2408.99 1008.79 984.168
threshold=-0.60482099999999994 10.900000000000002 2.7000000000000006 -1.5308149999999998 -0.52812099999999995 -1.3283149999999997 -0.63762099999999988 -0.8511709999999999 11.600000000000003 5.5000000000000009 4.1000000000000005 5.5000000000000009 7.4000000000000012 6.6000000000000005 3.3000000000000003 -1.4411149999999997 -0.67417099999999985 -0.77672099999999988 -0.94832099999999986 8.9000000000000021 9.1000000000000014 7.7000000000000002 7.7000000000000002 4.1000000000000005 8.9000000000000021 -0.57512099999999988 6.9000000000000012 6.6000000000000005 -0.44957099999999994 5.7000000000000002
decision_type=2 2 2 2 2 2 2 2 2 2 2 2 2 2 2 2 2 2 2 2 2 2 2 2 2 2 2 2 2 2
left_child=1 2 -1 -3 9 -4 7 14 15 -2 -9 28 26 29 -7 -5 17 -12 -16 21 -21 -18 -19 -8 -24 -15 27 -13 -6 -11
right_child=4 3 5 8 11 6 23 10 -10 13 16 12 -14 25 18 -17 19 22 -20 20 -22 -23 24 -25 -26 -27 -28 -29 -30 -31
leaf_value=0.040979020937174093 0.12649464240892649 0.18047210756213275 0.032719099585323957 0.096468205384439315 0.17314856599001355 -0.0094615016556105127 0.046805772953070507 -0.084074007778052004 0.11917942299712805 0.067597402001732629 -0.12165950476234784 0.091668080731611659 0.16926252130346178 0.052097800946335274 -0.071250145402650455 0.0046668048258546964 -0.095751546624920303 -0.13681022259476902 -0.09281779339255565 0.094056324618768145 -0.071246453391329595 -0.16992017812316013 -0.19582452009279422 -0.018030014640770635 -0.14836109636366304 0.10040376560210691 0.039878592486114389 0.19464884225156848 0.20247118200926778 -0.032493070307278278
leaf_weight=20188 20350 21591 9564 4309 20590 7612 3656 23861 11074 1226 35757 10548 30533 7873 89623 18914 9295 26284 54730 603 3568 3511 9881 15056 11486 12655 2249 2895 27274 4944
leaf_count=20188 20350 21591 9564 4309 20590 7612 3656 23861 11074 1226 35757 10548 30533 7873 89623 18914 9295 26284 54730 603 3568 3511 9881 15056 11486 12655 2249 2895 27274 4944
internal_value=0 -0.0526922 -0.079381 0.102353 0.14208 -0.087361 -0.0912551 -0.0970739 0.053175 0.0887853 -0.122944 0.168729 0.146851 0.0600421 -0.0759227 0.0217004 -0.132183 -0.138897 -0.0794273 -0.0991984 -0.0473487 -0.116086 -0.151832 -0.00536223 -0.17031 0.0818772 0.103244 0.113845 0.189857 -0.0126048
internal_weight=0 380563 324675 55888 141137 304487 294923 276211 34297 47048 124246 94089 46225 26698 151965 23223 100385 83408 144353 16977 4171 12806 47651 18712 21367 20528 15692 13443 47864 6170
internal_count=521700 380563 324675 55888 141137 304487 294923 276211 34297 47048 124246 94089 46225 26698 151965 23223 100385 83408 144353 16977 4171 12806 47651 18712 21367 20528 15692 13443 47864 6170
is_linear=0
shrinkage=0.1


Tree=2
num_leaves=31
num_cat=0
split_feature=0 1 1 0 0 0 0 0 1 1 1 1 1 1 0 0 1 0 0 1 0 1 1 1 0 1 0 0 1 1
split_gain=316714 125738 25585.6 17391.3 15244.4 15663.3 14400.1 8251.78 5771.3 4801.04 4623.18 4147.11 2486.59 3090.9 2431.04 2354.8 2311.95 1950.15 1185.62 1146.75 1047.23 1196.39 1040.44 1033.16 969.491 966.228 906.452 849.351 824.677 792.849
threshold=-0.59852099999999986 10.900000000000002 2.7000000000000006 -1.5308149999999998 -0.63112099999999993 -0.88492099999999996 -0.50362099999999987 -1.3609149999999997 11.600000000000003 5.5000000000000009 4.1000000000000005 6.6000000000000005 5.7000000000000002 7.4000000000000012 -1.4588149999999998 -0.65422099999999983 3.5000000000000004 -0.79287099999999988 -0.56142099999999984 5.7000000000000002 -0.68402099999999988 5.5000000000000009 11.300000000000002 4.1000000000000005 -0.5649209999999999 6.9000000000000012 -1.673665 -0.40017099999999994 4.3000000000000016 8.7000000000000011
decision_type=2 2 2 2 2 2 2 2 2 2 2 2 2 2 2 2 2 2 2 2 2 2 2 2 2 2 2 2 2 2
left_child=1 2 -1 26 5 7 9 -4 14 24 -7 19 -8 27 -5 17 -9 -12 -13 -11 21 28 -16 -6 -2 -18 -3 -14 -19 -27
right_child=6 3 4 8 23 10 12 16 -10 11 15 18 13 -15 22 -17 25 20 -20 -21 -22 -23 -24 -25 -26 29 -28 -29 -30 -31
leaf_value=0.038037179488096123 0.098036373561470797 0.18414636007003515 0.039652486809754597 0.096516812286044223 0.058266235739236755 -0.069288237157277832 0.17453884319451674 -0.012728917543095481 0.10726147656089208 0.080900762172334328 -0.10252798601407281 0.059767325016760312 0.083184029889424638 0.15873522843866666 -0.0092355888151189457 -0.069235329094260931 -0.057464506691435283 -0.17250120138904027 0.10454571172889911 -0.017073936417033118 -0.10519220846372962 -0.14487878738958346 0.040685990934536488 -0.001249562910071124 0.13918351744893173 -0.090316411972259147 0.14309706715368861 0.14892982616361264 -0.098428757422200738 -0.068371575720176561
leaf_weight=20503 8769 10166 7989 3486 3619 28383 42315 7956 11074 1485 45038 9865 9375 25550 13740 10640 49423 1754 14760 6110 13801 38664 5997 15032 16502 24319 11425 2486 10505 50969
leaf_count=20503 8769 10166 7989 3486 3619 28383 42315 7956 11074 1485 45038 9865 9375 25550 13740 10640 49423 1754 14760 6110 13801 38664 5997 15032 16502 24319 11425 2486 10505 50969
internal_value=0 -0.0465466 -0.0701309 0.0921179 -0.0773293 -0.0829759 0.130424 -0.0590504 0.0478575 0.0922754 -0.105594 0.0666827 0.157933 0.139151 0.0195304 -0.114153 -0.0649941 -0.118507 0.0866071 0.00208241 -0.129626 -0.136248 0.00593286 0.0102988 0.124906 -0.0683284 0.162425 0.096964 -0.109027 -0.07546
internal_weight=0 384483 328595 55888 308092 289441 137217 140656 34297 57491 148785 32220 79726 37411 23223 120402 132667 109762 24625 7595 64724 50923 19737 18651 25271 124711 21591 11861 12259 75288
internal_count=521700 384483 328595 55888 308092 289441 137217 140656 34297 57491 148785 32220 79726 37411 23223 120402 132667 109762 24625 7595 64724 50923 19737 18651 25271 124711 21591 11861 12259 75288
is_linear=0
shrinkage=0.1


Tree=3
num_leaves=31
num_cat=0
split_feature=0 1 1 0 0 0 0 0 1 1 0 1 1 1 1 0 0 0 1 1 1 1 1 1 1 1 0 1 0 1
split_gain=256732 104193 20269.8 14383.3 14087 9665.04 7974.06 10439.9 4684.88 3473.29 3323.94 3130.59 2560.64 1977.78 2760.06 1752.69 1650.85 1369.74 1269.2 1445.04 1761.63 1600.36 1144.1 1241.82 1135 1121.66 996.242 992.874 974.575 939.383
threshold=-0.60812099999999991 10.900000000000002 2.7000000000000006 -0.53482099999999988 -1.5308149999999998 -1.3122699999999996 -0.64092099999999996 -0.83177099999999993 11.300000000000002 4.3000000000000016 -0.45717099999999994 5.1000000000000005 5.5000000000000009 5.7000000000000002 6.6000000000000005 -0.67742099999999994 -0.96462099999999984 -1.4588149999999998 8.5000000000000018 5.7000000000000002 6.6000000000000005 7.9000000000000012 8.9000000000000021 7.7000000000000002 3.3000000000000003 9.1000000000000014 -0.76017099999999982 11.600000000000003 -1.4247599999999998 8.9000000000000021
decision_type=2 2 2 2 2 2 2 2 2 2 2 2 2 2 2 2 2 2 2 2 2 2 2 2 2 2 2 2 2 2
left_child=1 2 -1 9 -3 28 7 11 17 -2 13 24 -9 -5 -15 26 -13 -6 19 -11 -21 -22 23 -17 -7 -24 -14 -10 -4 -18
right_child=3 4 5 10 8 6 -8 12 27 18 -12 16 15 14 -16 22 29 -19 -20 20 21 -23 25 -25 -26 -27 -28 -29 -30 -31
leaf_value=0.032437376834241013 0.11181874520897744 0.14618240940494084 0.055872695004570538 0.1370058826425985 0.074577002949682752 -0.0069055759191139461 -0.011649826027551383 -0.083594583507497044 0.04873343140200629 0.070090169968672997 0.15227923165371643 -0.060443247722460174 -0.10837284773593894 0.029008274470428128 0.11312766241792567 -0.071373203554780509 -0.093870734973765024 -0.0083120310102002253 0.078602177760484768 -0.032819711093401788 0.074570350654779155 -0.011459690246394115 0.087844880712388773 -0.14841242918496153 -0.047763212050246862 -0.059787601894802526 -0.13527185098372277 0.096535332367076954 -0.0055885664429322721 -0.06683434228645993
leaf_weight=20029 12574 21591 4904 21673 2332 8546 18714 42690 7151 8015 53584 65686 26081 4980 17995 5236 34855 13740 10441 4728 5757 3463 602 3485 33261 3546 29166 11074 5444 20357
leaf_count=20029 12574 21591 4904 21673 2332 8546 18714 42690 7151 8015 53584 65686 26081 4980 17995 5236 34855 13740 10441 4728 5757 3463 602 3485 33261 3546 29166 11074 5444 20357
internal_value=0 -0.0431508 -0.0649891 0.114043 0.0829061 -0.0714383 -0.0748016 -0.0791225 0.0430717 0.0672087 0.135488 -0.0629996 -0.102797 0.115336 0.0948942 -0.114832 -0.0711566 0.00371492 0.0498983 0.0362527 0.0168085 0.0422578 -0.0815954 -0.102159 -0.0394113 -0.0383617 -0.122573 0.0777792 0.0235384 -0.0839023
internal_weight=0 378490 322602 143210 55888 302573 292225 273511 34297 44978 98232 162705 110806 44648 22975 68116 120898 16072 32404 21963 13948 9220 12869 8721 41807 4148 55247 18225 10348 55212
internal_count=521700 378490 322602 143210 55888 302573 292225 273511 34297 44978 98232 162705 110806 44648 22975 68116 120898 16072 32404 21963 13948 9220 12869 8721 41807 4148 55247 18225 10348 55212
is_linear=0
shrinkage=0.1


Tree=4
num_leaves=31
num_cat=0
split_feature=0 1 1 0 0 0 0 0 1 1 1 1 1 1 0 0 0 1 1 1 1 1 0 1 1 1 1 0 0 1
split_gain=208569 82008.1 17043.9 11461.5 11080.4 10690.3 8938.81 5504.72 3749.93 3315.91 2950.57 2533.02 1566.21 1819.2 1450.21 1563.07 1407.9 1186.7 1087.83 933.909 1106.51 886.109 876.851 831.538 738.047 716.413 1633.28 743.768 706.374 702.402
threshold=-0.59537099999999987 10.900000000000002 2.9000000000000004 -1.5482149999999997 -0.63112099999999993 -0.89427099999999993 -0.49297099999999994 -1.3767149999999997 11.300000000000002 5.5000000000000009 6.6000000000000005 4.1000000000000005 5.5000000000000009 7.4000000000000012 -0.6576209999999999 -0.7896709999999999 -1.4588149999999998 2.7000000000000006 5.1000000000000005 6.9000000000000012 6.6000000000000005 4.1000000000000005 -0.55152099999999982 5.7000000000000002 11.600000000000003 7.7000000000000002 8.9000000000000021 -0.68402099999999988 -1.4247599999999998 9.9000000000000021
decision_type=2 2 2 2 2 2 2 2 2 2 2 2 2 2 2 2 2 2 2 2 2 2 2 2 2 2 2 2 2 2
left_child=1 2 17 -3 5 7 9 -4 16 -2 23 -7 -8 19 15 -13 -5 -1 -9 20 -14 -6 -12 -11 28 -17 -27 -28 -10 -29
right_child=6 3 4 8 21 11 12 18 24 10 22 14 13 -15 -16 25 -18 -19 -20 -21 -22 -23 -24 -25 -26 26 27 29 -30 -31
leaf_value=0.031268031939341696 0.10485453878692218 0.13485776381471584 0.03725563656554283 0.069164320397915147 0.055463228874026327 -0.057624011509263398 0.14432979655624409 -0.035055254899022135 0.097385062327714711 0.070454644318691861 0.054139639683968899 -0.082969497191490618 0.076418564344126652 0.13123871875631696 -0.059654053957558031 -0.096832526826792886 -0.0074808273929124524 -0.017718888980641664 -0.057416494230803111 0.013679032053659801 0.15511878726296305 -0.00054562109857560833 0.090898558155811812 -0.0099044913569504359 0.086580131360494722 -0.14487720428023831 -0.10722993430034916 -0.020300410871979976 0.027664934980045398 -0.12752895546513934
leaf_weight=20653 27217 20179 7234 2903 3411 25298 38429 27970 1981 1600 11713 51259 7780 23438 12259 33801 13740 6502 97918 1666 2319 16434 14551 6597 11631 12726 12068 2109 5454 860
leaf_count=20653 27217 20179 7234 2903 3411 25298 38429 27970 1981 1600 11713 51259 7780 23438 12259 33801 13740 6502 97918 1666 2319 16434 14551 6597 11631 12726 12068 2109 5454 860
internal_value=0 -0.0374168 -0.0563615 0.0746155 -0.0631559 -0.0682125 0.106847 -0.0475736 0.0405728 0.0787642 0.0581582 -0.0864828 0.130371 0.115133 -0.0923196 -0.0958689 0.00588821 0.0195386 -0.0524482 0.0830468 0.0944902 0.0090813 0.0745051 0.00578108 0.0708496 -0.106609 -0.118512 -0.0961987 0.0462413 -0.0513602
internal_weight=0 386390 330502 55888 303347 283502 135310 133122 35709 61678 34461 150380 73632 35203 125082 112823 16643 27155 125888 11765 10099 19845 26264 8197 19066 61564 27763 15037 7435 2969
internal_count=521700 386390 330502 55888 303347 283502 135310 133122 35709 61678 34461 150380 73632 35203 125082 112823 16643 27155 125888 11765 10099 19845 26264 8197 19066 61564 27763 15037 7435 2969
is_linear=0
shrinkage=0.1


Tree=5
num_leaves=31
num_cat=0
split_feature=0 1 1 0 0 0 0 0 1 1 1 0 0 1 1 1 1 0 1 1 1 1 1 0 0 0 0 1 1 1
split_gain=169170 65426.7 13929.5 11496.4 9283.86 8498.89 6262.49 4341.63 3037.45 2692.19 2223.76 1424.91 1422 1240.81 1484.52 1614.27 1201.42 1161.35 1026.12 1387.21 1025.12 975.497 832.754 694.179 798.242 693.917 1195.9 709.348 687.313 1112.02
threshold=-0.58862099999999995 10.900000000000002 2.9000000000000004 -0.62792099999999984 -1.5482149999999997 -0.91016799999999987 -0.47902099999999997 -1.3283149999999997 11.300000000000002 4.3000000000000016 4.1000000000000005 -0.65082099999999987 -0.80257099999999992 8.5000000000000018 5.7000000000000002 6.6000000000000005 8.1000000000000014 -1.4411149999999997 5.7000000000000002 8.5000000000000018 6.9000000000000012 2.7000000000000006 4.3000000000000016 -0.62792099999999984 -0.83487099999999992 -0.6475209999999999 -0.74392099999999994 3.7000000000000006 8.5000000000000018 7.9000000000000012
decision_type=2 2 2 2 2 2 2 2 2 2 2 2 2 2 2 2 2 2 2 2 2 2 2 2 2 2 2 2 2 2
left_child=1 2 21 5 -3 7 9 -4 17 -2 25 12 -12 14 -11 -16 -17 -6 -8 -20 -9 23 -5 24 -1 26 -7 -28 29 -24
right_child=6 4 3 22 8 10 18 20 -10 13 11 -13 -14 -15 15 16 -18 -19 19 -21 -22 -23 28 -25 -26 -27 27 -29 -30 -31
leaf_value=0.044520344473594944 0.10811690293244257 0.12137198734049506 0.023249130807504508 0.053014181047960407 0.056946782896723738 -0.037929406910617018 0.13161581605937051 -0.035722309071593343 0.063764609993816321 0.080672634499883447 -0.072177920841818954 -0.046290386397436663 -0.093835851679100427 0.087477405766360455 -0.0026176352308759469 0.074985376070453746 0.0064683125988440468 -0.0082114641796646112 0.088257622222721252 0.13182748502330299 -0.054930191495266338 -0.015126777025323793 0.0037946260239310491 0.08710605645243244 0.0035736144668590537 0.0088368615700980813 -0.1024970948968397 -0.043771287585188431 0.033097869008243921 -0.080797378017098159
leaf_weight=9170 19023 20179 9564 4395 3451 15980 35531 47780 19066 11724 52964 10550 70894 14729 7061 9595 3490 13192 17449 12573 66397 6600 9969 1870 9902 1856 6212 3075 5618 1841
leaf_count=9170 19023 20179 9564 4395 3451 15980 35531 47780 19066 11724 52964 10550 70894 14729 7061 9595 3490 13192 17449 12573 66397 6600 9969 1870 9902 1856 6212 3075 5618 1841
internal_value=0 -0.0330029 -0.0497302 -0.0558402 0.0671539 -0.0611917 0.0982539 -0.041471 0.0365155 0.0764156 -0.0762987 -0.0815695 -0.0845745 0.0634743 0.052381 0.0359166 0.0567107 0.00529939 0.120115 0.106504 -0.0468922 0.018397 0.0141145 0.0289622 0.0232612 -0.0501795 -0.0545146 -0.0830525 0.00430482 -0.00939199
internal_weight=0 390525 334637 307095 55888 285272 131175 123741 35709 65622 161531 134408 123858 46599 31870 20146 13085 16643 65553 30022 114177 27542 21823 20942 19072 27123 25267 9287 17428 11810
internal_count=521700 390525 334637 307095 55888 285272 131175 123741 35709 65622 161531 134408 123858 46599 31870 20146 13085 16643 65553 30022 114177 27542 21823 20942 19072 27123 25267 9287 17428 11810
is_linear=0
shrinkage=0.1


Tree=6
num_leaves=31
num_cat=0
split_feature=0 1 1 0 0 0 0 0 1 0 0 1 1 1 1 1 1 1 1 1 0 0 1 0 1 0 1 1 1 1
split_gain=137215 55889.7 10708 8751.46 7583.69 5580.32 5076.72 3537.41 2922.58 2229.47 2024.17 2028.02 1982.98 1466.92 2059.19 1215.97 995.647 1140.35 872.157 1684.67 1112.5 844.078 830.588 827.47 823.132 816.024 809.793 802.591 770.081 1214.89
threshold=-0.6112709999999999 10.900000000000002 2.9000000000000004 -0.5416709999999999 -1.5121149999999999 -0.92617099999999986 -0.6475209999999999 -1.3926149999999997 11.600000000000003 -0.42482099999999995 -0.77672099999999988 5.1000000000000005 4.3000000000000016 5.7000000000000002 7.4000000000000012 8.9000000000000021 7.1000000000000005 5.3000000000000016 7.7000000000000002 8.9000000000000021 -0.68402099999999988 -1.6483149999999998 7.7000000000000002 -0.86062099999999986 8.5000000000000018 -1.4411149999999997 9.1000000000000014 5.5000000000000009 6.6000000000000005 7.9000000000000012
decision_type=2 2 2 2 2 2 2 2 2 2 2 2 2 2 2 2 2 2 2 2 2 2 2 2 2 2 2 2 2 2
left_child=1 2 23 12 21 7 10 -4 25 13 11 -7 -2 -5 -15 16 17 -13 -12 -20 -21 -3 -18 -1 27 -6 -22 -14 -29 -30
right_child=3 4 5 9 8 6 -8 -9 -10 -11 18 15 24 14 -16 -17 22 -19 19 20 26 -23 -24 -25 -26 -27 -28 28 29 -31
leaf_value=0.035553516549611107 0.079194407775364642 0.1223762479979989 0.035734381426542436 0.10289983402193351 0.054226978231024583 -0.036835761778703145 -0.016986470949616146 -0.040398528524665522 0.073078619048045551 0.1179855577306077 -0.074205994802407971 -0.13101565851144575 0.048921116980364047 0.038373007053030019 0.090495364763334737 -0.050754006612978388 -0.13348249047144559 -0.057592123332042805 -0.12390204982448171 -0.091204512936317927 0.078519520980452534 0.084091085294490664 -0.084898949247317959 -0.00088602882044610967 0.054913259488053846 0.00094855413119060677 -0.047943359448177986 -0.022322154936792293 0.054077831155670802 -0.022855183310914164
leaf_weight=10260 11927 12205 6469 31352 3390 26308 20116 107857 10476 37209 45484 2378 6548 11447 22435 21343 4733 19146 12445 10391 591 10903 13718 15872 9904 18914 3535 5591 5466 3287
leaf_count=10260 11927 12205 6469 31352 3390 26308 20116 107857 10476 37209 45484 2378 6548 11447 22435 21343 4733 19146 12445 10391 591 10903 13718 15872 9904 18914 3535 5591 5466 3287
internal_value=0 -0.0318435 -0.0479281 0.0825963 0.0604385 -0.0533716 -0.064336 -0.0360906 0.0295101 0.0984524 -0.0702863 -0.0600615 0.0445757 0.0873108 0.0728859 -0.0700263 -0.080316 -0.0657041 -0.0826537 -0.0969046 -0.0737605 0.104312 -0.0973615 0.0134209 0.0311683 0.00904638 -0.0298291 0.0199118 0.00666908 0.0251873
internal_weight=0 376534 320646 145166 55888 294514 180188 114326 32780 102443 160072 87626 42723 65234 33882 61318 39975 21524 72446 26962 14517 23108 18451 26132 30796 22304 4126 20892 14344 8753
internal_count=521700 376534 320646 145166 55888 294514 180188 114326 32780 102443 160072 87626 42723 65234 33882 61318 39975 21524 72446 26962 14517 23108 18451 26132 30796 22304 4126 20892 14344 8753
is_linear=0
shrinkage=0.1


Tree=7
num_leaves=31
num_cat=0
split_feature=0 1 1 0 0 0 0 0 1 0 1 1 1 0 0 1 1 1 1 1 1 0 1 1 1 1 0 0 1 1
split_gain=111509 42662.1 9415.92 8487.15 6155.25 5570.11 3910.21 3110.37 2126.65 1901.91 1818.6 1625.78 1250.76 1162.04 966.674 951.629 875.352 1029.53 1131.28 918.493 872.14 649.645 648.722 1006.81 636.788 619.125 544 553.774 526.279 1565.16
threshold=-0.58532099999999987 10.900000000000002 2.7000000000000006 -0.62457099999999988 -1.5713649999999999 -0.87582099999999985 -0.47157099999999991 -1.3122699999999996 11.300000000000002 -0.65422099999999983 4.3000000000000016 5.1000000000000005 3.5000000000000004 -0.76692099999999985 -1.4754699999999998 8.9000000000000021 8.5000000000000018 5.7000000000000002 6.6000000000000005 8.1000000000000014 6.9000000000000012 -0.39597099999999991 5.5000000000000009 6.6000000000000005 6.9000000000000012 6.6000000000000005 -0.62792099999999984 -0.80877099999999991 6.9000000000000012 7.4000000000000012
decision_type=2 2 2 2 2 2 2 2 2 2 2 2 2 2 2 2 2 2 2 2 2 2 2 2 2 2 2 2 2 2
left_child=1 2 26 5 -3 7 10 -4 14 11 -2 13 -9 -7 -6 20 17 -12 -19 28 25 -8 -5 -24 -14 -13 27 -1 -20 -30
right_child=6 4 3 22 8 9 21 12 -10 -11 16 15 24 -15 -16 -17 -18 18 19 -21 -22 -23 23 -25 -26 -27 -28 -29 29 -31
leaf_value=0.035037060312854827 0.089549803615563722 0.10193959247037868 0.017855801970579753 0.036389192294117217 0.056269474682623444 -0.033869631888342806 0.090762617556876188 -0.0019684229223050132 0.053288472277698742 -0.031080958577200724 0.067550784309682449 -0.07431189715615627 -0.032951768764509476 -0.066927508897386037 -0.0054011519084917695 -0.058910749651227945 0.073410933804239159 -0.00077605811702074546 0.11277653585180353 0.0051033540583542182 -0.092823037456544508 0.11190999559780584 -0.04832409907118812 0.016261829567776005 -0.047345994300263289 -0.029674945098414104 0.074071495795419329 0.00080979722735397333 -0.0082751365510002877 0.085008505374068968
leaf_weight=10420 19757 18309 10348 8716 3092 20955 37928 8540 20206 16973 12063 24822 51752 21588 14281 27079 15108 7331 1805 3628 31901 23544 3130 10546 75675 3552 2021 8652 2739 5239
leaf_count=10420 19757 18309 10348 8716 3092 20955 37928 8540 20206 16973 12063 24822 51752 21588 14281 27079 15108 7331 1805 3628 31901 23544 3130 10546 75675 3552 2021 8652 2739 5239
internal_value=0 -0.0265172 -0.0399487 -0.0442723 0.0543947 -0.0488045 0.0806053 -0.0349948 0.0312302 -0.0625619 0.0640206 -0.0666754 -0.0390171 -0.0506445 0.00557482 -0.0744828 0.0534936 0.0443209 0.030811 0.0480777 -0.0814786 0.0988621 0.0150684 0.00148017 -0.0415001 -0.068724 0.0247376 0.0195099 0.0640147 0.0529824
internal_weight=0 392558 336670 315577 55888 293185 129142 146315 37579 146870 67670 129897 135967 42543 17373 87354 47913 32805 20742 13411 60275 61472 22392 13676 127427 28374 21093 19072 9783 7978
internal_count=521700 392558 336670 315577 55888 293185 129142 146315 37579 146870 67670 129897 135967 42543 17373 87354 47913 32805 20742 13411 60275 61472 22392 13676 127427 28374 21093 19072 9783 7978
is_linear=0
shrinkage=0.1


Tree=8
num_leaves=31
num_cat=0
split_feature=0 1 0 1 0 0 0 0 1 0 1 1 0 0 1 1 1 1 1 0 0 1 1 1 1 0 0 0 1 1
split_gain=90390.8 34299.2 8261.97 6814.69 5026.13 4830.32 2928.34 2440.91 2069.84 1428.28 1313.77 1120.83 923.112 1217.53 764.865 748.797 791.61 684.092 666.6 779.665 671.978 638.339 653.427 825.192 653.303 634.045 598.789 580.156 505.967 953.843
threshold=-0.58187099999999992 10.900000000000002 -0.62792099999999984 3.3000000000000003 -1.5121149999999999 -0.93897099999999989 -0.48602099999999998 -1.4090149999999999 11.600000000000003 -0.78327099999999994 4.5000000000000009 4.1000000000000005 -0.6475209999999999 -0.82217099999999987 2.7000000000000006 4.7000000000000002 8.5000000000000018 2.2000000000000006 5.5000000000000009 -0.69057099999999993 -0.75357099999999988 8.5000000000000018 5.7000000000000002 6.6000000000000005 8.1000000000000014 -1.7006149999999998 -1.4411149999999997 -1.4754699999999998 8.5000000000000018 7.9000000000000012
decision_type=2 2 2 2 2 2 2 2 2 2 2 2 2 2 2 2 2 2 2 2 2 2 2 2 2 2 2 2 2 2
left_child=1 2 3 9 25 7 10 -5 26 17 -2 -4 13 -7 -11 -8 -17 -1 -15 20 -20 22 -12 -24 -25 -3 -6 -10 29 -13
right_child=6 4 11 5 8 12 15 -9 27 14 21 28 -14 18 -16 16 -18 -19 19 -21 -22 -23 23 24 -26 -27 -28 -29 -30 -31
leaf_value=0.054080884531237473 0.079099331982413035 0.10711768283291548 0.049963258287857581 0.034844433584847616 0.045257361491430455 -0.047697148832326265 0.098976076906379051 -0.032579024906775049 -0.0061190888765750096 -0.0016809010862665786 0.059525125785177081 0.0047184852361442514 -0.027194187281266304 -0.053467095225522066 -0.047055566491640347 0.067820434437392441 0.097721761164303061 0.0077111989126853551 -0.06650843684500797 -0.05176497972127956 -0.090446784538331146 0.06471118441085949 -0.0030045513424264581 0.05666955930494804 0.0025952837189645085 0.072447999799512428 -0.00038170718172679909 0.068762034182100723 0.027530079170158647 -0.067225181572001552
leaf_weight=3835 17938 8148 7255 5678 3390 65263 30231 98811 1164 7441 9024 12418 10246 30734 7419 25887 13456 18674 24802 15184 22243 12931 6182 8422 3041 14960 18914 9312 6533 2164
leaf_count=3835 17938 8148 7255 5678 3390 65263 30231 98811 1164 7441 9024 12418 10246 30734 7419 25887 13456 18674 24802 15184 22243 12931 6182 8422 3041 14960 18914 9312 6533 2164
internal_value=0 -0.0236251 -0.0356013 -0.0403236 0.0489552 -0.0458066 0.0733382 -0.0289152 0.0237765 -0.00027332 0.0566479 0.0160542 -0.0562829 -0.0581666 -0.0243346 0.0871411 0.0780472 0.0156115 -0.0655165 -0.0714675 -0.0778266 0.0464779 0.0376371 0.0264431 0.0423243 0.0846727 0.00655501 0.0604419 0.00440317 -0.00595811
internal_weight=0 394588 338700 310330 55888 272961 127112 104489 32780 37369 57538 28370 168472 158226 14860 69574 39343 22509 92963 62229 47045 39600 26669 17645 11463 23108 22304 10476 21115 14582
internal_count=521700 394588 338700 310330 55888 272961 127112 104489 32780 37369 57538 28370 168472 158226 14860 69574 39343 22509 92963 62229 47045 39600 26669 17645 11463 23108 22304 10476 21115 14582
is_linear=0
shrinkage=0.1


Tree=9
num_leaves=31
num_cat=0
split_feature=0 1 1 0 0 0 0 0 1 0 1 1 1 0 0 0 1 1 1 1 0 0 1 1 1 1 0 0 1 1
split_gain=73259.3 28436.3 6251.1 4430.91 4120.01 3751.88 3218.05 2214.65 1486.69 1420.25 1071.4 1067.5 985.964 902.726 717.126 625.367 617.106 1173.07 564.592 712.214 582.646 528.307 901.755 511.602 664.609 583.059 501.427 498.5 461.679 455.627
threshold=-0.59197099999999991 10.900000000000002 2.7000000000000006 -0.62457099999999988 -1.5713649999999999 -0.85757099999999986 -0.51417099999999982 -1.3122699999999996 11.300000000000002 -0.6576209999999999 5.1000000000000005 4.3000000000000016 5.1000000000000005 -0.40847099999999997 -0.76372099999999987 -1.4754699999999998 5.7000000000000002 7.4000000000000012 8.9000000000000021 7.7000000000000002 -0.74712099999999981 -0.99582099999999996 10.300000000000002 9.1000000000000014 7.1000000000000005 5.3000000000000016 -0.56142099999999984 -0.6939209999999999 9.7000000000000011 4.1000000000000005
decision_type=2 2 2 2 2 2 2 2 2 2 2 2 2 2 2 2 2 2 2 2 2 2 2 2 2 2 2 2 2 2
left_child=1 2 -1 5 -3 7 11 -4 15 12 -9 -2 14 16 -7 -6 -8 -18 19 27 -21 22 -12 24 25 -23 -13 -14 -25 -11
right_child=6 4 3 -5 8 9 13 10 -10 29 21 26 18 -15 -16 -17 17 -19 -20 20 -22 23 -24 28 -26 -27 -28 -29 -30 -31
leaf_value=0.020024840415945901 0.067004617547538489 0.082957941555457299 0.015628564778783022 0.010734676626570981 0.044431885340182359 -0.028285227668514976 0.078968495381537052 -0.017462465574083895 0.043551095376803461 0.0050738487384896381 -0.021607513641797929 0.018652596399639315 -0.065108133196596113 0.089738979669052726 -0.055674048562209866 -0.0051708879962800332 0.029826563481979936 0.07226716026424182 -0.04949328935982078 -0.067718380281701865 -0.10272115115242322 -0.086250678870519737 -0.050473868604266052 -0.0092261016294003222 -0.064347551097871186 -0.031804396914083856 0.043492099781201408 -0.034185085196715891 -0.041612022225692546 -0.034036375657502428
leaf_weight=20817 13360 18309 10348 18616 3092 18061 27226 36840 20206 3700 37566 13472 28828 29423 20310 14281 9795 19435 23757 10579 8639 2214 15201 6644 18190 17621 20483 6364 13043 15280
leaf_count=20817 13360 18309 10348 18616 3092 18061 27226 36840 20206 3700 37566 13472 28828 29423 20310 14281 9795 19435 23757 10579 8639 2214 15201 6644 18190 17621 20483 6364 13043 15280
internal_value=0 -0.0219414 -0.0330312 -0.0365734 0.0440597 -0.0395773 0.0639996 -0.0290896 0.0251079 -0.0517791 -0.0322307 0.0430586 -0.0559105 0.0755371 -0.0427823 0.00365728 0.0681355 0.0580453 -0.062355 -0.0679708 -0.0834531 -0.0371552 -0.0299233 -0.0437675 -0.0505422 -0.0378817 0.0336368 -0.0595161 -0.0306824 -0.0264121
internal_weight=0 388506 332618 311801 55888 293185 133194 157667 37579 135518 147319 47315 116538 85879 38371 17373 56456 29230 78167 54410 19218 110479 52767 57712 38025 19835 33955 35192 19687 18980
internal_count=521700 388506 332618 311801 55888 293185 133194 157667 37579 135518 147319 47315 116538 85879 38371 17373 56456 29230 78167 54410 19218 110479 52767 57712 38025 19835 33955 35192 19687 18980
is_linear=0
shrinkage=0.1


Tree=10
num_leaves=31
num_cat=0
split_feature=0 1 1 0 0 0 0 0 1 1 0 1 0 1 0 1 1 1 1 1 0 0 1 1 1 1 1 1 1 1
split_gain=59506 24302.9 4823.37 4397.63 3340.77 2961.75 1547.44 1460.7 1258.08 1152.91 1100.93 959.607 899.748 830.157 800.847 693.774 668.93 897.207 1273.49 667.726 548.353 485.084 485.113 483.729 837.642 510.529 1288.57 721.327 479.226 588.688
threshold=-0.61447099999999988 10.900000000000002 3.3000000000000003 -0.54822099999999996 -1.5482149999999997 -0.9771709999999999 -1.4090149999999999 -0.6475209999999999 11.600000000000003 4.3000000000000016 -0.80877099999999991 4.3000000000000016 -0.79592099999999988 8.5000000000000018 -1.4411149999999997 5.7000000000000002 6.6000000000000005 6.9000000000000012 7.1000000000000005 7.9000000000000012 -0.65082099999999987 -1.2961149999999997 11.100000000000001 5.1000000000000005 5.3000000000000016 8.9000000000000021 7.1000000000000005 7.7000000000000002 8.5000000000000018 9.1000000000000014
decision_type=2 2 2 2 2 2 2 2 2 2 2 2 2 2 2 2 2 2 2 2 2 2 2 2 2 2 2 2 2 2
left_child=1 2 12 11 -3 6 -4 10 14 -5 23 -2 -1 15 -6 -11 -17 -18 -19 -20 -14 -16 -23 -7 -25 26 -26 -28 -13 -30
right_child=3 4 5 9 8 7 -8 -9 -10 13 -12 28 20 -15 21 16 17 18 19 -21 -22 22 -24 24 25 -27 27 -29 29 -31
leaf_value=0.015054149432138952 0.0505979705315368 0.072177651998037232 0.029797135133050663 0.078386045021805198 0.043132012555334373 -0.026102953706171578 -0.024285399573295598 -0.0153129260785013 0.048281064402285134 0.06564481218436681 -0.053959885804358898 0.0075266431057045531 -0.024494696035571049 0.07295020340339918 -0.02231936234346683 0.01965329704457424 0.099197550459002595 -0.02386270567663901 0.086449635824808302 0.038768562954898764 0.019885516770981784 -0.013484128975445625 0.027525009603321795 -0.097051857704159791 -0.030125615314013789 -0.029087508949336999 -0.096689032108839168 -0.053879726129905693 0.070111398046076565 0.017172154861903956
leaf_weight=21282 11336 20179 5678 38490 5164 24197 77530 17259 11631 16540 85753 19876 13906 21556 6947 10410 3229 2520 4244 9537 3481 4851 7116 2707 21538 25235 5375 14702 3158 6273
leaf_count=21282 11336 20179 5678 38490 5164 24197 77530 17259 11631 16540 85753 19876 13906 21556 6947 10410 3229 2520 4244 9537 3481 4851 7116 2707 21538 25235 5375 14702 3158 6273
internal_value=0 -0.0211706 -0.0318389 0.0538773 0.0396537 -0.0364113 -0.0205949 -0.0430997 0.0212746 0.0645547 -0.0457713 0.0258916 0.00126666 0.0567299 0.00822899 0.0492074 0.0401267 0.0510396 0.0415002 0.0534524 -0.0156095 -0.00130042 0.0109014 -0.0382815 -0.0425181 -0.0403098 -0.047115 -0.0653406 0.0163351 0.034899
internal_weight=0 374531 318643 147169 55888 279974 83208 196766 35709 106526 179507 40643 38669 68036 24078 46480 29940 19530 16301 13781 17387 18914 11967 93754 69557 66850 41615 20077 29307 9431
internal_count=521700 374531 318643 147169 55888 279974 83208 196766 35709 106526 179507 40643 38669 68036 24078 46480 29940 19530 16301 13781 17387 18914 11967 93754 69557 66850 41615 20077 29307 9431
is_linear=0
shrinkage=0.1


Tree=11
num_leaves=31
num_cat=0
split_feature=0 1 0 1 0 0 0 0 1 1 1 1 1 1 0 1 1 1 1 1 0 0 1 0 1 1 0 1 1 1
split_gain=48386.1 18128.9 4745.14 3896.65 2752.35 2585.8 1699.69 1374.09 1051.31 1034.27 896.784 1272.71 824.601 1199.56 841.593 1200.16 776.517 715.586 872.81 675.211 972.624 673.969 511.366 500.712 476.071 2452.33 474.056 468.849 1090.72 463.337
threshold=-0.57852099999999995 10.900000000000002 -0.62457099999999988 2.7000000000000006 -1.5968149999999997 -0.91642099999999982 -0.45357099999999995 -1.4247599999999998 4.1000000000000005 11.300000000000002 5.7000000000000002 6.6000000000000005 8.9000000000000021 7.7000000000000002 -0.67082099999999989 9.1000000000000014 4.5000000000000009 5.5000000000000009 6.6000000000000005 5.1000000000000005 -0.6939209999999999 -0.7503209999999999 5.3000000000000016 -0.74392099999999994 9.7000000000000011 9.9000000000000021 -1.4754699999999998 10.100000000000001 10.300000000000002 3.9000000000000004
decision_type=2 2 2 2 2 2 2 2 2 2 2 2 2 2 2 2 2 2 2 2 2 2 2 2 2 2 2 2 2 2
left_child=1 2 3 -1 -3 7 10 -5 -7 26 -2 -12 13 16 23 -16 -10 -4 -19 -18 -21 -15 -22 27 -17 -26 -6 -14 -29 -9
right_child=6 4 17 5 9 8 -8 29 12 -11 11 -13 14 21 15 24 19 18 -20 20 22 -23 -24 -25 25 -27 -28 28 -30 -31
leaf_value=0.014294388555990085 0.05607887359876506 0.070278789998051816 0.031475372642872569 0.030848918230015787 0.034842225965216841 -0.023928721103110555 0.068129250745030887 -0.0021291590949748724 -0.068950945494095126 0.036338699687001506 -0.0014431046811725278 0.04327366653132373 -0.020564014458913558 -0.05244975279350416 0.1261833265837696 -0.045465977209428424 -0.018607005625694353 -0.043406083869788802 0.01220082672083788 -0.051042526712023965 0.046697343942672775 -0.083928928587172769 -0.02511095329398479 -0.05849581721978523 0.17283147764608328 -0.052889466060688034 -0.0045274840594429549 -0.10062822669526957 -0.019593717995542534 -0.025075180213054795
leaf_weight=19230 34850 16296 12374 4904 3892 32673 51667 9589 9289 21419 8043 30506 16539 15466 720 2239 14026 3664 12293 39158 1089 12140 11100 8147 711 1490 14281 2740 4218 106947
leaf_count=19230 34850 16296 12374 4904 3892 32673 51667 9589 9289 21419 8043 30506 16539 15466 720 2239 14026 3664 12293 39158 1089 12140 11100 8147 711 1490 14281 2740 4218 106947
internal_value=0 -0.0171011 -0.0257595 -0.0293131 0.0356884 -0.0321733 0.0542344 -0.021005 -0.0400704 0.021451 0.0444536 0.0339438 -0.0438626 -0.048482 -0.0310268 0.00642084 -0.0418964 0.0134277 -0.000567471 -0.0380522 -0.0433638 -0.066293 -0.0186954 -0.0371331 -0.0130001 0.0200263 0.00390409 -0.0297262 -0.0515044 -0.0231871
internal_weight=0 396634 340746 312415 55888 293185 125066 121440 171745 39592 73399 38549 139072 102268 36804 5160 74662 28331 15957 65373 51347 27606 12189 31644 4440 2201 18173 23497 6958 116536
internal_count=521700 396634 340746 312415 55888 293185 125066 121440 171745 39592 73399 38549 139072 102268 36804 5160 74662 28331 15957 65373 51347 27606 12189 31644 4440 2201 18173 23497 6958 116536
is_linear=0
shrinkage=0.1


Tree=12
num_leaves=31
num_cat=0
split_feature=0 1 0 1 0 0 0 0 1 1 1 1 1 0 0 1 1 1 0 0 1 1 1 1 1 1 1 1 1 1
split_gain=39192.7 14684.4 3871.88 3096.05 2333.43 2239.21 1411.29 1347.61 856.503 798.345 784.645 1133.34 711.777 703.04 645.637 596.472 520.865 711.91 561.68 507.279 457.743 1129.49 495.804 772.276 443.926 427.7 836.71 871.318 726.013 424.418
threshold=-0.57852099999999995 10.900000000000002 -0.63112099999999993 2.7000000000000006 -0.84792099999999981 -1.5713649999999999 -0.43742099999999989 -1.2961149999999997 11.600000000000003 6.9000000000000012 5.7000000000000002 6.6000000000000005 4.1000000000000005 -1.4247599999999998 -0.66747099999999981 5.5000000000000009 8.7000000000000011 10.100000000000001 -1.0617699999999999 -1.2961149999999997 6.9000000000000012 7.4000000000000012 7.9000000000000012 8.5000000000000018 9.1000000000000014 8.9000000000000021 8.1000000000000014 8.5000000000000018 9.1000000000000014 8.5000000000000018
decision_type=2 2 2 2 2 2 2 2 2 2 2 2 2 2 2 2 2 2 2 2 2 2 2 2 2 2 2 2 2 2
left_child=1 2 3 -1 7 -3 10 -5 13 -9 -2 -12 -4 -7 15 -6 18 -18 -11 -15 -13 -22 -23 -24 -25 26 -16 -28 -27 -14
right_child=6 5 12 4 14 8 -8 9 -10 16 11 20 29 19 25 -17 17 -19 -20 -21 21 22 23 24 -26 28 27 -29 -30 -31
leaf_value=0.012547411236790996 0.051366425034944797 0.060796198491722277 0.035005183668586647 0.012270223307167354 -0.033092791346566619 0.034296826760188547 0.063396701386083013 -0.015835549058996149 0.039669881721954514 -0.012943743176416046 0.00043477655145515346 0.083144503089062127 -0.0078796513582796331 -0.026231108763791727 -0.021397243935970277 -0.048578306702180954 -0.013033628360686014 -0.035974655024786008 -0.048031992388184869 0.0091121165669275934 -0.02045138863967998 0.076748408392348033 0.0086315223650464939 0.070928676129745238 0.037629558558193839 0.11048745570576674 -0.14679110965631115 -0.025365511089643064 -0.011313841358564362 0.020808002151835051
leaf_weight=18926 38855 18309 8281 11132 40428 7072 43346 69183 12393 5669 9105 2311 16621 6147 14474 64650 26881 27229 23365 11967 3083 3829 6541 6012 11984 569 1172 1192 3497 7477
leaf_count=18926 38855 18309 8281 11132 40428 7072 43346 69183 12393 5669 9105 2311 16621 6147 14474 64650 26881 27229 23365 11967 3083 3829 6541 6012 11984 569 1172 1192 3497 7477
internal_value=0 -0.015391 -0.0231835 -0.0266377 -0.0291999 0.0321195 0.048811 -0.0213174 0.0181479 -0.0237719 0.0410744 0.0317452 0.00971283 0.00755774 -0.0394274 -0.0426204 -0.0303757 -0.0245779 -0.0411809 -0.00288163 0.0401896 0.0370331 0.0432808 0.0380582 0.0487539 -0.0233771 -0.0304061 -0.0855647 0.00573115 0.0010214
internal_weight=0 396634 340746 308367 289441 55888 125066 163459 37579 152327 81720 42865 32379 25186 125982 105078 83144 54110 29034 18114 33760 31449 28366 24537 17996 20904 16838 2364 4066 24098
internal_count=521700 396634 340746 308367 289441 55888 125066 163459 37579 152327 81720 42865 32379 25186 125982 105078 83144 54110 29034 18114 33760 31449 28366 24537 17996 20904 16838 2364 4066 24098
is_linear=0
shrinkage=0.1


Tree=13
num_leaves=31
num_cat=0
split_feature=0 1 1 0 0 0 0 0 1 0 1 1 0 0 0 1 1 1 1 1 1 1 1 1 1 1 1 1 1 1
split_gain=31801.4 12940.7 2728.33 2538.82 1837.6 1784.03 883.009 802.514 731.994 707.354 688.828 798.247 682.651 652.357 566.149 449.381 467.99 409.454 477.43 746.198 841.141 498.052 551.195 403.961 644.412 422.446 810.516 567.735 560.597 400.816
threshold=-0.61447099999999988 10.900000000000002 3.3000000000000003 -0.53817099999999984 -1.5968149999999997 -0.98967099999999986 -1.4411149999999997 -0.64422099999999982 11.300000000000002 -0.7896709999999999 5.5000000000000009 6.6000000000000005 -0.77017099999999983 -0.40442099999999997 -0.69742099999999996 4.3000000000000016 8.5000000000000018 6.9000000000000012 7.4000000000000012 7.9000000000000012 8.5000000000000018 9.1000000000000014 8.9000000000000021 5.1000000000000005 5.3000000000000016 9.1000000000000014 7.1000000000000005 9.5000000000000018 7.7000000000000002 8.7000000000000011
decision_type=2 2 2 2 2 2 2 2 2 2 2 2 2 2 2 2 2 2 2 2 2 2 2 2 2 2 2 2 2 2
left_child=1 2 9 10 -3 6 -4 12 -6 -1 -2 -12 23 15 -14 -5 -17 -13 -19 -20 -21 22 -22 -7 -25 26 -26 -27 -28 -16
right_child=3 4 5 13 8 7 -8 -9 -10 -11 11 17 14 -15 29 16 -18 18 19 20 21 -23 -24 24 25 27 28 -29 -30 -31
leaf_value=0.013479666074402836 0.034076934224500303 0.057171292156237098 0.031254497017586078 0.054749855411757226 0.0025125672499453008 -0.019192017301501711 -0.016230497386774161 -0.0097365137836975188 0.029798863714052267 -0.013809360301540057 -0.022021897805044877 0.075857442158919125 -0.049396416678386297 0.061484888411329743 -0.037537001807488229 0.031232530526207565 0.052089083910950677 -0.025637065348270646 0.073528758331618593 -0.028798239752252715 0.029482516988335927 0.011737596097662662 0.11198615318742292 -0.074389485935296401 -0.02334524932886603 0.0039791851334952822 -0.071850496572037875 -0.028740606275741522 -0.039457517078246643 -0.0097597655499516382
leaf_weight=21888 20231 16296 4141 23605 18173 31546 72102 15532 21419 16781 6142 1196 38522 27500 21170 33323 15888 2455 2374 3607 2416 7214 1218 3503 28082 7033 6965 21559 22935 6884
leaf_count=21888 20231 16296 4141 23605 18173 31546 72102 15532 21419 16781 6142 1196 38522 27500 21170 33323 15888 2455 2374 3607 2416 7214 1218 3503 28082 7033 6965 21559 22935 6884
internal_value=0 -0.0154766 -0.0232614 0.0393866 0.0289076 -0.0267003 -0.0136514 -0.0315836 0.0172743 0.00163718 0.0201679 0.00959785 -0.0333866 0.0483628 -0.0415269 0.043407 0.0379662 0.0190807 0.0155594 0.0215691 0.0130355 0.0269454 0.0571351 -0.0289306 -0.0323412 -0.0306398 -0.0355451 -0.0206923 -0.0470032 -0.0307209
internal_weight=0 374531 318643 147169 55888 279974 76243 203731 39592 38669 46853 26622 188199 100316 66576 72816 49211 20480 19284 16829 14455 10848 3634 121623 90077 86574 57982 28592 29900 28054
internal_count=521700 374531 318643 147169 55888 279974 76243 203731 39592 38669 46853 26622 188199 100316 66576 72816 49211 20480 19284 16829 14455 10848 3634 121623 90077 86574 57982 28592 29900 28054
is_linear=0
shrinkage=0.1


Tree=14
num_leaves=31
num_cat=0
split_feature=0 0 1 0 1 0 0 0 1 1 1 1 1 0 0 0 1 0 1 1 1 1 1 1 1 0 0 1 1 1
split_gain=25921.5 9587.81 2489.63 2693.15 2207.37 1550.32 895.463 719.43 697.023 637.548 666.049 728.277 691.18 661.799 561.945 532.629 1081.43 519.556 481.465 2662.93 471.589 678.589 441.897 438.189 408.011 904.645 534.396 379.628 856.677 369.585
threshold=-0.57512099999999988 -1.4090149999999999 11.600000000000003 -0.62117099999999992 2.7000000000000006 -0.94217099999999987 -0.46432099999999993 -1.6483149999999998 4.1000000000000005 4.5000000000000009 5.1000000000000005 8.9000000000000021 7.7000000000000002 -0.6939209999999999 -0.74392099999999994 -0.68067099999999991 9.1000000000000014 -0.73747099999999988 9.7000000000000011 9.9000000000000021 5.7000000000000002 6.6000000000000005 4.3000000000000016 5.3000000000000016 3.7000000000000006 -0.6576209999999999 -0.7735209999999999 10.100000000000001 10.300000000000002 11.100000000000001
decision_type=2 2 2 2 2 2 2 2 2 2 2 2 2 2 2 2 2 2 2 2 2 2 2 2 2 2 2 2 2 2
left_child=1 7 3 4 -3 29 20 -1 24 -10 -11 12 13 -12 -14 17 -17 27 -18 -20 -2 -22 -5 -15 26 -26 -7 -13 -29 -6
right_child=6 2 -4 22 5 8 -8 -9 9 10 11 15 14 23 -16 16 18 -19 19 -21 21 -23 -24 -25 25 -27 -28 28 -30 -31
leaf_value=0.056047143273449299 0.041083454259926197 0.011614508631067021 0.040423730431793009 0.031039773754143435 -0.015920221258968106 -0.0092775866770779293 0.049229944257814483 0.026365406920069129 -0.055859986863760314 -0.010342421024997312 -0.036912854926291788 -0.012917405483099713 -0.038794061880220068 0.048106152902861382 -0.066811021088910336 0.1048090589433103 -0.04057657995595855 -0.05232967443830347 0.15544873332418105 -0.050173531916530789 -0.0033521880810846367 0.031254415876392376 0.0032510390050884265 -0.016833343091437504 -0.0097829974114587524 0.085329535839927112 -0.038133280752432774 -0.078664253873227563 -0.013768519710993382 0.0035411032943193665
leaf_weight=12205 31003 19408 7312 7971 106843 13563 57513 24676 10198 15410 43637 19629 18150 1141 11822 925 2878 6321 938 1917 7145 27376 20286 11631 9065 1124 12183 3248 5443 10739
leaf_count=12205 31003 19408 7312 7971 106843 13563 57513 24676 10198 15410 43637 19629 18150 1141 11822 925 2878 6321 938 1917 7145 27376 20286 11631 9065 1124 12183 3248 5443 10739
internal_value=0 -0.0123832 -0.0173347 -0.0185262 -0.0210915 -0.0231605 0.040124 0.036188 -0.028764 -0.0317026 -0.0299809 -0.0323512 -0.0375733 -0.0310529 -0.0498449 -0.0214286 0.0044754 -0.0264073 -0.0117131 0.0173829 0.0321314 0.0240917 0.0110899 -0.0110319 -0.0162288 0.000709346 -0.0229321 -0.0206214 -0.0380213 -0.0141428
internal_weight=0 398663 361782 354470 326213 306805 123037 36881 189223 153288 143090 127680 86381 56409 29972 41299 6658 34641 5733 2855 65524 34521 28257 12772 35935 10189 25746 28320 8691 117582
internal_count=521700 398663 361782 354470 326213 306805 123037 36881 189223 153288 143090 127680 86381 56409 29972 41299 6658 34641 5733 2855 65524 34521 28257 12772 35935 10189 25746 28320 8691 117582
is_linear=0
shrinkage=0.1


Tree=15
num_leaves=31
num_cat=0
split_feature=0 1 0 1 0 0 0 1 1 1 1 1 0 1 1 0 1 1 1 1 1 1 1 1 1 1 1 1 1 1
split_gain=21026.6 7741.21 2381.31 1762.16 1392.64 1273.56 842.486 737.667 737.603 537.037 533.008 515.489 446.787 407.55 750.834 496.105 407.308 394.738 392.435 873.998 940.383 514.409 731.495 417.199 1602.12 412.91 444.595 383.628 378.209 727.254
threshold=-0.57177099999999992 10.900000000000002 -0.63432099999999991 2.9000000000000004 -0.82537099999999985 -1.5121149999999999 -1.2961149999999997 11.900000000000002 4.3000000000000016 6.9000000000000012 8.5000000000000018 4.1000000000000005 -0.90702099999999997 8.9000000000000021 10.100000000000001 -1.0728699999999998 5.7000000000000002 6.6000000000000005 8.5000000000000018 7.9000000000000012 7.4000000000000012 9.1000000000000014 8.9000000000000021 9.7000000000000011 9.9000000000000021 5.7000000000000002 6.3000000000000016 10.700000000000001 6.6000000000000005 6.9000000000000012
decision_type=2 2 2 2 2 2 2 2 2 2 2 2 2 2 2 2 2 2 2 2 2 2 2 2 2 2 2 2 2 2
left_child=1 2 3 12 6 -3 -5 -7 -2 17 16 -4 -1 15 -15 -11 -10 -8 19 20 25 22 -20 -23 -25 -13 -27 -16 -18 -30
right_child=8 5 11 4 -6 7 9 -9 10 13 -12 18 -14 14 27 -17 28 -19 21 -21 -22 23 -24 24 -26 26 -28 -29 29 -31
leaf_value=0.026894137234772436 0.047126581673913287 0.041468000398189125 0.026714178395108396 0.010335049671972031 -0.030745305182940871 0.0042521951023793908 -0.013431587814130409 0.045107711493539565 0.036854144039661925 -0.0061220014578820068 0.042853166045075212 0.008147294211758303 -0.0026352966894130137 -0.0044629579335394706 -0.035467796531857408 -0.036487837815171439 0.0042782422013976961 0.020577101368320028 0.016357506096863057 -0.057882301265093077 0.066595283577244618 -0.025769132934056967 0.12182140646555165 0.12991195972990299 -0.025671310711533352 -0.054438860532665383 -0.0032438597133726925 -0.0085166026464121667 0.067398161829392275 0.018428383742112774
leaf_weight=7263 42543 23108 9754 11132 107812 27515 69953 5265 19132 6506 24938 7880 17396 23719 20886 31094 11948 3588 1967 2959 1937 2989 988 1003 1946 2984 3931 7069 3613 18882
leaf_count=7263 42543 23108 9754 11132 107812 27515 69953 5265 19132 6506 24938 7880 17396 23719 20886 31094 11948 3588 1967 2959 1937 2989 988 1003 1946 2984 3931 7069 3613 18882
internal_value=0 -0.0110354 -0.016632 -0.0195718 -0.0218152 0.0234887 -0.0162804 0.0108143 0.0365225 -0.0181001 0.0307765 0.00686398 0.00606223 -0.0233128 -0.0175493 -0.0312336 0.0251551 -0.0117723 9.0295e-05 -0.00778402 0.0010757 0.0175257 0.0516192 0.000559344 0.0272449 -0.0075023 -0.0253358 -0.0286526 0.0186566 0.0262936
internal_weight=0 400644 344756 306418 281759 55888 173947 32780 121056 162815 78513 38338 24659 89274 51674 37600 53575 73541 28584 19691 16732 8893 2955 5938 2949 14795 6915 27955 34443 22495
internal_count=521700 400644 344756 306418 281759 55888 173947 32780 121056 162815 78513 38338 24659 89274 51674 37600 53575 73541 28584 19691 16732 8893 2955 5938 2949 14795 6915 27955 34443 22495
is_linear=0
shrinkage=0.1


Tree=16
num_leaves=31
num_cat=0
split_feature=0 1 0 0 1 0 0 0 0 1 1 1 1 1 1 1 0 1 0 1 1 1 1 1 1 1 1 1 1 1
split_gain=17049.1 6325.97 1878.8 1973.42 1546.9 1050.38 644.975 555.234 553.273 373.845 371.006 335.636 505.563 306.367 1005.59 703.874 411.143 832.994 405.435 373.136 2076.86 347.251 617.208 302.431 349.389 518.033 666.267 429.848 489.621 297.206
threshold=-0.56832099999999997 11.300000000000002 -0.62117099999999992 -1.4411149999999997 3.3000000000000003 -0.98362099999999997 -0.41657099999999997 -1.5968149999999997 -0.7735209999999999 4.3000000000000016 2.2000000000000006 5.5000000000000009 6.6000000000000005 8.9000000000000021 6.9000000000000012 6.6000000000000005 -0.68067099999999991 9.1000000000000014 -0.73747099999999988 9.7000000000000011 9.9000000000000021 10.100000000000001 10.300000000000002 8.5000000000000018 8.1000000000000014 7.4000000000000012 6.9000000000000012 6.6000000000000005 5.7000000000000002 6.9000000000000012
decision_type=2 2 2 2 2 2 2 2 2 2 2 2 2 2 2 2 2 2 2 2 2 2 2 2 2 2 2 2 2 2
left_child=1 2 3 -1 8 -6 9 -3 10 -2 -5 -4 -13 14 15 -7 18 -18 21 -19 -21 -15 -23 24 25 26 27 28 -11 -14
right_child=6 7 11 4 5 13 -8 -9 -10 23 -12 12 29 16 -16 -17 17 19 -20 20 -22 22 -24 -25 -26 -27 -28 -29 -30 -31
leaf_value=0.021882362917473738 0.038484486613161513 0.048929014173263077 0.021109587479109806 0.038917169148224087 -0.010853634244959866 -0.022420837238656455 0.045077172167938911 0.022116097237270288 -0.013704148326735785 0.029978983544281485 0.0054082958016642112 -0.029865094880393728 0.068303234184213524 -0.0095368603741442116 -0.037647109451299371 0.013463523649078213 0.094120437886264272 -0.033555222691481389 -0.044022176103961565 0.13939871110641627 -0.042192021344803432 -0.062977581499363236 -0.01393194625190539 0.034673980859131953 -0.0064069098865442778 0.048875994454662355 -0.026669367342809031 0.061821180177987746 0.00064443533046100118 0.0060211834664446141
leaf_weight=13340 26721 12078 13974 3980 88711 92624 33260 21419 14594 14127 19458 4213 813 23436 50620 5809 925 2878 6321 938 1917 3916 7442 18857 4665 6234 3105 2493 9527 13305
leaf_count=13340 26721 12078 13974 3980 88711 92624 33260 21419 14594 14127 19458 4213 813 23436 50620 5809 925 2878 6321 938 1917 3916 7442 18857 4665 6234 3105 2493 9527 13305
internal_value=0 -0.00982647 -0.0136016 -0.0158105 -0.0173645 -0.0198879 0.0332571 0.031784 0.00158095 0.0286713 0.0110984 0.00943526 0.000535744 -0.0239598 -0.0261933 -0.0203031 -0.0169909 0.00606239 -0.0207241 -0.00814548 0.017469 -0.0164916 -0.0308419 0.0242275 0.0193213 0.0227035 0.0171258 0.0223266 0.0181641 0.00960776
internal_weight=0 402711 369214 336909 323569 285537 118989 33497 38032 85729 23438 32305 18331 196826 149053 98433 47773 6658 41115 5733 2855 34794 11358 59008 40151 35486 29252 26147 23654 14118
internal_count=521700 402711 369214 336909 323569 285537 118989 33497 38032 85729 23438 32305 18331 196826 149053 98433 47773 6658 41115 5733 2855 34794 11358 59008 40151 35486 29252 26147 23654 14118
is_linear=0
shrinkage=0.1


Tree=17
num_leaves=31
num_cat=0
split_feature=0 0 1 0 0 1 1 0 1 0 0 1 1 1 1 1 1 1 1 1 1 1 1 0 1 1 1 1 1 1
split_gain=13809.8 5127.41 1654.91 1751.99 1280.01 1198.68 549.854 531.995 526.539 457.884 426.434 424.696 1082.09 893.983 479.856 643.553 398.67 389.737 1489.44 366.813 352.328 327.851 299.153 293.012 283.889 510.173 720.408 391.915 440.164 275.306
threshold=-0.56832099999999997 -1.4247599999999998 11.600000000000003 -0.64422099999999982 -0.80557099999999993 3.3000000000000003 4.1000000000000005 -0.39172099999999993 3.9000000000000004 -1.0317199999999997 -1.7315149999999997 8.5000000000000018 7.9000000000000012 7.4000000000000012 9.1000000000000014 8.9000000000000021 2.7000000000000006 9.7000000000000011 9.9000000000000021 8.7000000000000011 4.3000000000000016 8.5000000000000018 9.1000000000000014 -0.60812099999999991 8.1000000000000014 7.4000000000000012 6.9000000000000012 6.6000000000000005 5.7000000000000002 5.7000000000000002
decision_type=2 2 2 2 2 2 2 2 2 2 2 2 2 2 2 2 2 2 2 2 2 2 2 2 2 2 2 2 2 2
left_child=1 10 3 4 5 -3 8 20 -5 -7 -1 12 13 29 15 19 -6 -16 -19 -13 -2 24 -23 -14 25 26 27 28 -22 -8
right_child=7 2 -4 6 16 9 11 -9 -10 -11 -12 14 23 -15 17 -17 -18 18 -20 -21 21 22 -24 -25 -26 -27 -28 -29 -30 -31
leaf_value=0.051721349194580393 0.03555419310660049 0.011478490106529092 0.033214329077488988 0.016331889072226859 -0.0034678484105784405 -0.0073472039857472443 0.0040346321536901333 0.044100166521789413 0.086190005092199998 -0.017600319704447528 0.022692935695650725 0.054033116305799926 -0.089352087284480602 0.058101557637882974 -0.022975308184208929 0.10557487910360937 -0.027056230730881238 0.11567913336449481 -0.022009028334205368 -0.023865827208643175 0.027570670691907675 0.049808669687994564 0.024618719028821984 -0.03224141255840856 -0.0035904862583603227 0.045311500778316138 -0.027489568032006136 0.05562466327882748 0.0010560384052780097 -0.02074667011948585
leaf_weight=6143 31107 20378 7813 10616 7760 66825 9567 21673 1201 125083 28722 1216 1718 2342 3637 1173 93450 1175 2371 1202 15354 6982 14517 1883 5461 6955 3485 2883 10572 8436
leaf_count=6143 31107 20378 7813 10616 7760 66825 9567 21673 1201 125083 28722 1216 1718 2342 3637 1173 93450 1175 2371 1202 15354 6982 14517 1883 5461 6955 3485 2883 10572 8436
internal_value=0 -0.00884382 -0.0123177 -0.0133058 -0.0159935 -0.0115814 0.00479974 0.0299314 0.0234318 -0.01403 0.0278076 -0.0015417 -0.00896029 -1.69936e-05 0.0149467 0.0447945 -0.0252477 2.48336e-05 0.0236152 0.0153092 0.0267759 0.0226516 0.0327994 -0.0594883 0.0177719 0.0207442 0.0154533 0.0206481 0.0167586 -0.0075776
internal_weight=0 402711 367846 360033 313496 212286 46537 118989 11817 191908 34865 34720 23946 20345 10774 3591 101210 7183 3546 2418 97316 66209 21499 3601 44710 39249 32294 28809 25926 18003
internal_count=521700 402711 367846 360033 313496 212286 46537 118989 11817 191908 34865 34720 23946 20345 10774 3591 101210 7183 3546 2418 97316 66209 21499 3601 44710 39249 32294 28809 25926 18003
is_linear=0
shrinkage=0.1


Tree=18
num_leaves=31
num_cat=0
split_feature=0 1 0 1 0 0 1 1 1 0 0 0 1 0 1 1 0 1 0 1 1 0 1 0 0 1 1 1 1 1
split_gain=11228.4 4675.09 1165.29 1097.23 705.357 699.935 430.933 577.872 588.797 385.61 442.127 384.721 384.479 672.553 375.537 442.277 355.352 344.081 541.037 404.879 331.048 330.675 323.687 315.004 308.718 308.164 408.831 297.574 587.649 390.257
threshold=-0.61777099999999996 10.900000000000002 -0.51052099999999989 2.7000000000000006 -1.5968149999999997 -0.95777099999999982 4.1000000000000005 4.5000000000000009 4.7000000000000002 -0.68067099999999991 -0.76372099999999987 -1.4588149999999998 3.7000000000000006 -0.6576209999999999 5.5000000000000009 6.6000000000000005 -0.76372099999999987 10.300000000000002 -1.2961149999999997 10.700000000000001 11.900000000000002 -1.2640149999999999 3.9000000000000004 -1.0784699999999996 -0.73082099999999983 6.9000000000000012 7.1000000000000005 7.9000000000000012 8.5000000000000018 9.1000000000000014
decision_type=2 2 2 2 2 2 2 2 2 2 2 2 2 2 2 2 2 2 2 2 2 2 2 2 2 2 2 2 2 2
left_child=1 3 14 -1 -3 11 12 24 -9 10 -10 -5 16 -14 -2 -16 -7 23 -19 -20 -6 -21 -15 -13 -8 -17 -27 -28 -29 -30
right_child=2 4 -4 5 20 6 7 8 9 -11 -12 17 13 22 15 25 -18 18 19 21 -22 -23 -24 -25 -26 26 27 28 29 -31
leaf_value=0.0089440988285135054 0.021765155609126223 0.034891392597512588 0.030985102482128098 0.025013032299123411 0.0060768455528007262 -0.0057599795114087879 -0.031571221899384709 0.012803868386306927 -0.019253832787683132 -0.009693974607413551 -0.03264713329107212 0.0066921219386224797 -0.0022808937958442325 0.02654338641236419 -0.013383882230288899 0.053877724053937072 -0.028823979702561859 0.0016298334477013673 -0.041552558299888687 -0.08448325785977101 0.030585865706184226 -0.00011008900582589281 0.1290681349272704 -0.009666268254072248 -0.067488046681409439 -0.037738915915735111 0.035477863548418857 -0.021826719699815974 0.040303431451389711 0.0061567693256333765
leaf_weight=19570 28601 16296 83835 3309 32975 15636 7243 5435 85699 26086 34598 15064 9578 636 8586 1695 11663 7823 10826 513 6617 4914 597 53859 3574 1687 4806 5024 5057 9898
leaf_count=19570 28601 16296 83835 3309 32975 15636 7243 5435 85699 26086 34598 15064 9578 636 8586 1695 11663 7823 10826 513 6617 4914 597 53859 3574 1687 4806 5024 5057 9898
internal_value=0 -0.00928426 0.0231819 -0.0139909 0.0173805 -0.0155019 -0.0188641 -0.0211069 -0.0195158 -0.0207158 -0.0231058 -0.00849375 -0.00929279 0.0066681 0.0131721 0.00648509 -0.0156137 -0.00968595 -0.0199775 -0.0303777 0.010173 -0.00808566 0.0761843 -0.00609093 -0.0434384 0.0125416 0.0098949 0.0131371 0.00776299 0.0177034
internal_weight=0 372511 149189 316623 55888 297053 200745 162635 151818 146383 120297 96308 38110 10811 65354 36753 27299 92999 24076 16253 39592 5427 1233 68923 10817 28167 26472 24785 19979 14955
internal_count=521700 372511 149189 316623 55888 297053 200745 162635 151818 146383 120297 96308 38110 10811 65354 36753 27299 92999 24076 16253 39592 5427 1233 68923 10817 28167 26472 24785 19979 14955
is_linear=0
shrinkage=0.1


Tree=19
num_leaves=31
num_cat=0
split_feature=0 1 0 0 0 1 1 1 0 1 0 0 1 1 1 1 1 1 1 1 1 1 1 1 1 1 0 0 0 1
split_gain=9159.05 3507.42 1150.85 1139.69 784.852 848.37 410.171 363.409 361.789 354.204 325.302 321.739 320.152 801.819 362.27 539.505 336.106 1297.91 320.277 298.541 510.426 275.662 946.226 611.986 1152.96 378.155 271.25 265.466 260.239 255.636
threshold=-0.56142099999999984 11.300000000000002 -0.64422099999999982 -0.82217099999999987 -1.4588149999999998 3.5000000000000004 4.1000000000000005 3.9000000000000004 -0.39172099999999993 5.5000000000000009 -1.6222149999999997 -0.6939209999999999 8.5000000000000018 8.1000000000000014 9.1000000000000014 8.9000000000000021 9.7000000000000011 9.9000000000000021 8.7000000000000011 7.4000000000000012 7.9000000000000012 8.7000000000000011 8.3000000000000025 9.9000000000000021 9.7000000000000011 9.1000000000000014 -0.75357099999999988 -1.0271699999999997 -0.62792099999999984 2.2000000000000006
decision_type=2 2 2 2 2 2 2 2 2 2 2 2 2 2 2 2 2 2 2 2 2 2 2 2 2 2 2 2 2 2
left_child=1 2 3 4 -1 29 7 -4 -2 -5 -3 26 13 19 15 18 -16 -18 -14 -8 -21 22 -13 24 25 -23 -11 -7 -15 -6
right_child=8 10 6 9 5 27 12 -9 -10 11 -12 21 14 28 16 -17 17 -19 -20 20 -22 23 -24 -25 -26 -27 -28 -29 -30 -31
leaf_value=0.017187986343144692 0.022245524151370946 0.038191202698519 0.013954295768812887 -0.013736132155352788 0.03550817513064676 -0.0064577351644607428 -0.0063397286969704113 0.069586877231845992 0.036591640748597436 -0.022422711343073422 0.017137829958277531 -0.011201027034446915 0.046448311810660614 -0.12217325400631383 -0.020163835539343589 0.090823998548242038 0.10318951584092401 -0.019659938172065298 -0.023305579433218534 0.050044505931536844 -0.027007444252241705 0.035910237998008361 -0.094536673704545104 -0.050467044257653637 0.12857449077921773 -0.026728667980755162 -0.037858866212400762 -0.014460826896727742 -0.043766390819966534 0.0049394552869105905
leaf_weight=11960 93052 10860 11555 48347 3209 66105 19696 1307 21673 24802 22637 9522 1319 530 3976 1278 1289 2584 1314 2554 1296 1616 1590 1612 822 2388 21042 111114 2103 18548
leaf_count=11960 93052 10860 11555 48347 3209 66105 19696 1307 21673 24802 22637 9522 1319 530 3976 1278 1289 2584 1314 2554 1296 1616 1590 1612 822 2388 21042 111114 2103 18548
internal_value=0 -0.00703493 -0.00981516 -0.0120177 -0.00769218 -0.00918767 0.00417507 0.0196075 0.0249557 -0.0201832 0.0239635 -0.0250999 -0.00105681 -0.00721371 0.0126491 0.0375134 0.000259727 0.0212264 0.0116376 -0.00136139 0.024107 -0.0135858 -0.0231254 0.0028795 0.0206985 -0.00144783 -0.0295078 -0.0114756 -0.059549 0.00944812
internal_weight=0 406975 373478 322677 210936 198976 50801 12862 114725 111741 33497 63394 37939 26179 11760 3911 7849 3873 2633 23546 3850 17550 11112 6438 4826 4004 45844 177219 2633 21757
internal_count=521700 406975 373478 322677 210936 198976 50801 12862 114725 111741 33497 63394 37939 26179 11760 3911 7849 3873 2633 23546 3850 17550 11112 6438 4826 4004 45844 177219 2633 21757
is_linear=0
shrinkage=0.1


Tree=20
num_leaves=31
num_cat=0
split_feature=0 1 0 0 1 0 1 0 0 1 0 1 1 1 1 1 1 1 1 1 1 1 1 1 1 1 1 1 1 0
split_gain=7429.49 2825.91 993.912 835.475 744.646 509.569 323.923 295.63 270.077 263.019 234.835 237.599 641.387 583.107 230.149 229.974 597.718 454.346 293.845 223.513 222.056 217.99 205.035 1122.26 203.037 200.856 760.648 267.163 324.067 195.924
threshold=-0.55817099999999986 11.300000000000002 -0.62117099999999992 -1.4588149999999998 2.7000000000000006 -0.84462099999999996 4.1000000000000005 -0.66747099999999981 -1.673665 8.5000000000000018 -0.75702099999999983 7.7000000000000002 7.9000000000000012 7.1000000000000005 2.7000000000000006 5.1000000000000005 4.5000000000000009 3.9000000000000004 5.3000000000000016 6.9000000000000012 9.1000000000000014 5.7000000000000002 8.5000000000000018 8.1000000000000014 5.1000000000000005 9.9000000000000021 9.7000000000000011 9.1000000000000014 8.9000000000000021 -1.0617699999999999
decision_type=2 2 2 2 2 2 2 2 2 2 2 2 2 2 2 2 2 2 2 2 2 2 2 2 2 2 2 2 2 2
left_child=1 2 3 -1 -5 15 -2 10 -3 21 24 13 -13 19 -4 16 17 -6 29 -12 -11 -8 23 -9 -7 26 27 28 -24 -17
right_child=6 8 14 4 5 7 9 22 -10 20 11 12 -14 -15 -16 18 -18 -19 -20 -21 -22 -23 25 -25 -26 -27 -28 -29 -30 -31
leaf_value=0.015469187350342592 0.030353083413672918 0.037079263297459655 0.033248936722143525 0.0075507451823071106 0.0010798027206497473 -0.0060483062997218218 0.023081640527696057 -0.0063222999014652913 0.016369454091544181 0.041281858485281507 -0.021663972239862144 -0.097698770546136071 -0.028258033798762162 0.023827017301583441 0.0042259070965439951 -0.0035934286149052852 0.018167495759285654 -0.024234767588686368 -0.010194876033861204 -0.06214641419619156 0.02067078428648304 0.0098653239349385594 -0.00058106332772878036 -0.096416851653901237 -0.019429926558515796 -0.025209526954740935 0.11197998496317266 -0.023123212928547847 0.081167424058580739 -0.04806538743859378
leaf_weight=11960 37336 8407 2959 19408 16507 16838 20530 18390 25090 8039 28663 1442 17144 2838 35658 1390 10391 12428 131731 1432 14944 31828 1507 1495 34716 1491 718 2257 715 3448
leaf_count=11960 37336 8407 2959 19408 16507 16838 20530 18390 25090 8039 28663 1442 17144 2838 35658 1390 10391 12428 131731 1432 14944 31828 1507 1495 34716 1491 718 2257 715 3448
internal_value=0 -0.00626344 -0.00874594 -0.0104877 -0.0114431 -0.0126495 0.0227366 -0.0174063 0.0215672 0.0189622 -0.0198309 -0.0246058 -0.0336456 -0.0195041 0.00644978 -0.00914348 -0.0024052 -0.00979317 -0.0110838 -0.0235902 0.0278801 0.0150475 -0.00800158 -0.0130958 -0.0150594 0.00714476 0.0164271 0.00110961 0.0257241 -0.0352882
internal_weight=0 409023 375526 336909 324949 305541 112677 129646 33497 75341 103073 51519 18586 32933 38617 175895 39326 28935 136569 30095 22983 52358 26573 19885 51554 6688 5197 4479 2222 4838
internal_count=521700 409023 375526 336909 324949 305541 112677 129646 33497 75341 103073 51519 18586 32933 38617 175895 39326 28935 136569 30095 22983 52358 26573 19885 51554 6688 5197 4479 2222 4838
is_linear=0
shrinkage=0.1


Tree=21
num_leaves=31
num_cat=0
split_feature=0 1 0 0 0 1 1 1 1 1 0 1 1 1 1 1 1 1 1 1 1 1 1 0 0 1 1 1 1 1
split_gain=6017.89 2288.99 811.815 808.708 458.101 514.75 314.638 390.854 312.949 303.873 274.329 241.092 600.594 597.797 288.245 419.789 270.59 265.083 1023.51 231.821 470.11 354.288 237.341 226.114 225.461 216.692 384.009 327.096 311.227 211.547
threshold=-0.55817099999999986 11.300000000000002 -0.64422099999999982 -0.90382099999999987 -1.4754699999999998 3.3000000000000003 4.1000000000000005 4.3000000000000016 4.1000000000000005 3.9000000000000004 -0.43337099999999995 8.5000000000000018 7.9000000000000012 7.4000000000000012 9.1000000000000014 8.9000000000000021 8.7000000000000011 9.7000000000000011 9.9000000000000021 5.7000000000000002 5.1000000000000005 6.3000000000000016 5.5000000000000009 -1.5713649999999999 -0.60482099999999994 5.1000000000000005 4.9000000000000012 8.9000000000000021 8.5000000000000018 6.9000000000000012
decision_type=2 2 2 2 2 2 2 2 2 2 2 2 2 2 2 2 2 2 2 2 2 2 2 2 2 2 2 2 2 2
left_child=1 2 3 4 -1 -6 -5 -8 9 -4 -2 12 13 19 15 16 -13 -16 -19 20 -10 -21 -22 -3 -14 26 -9 28 -27 -23
right_child=10 23 8 6 5 -7 7 25 11 -11 -12 14 24 -15 17 -17 -18 18 -20 21 22 29 -24 -25 -26 27 -28 -29 -30 -31
leaf_value=0.015407464630352162 0.016710849201699657 0.029540727326490747 0.011755222054629035 -0.007109797023586383 0.014842248272228546 -0.0077526791193289471 -0.047392953745975748 -0.014239226757154133 -0.011734878033077678 0.061589829067914326 0.026951720133046333 0.041489729718514994 -0.06698529299841062 0.044739269207263593 -0.017854611626966461 0.078678715359195184 -0.021326994513459208 0.089483533674269936 -0.017415313810047125 -0.039101131999112991 0.048594308424516015 0.019505969492526833 -0.0023942354099466359 0.0127469896613032 -0.019773250240004866 -0.019231281130030146 0.02098880356855734 -0.0095652869994267906 -0.039797413915468587 -0.019784013190210364
leaf_weight=10646 71394 13291 12039 41560 10891 135843 4135 12512 6808 1362 41283 1376 1876 2658 4130 1328 1367 1343 2689 4130 2682 2716 1384 20206 2195 61950 4111 32679 8350 2766
leaf_count=10646 71394 13291 12039 41560 10891 135843 4135 12512 6808 1362 41283 1376 1876 2658 4130 1328 1367 1343 2689 4130 2682 2716 1384 20206 2195 61950 4111 32679 8350 2766
internal_value=0 -0.0056371 -0.00787134 -0.00975301 -0.00462239 -0.00607562 -0.0146379 -0.0171664 0.00361744 0.0168201 0.0204629 -0.00086768 -0.006109 0.000121422 0.0107928 0.0325279 0.0101844 -4.81425e-05 0.0181911 -0.00566762 0.00433376 -0.0169821 0.0312386 0.0194104 -0.0415295 -0.0161214 -0.00552705 -0.0178315 -0.0216741 -0.000318199
internal_weight=0 409023 375526 322677 157380 146734 165297 123737 52849 13401 112677 39448 27215 23144 12233 4071 2743 8162 4032 20486 10874 9612 4066 33497 4071 119602 16623 102979 70300 5482
internal_count=521700 409023 375526 322677 157380 146734 165297 123737 52849 13401 112677 39448 27215 23144 12233 4071 2743 8162 4032 20486 10874 9612 4066 33497 4071 119602 16623 102979 70300 5482
is_linear=0
shrinkage=0.1


Tree=22
num_leaves=31
num_cat=0
split_feature=0 1 0 1 0 0 1 1 1 1 0 1 1 0 0 1 0 1 1 0 1 0 0 0 1 1 1 1 0 1
split_gain=4885.09 2074.05 590.604 549.538 395.729 323.644 307.909 620.128 595.021 650.593 322.955 349.233 345.854 320.493 291.467 279.404 301.45 236.67 483.186 205.716 197.635 200.026 183.185 178.211 162.154 616.816 321.829 438.916 203.056 158.17
threshold=-0.61777099999999996 10.900000000000002 -0.50707099999999994 2.7000000000000006 -1.2961149999999997 -1.7006149999999998 6.9000000000000012 6.6000000000000005 8.9000000000000021 10.100000000000001 -0.79932099999999984 5.5000000000000009 4.9000000000000012 -0.72092099999999981 -1.1170149999999996 10.700000000000001 -1.2803649999999998 5.7000000000000002 6.1000000000000005 -0.6475209999999999 11.900000000000002 -1.4937699999999998 -1.4754699999999998 -1.0784699999999996 5.1000000000000005 5.3000000000000016 4.5000000000000009 4.1000000000000005 -0.86672099999999996 9.9000000000000021
decision_type=2 2 2 2 2 2 2 2 2 2 2 2 2 2 2 2 2 2 2 2 2 2 2 2 2 2 2 2 2 2
left_child=1 3 17 -1 -5 -3 7 10 14 -10 23 12 19 -13 -8 -11 -17 -2 -19 -12 21 -7 -22 -6 26 28 27 -25 -26 -20
right_child=2 5 -4 4 6 20 8 -9 9 15 11 13 -14 -15 -16 16 -18 18 29 -21 22 -23 -24 24 25 -27 -28 -29 -30 -31
leaf_value=0.0069723721923377474 0.01472370066870096 0.030056525689216448 0.021001882939632795 0.0081696395917207933 0.011134267065873657 0.015627246729329563 0.006108206056430616 0.021444975907003956 -0.00028937759130866507 -0.024022375802375835 -0.018744573160809287 -0.045567864729383387 0.0072925132009549328 -0.015566287151006861 -0.022739531344328427 -0.10868814161172498 0.0024751419058913959 -0.032174041557518671 0.0089685140950273041 0.0030212846713638295 0.0055751467973564756 0.00051956370765201122 0.035596985124223657 -0.00083773677987845701 -0.034643375733122005 -0.0062550737230211602 0.011685753602542204 -0.026723266124523387 -0.084674315227104946 -0.014425159401821659
leaf_weight=19570 31295 8148 81795 11132 6154 13135 3706 6917 43616 24980 26716 6242 8694 8289 63754 253 6816 3553 29340 5185 3595 26334 4676 24597 3374 25180 11452 8928 1068 3206
leaf_count=19570 31295 8148 81795 11132 6154 13135 3706 6917 43616 24980 26716 6242 8694 8289 63754 253 6816 3553 29340 5185 3595 26334 4676 24597 3374 25180 11452 8928 1068 3206
internal_value=0 -0.00612385 0.0152907 -0.00925878 -0.0103281 0.0116365 -0.0110483 -0.00776289 -0.0143261 -0.008238 -0.00924973 -0.0151503 -0.0103883 -0.0284539 -0.0211547 -0.0190554 -0.0015034 0.0083591 0.00284149 -0.0152069 0.00849267 0.00554729 0.022548 -0.00522169 -0.00657097 -0.0123159 -0.00278733 -0.00773128 -0.0466724 0.00666408
internal_weight=0 372511 149189 316623 297053 55888 285921 142796 143125 75665 135879 55126 40595 14531 67460 32049 7069 67394 36099 31901 47740 39469 8271 80753 74599 29622 44977 33525 4442 32546
internal_count=521700 372511 149189 316623 297053 55888 285921 142796 143125 75665 135879 55126 40595 14531 67460 32049 7069 67394 36099 31901 47740 39469 8271 80753 74599 29622 44977 33525 4442 32546
is_linear=0
shrinkage=0.1


Tree=23
num_leaves=31
num_cat=0
split_feature=0 1 1 0 0 0 1 0 0 1 1 1 1 1 1 1 1 1 1 1 1 1 1 1 1 1 1 1 1 1
split_gain=3997.24 1530.84 563.191 429.719 604.062 275.394 229.647 214.807 214.549 218.027 273.353 214.472 210.875 268.553 331.564 383.923 209.576 295.462 194.638 362.957 191.441 1183.01 337.665 400.495 315.492 259.976 226.582 174.758 172.867 197.556
threshold=-0.5548209999999999 11.300000000000002 2.7000000000000006 -0.64422099999999982 -0.97092099999999992 -1.4754699999999998 4.1000000000000005 -0.76017099999999982 -0.7040209999999999 4.5000000000000009 4.3000000000000016 8.5000000000000018 5.5000000000000009 6.3000000000000016 7.7000000000000002 7.9000000000000012 2.9000000000000004 3.5000000000000004 5.1000000000000005 5.3000000000000016 9.9000000000000021 9.7000000000000011 7.7000000000000002 8.7000000000000011 9.1000000000000014 8.3000000000000025 10.100000000000001 7.1000000000000005 4.9000000000000012 4.7000000000000002
decision_type=2 2 2 2 2 2 2 2 2 2 2 2 2 2 2 2 2 2 2 2 2 2 2 2 2 2 2 2 2 2
left_child=1 2 -1 4 5 -4 -2 18 12 10 16 -8 28 -14 -15 -16 -10 -18 -6 -20 21 22 27 25 -25 -24 -22 -11 29 -9
right_child=6 -3 3 -5 7 -7 11 8 9 20 -12 -13 13 14 15 -17 17 -19 19 -21 26 -23 23 24 -26 -27 -28 -29 -30 -31
leaf_value=0.0089758156987450235 0.023323684384082097 0.015946930973171614 0.012423365544495057 0.0011930560775437087 -0.0039861170206081349 -0.0044923836331936208 0.010085717186136531 -0.014062125105118107 0.027095615149996227 -0.0031884836735466267 -0.075497779393695411 0.021793940497630206 -0.053588656718807352 -0.00018970220267372113 -0.09437771017515062 -0.027014374188659297 -0.048815148779275418 -0.0063932461469690107 -0.044527911989645452 -0.011081794642965354 -0.070851947258680298 0.10368981754474152 -0.024513840064872488 0.028284960600545042 -0.023988485778855123 -0.072182950970957505 -0.0024290915479329702 0.02952522419929442 0.0099100543355405534 -0.062715004144803341
leaf_weight=22521 36812 33497 10646 50689 40482 100291 51325 8990 882 11508 955 22506 3627 4435 918 10795 2896 3791 3377 82768 975 975 2842 1946 2839 1915 961 1903 2713 920
leaf_count=22521 36812 33497 10646 50689 40482 100291 51325 8990 882 11508 955 22506 3627 4435 918 10795 2896 3791 3377 82768 975 975 2842 1946 2839 1915 961 1903 2713 920
internal_value=0 -0.00454131 -0.00635901 -0.00733174 -0.00875153 -0.00286907 0.0168717 -0.0121256 -0.0167144 -0.011213 -0.025083 0.0136548 -0.0225538 -0.0289996 -0.0234766 -0.0322939 -0.018722 -0.0247653 -0.00970531 -0.0123929 -0.0066418 -0.0041946 -0.00877733 -0.0231565 -0.00272953 -0.0437037 -0.0368879 0.00145354 -0.0124559 -0.0185788
internal_weight=0 411057 377560 355039 304350 110937 110643 193413 66786 34388 8524 73831 32398 19775 16148 11713 7569 6687 126627 86145 25864 23928 22953 9542 4785 4757 1936 13411 12623 9910
internal_count=521700 411057 377560 355039 304350 110937 110643 193413 66786 34388 8524 73831 32398 19775 16148 11713 7569 6687 126627 86145 25864 23928 22953 9542 4785 4757 1936 13411 12623 9910
is_linear=0
shrinkage=0.1


Tree=24
num_leaves=31
num_cat=0
split_feature=0 0 1 1 0 1 1 1 1 0 0 0 1 0 1 0 1 1 1 1 0 1 0 1 1 0 1 1 0 0
split_gain=3245.96 1415.13 496.66 444.389 412.164 262.956 504.548 474.504 470.533 287.156 225.09 221.185 206.927 198.616 592.918 183.52 178.163 413.491 360.767 296.973 426.152 325.12 240.489 225.817 152.944 140.415 152.991 132.653 131.851 130.052
threshold=-0.61777099999999996 -1.3926149999999997 11.100000000000001 2.2000000000000006 -0.49642099999999995 6.9000000000000012 8.9000000000000021 6.6000000000000005 9.5000000000000018 -0.96122099999999988 -1.1084149999999997 -0.6939209999999999 2.7000000000000006 -1.3767149999999997 11.600000000000003 -1.7643149999999999 4.1000000000000005 4.5000000000000009 4.7000000000000002 3.7000000000000006 -0.6576209999999999 3.5000000000000004 -0.73417099999999991 3.9000000000000004 2.5000000000000004 -1.3448699999999996 10.100000000000001 2.5000000000000004 -0.65082099999999987 -0.71762099999999995
decision_type=2 2 2 2 2 2 2 2 2 2 2 2 2 2 2 2 2 2 2 2 2 2 2 2 2 2 2 2 2 2
left_child=1 15 3 11 12 7 10 9 -8 -5 -7 -3 27 14 -4 -1 19 22 -19 21 -21 24 -18 -22 -11 -10 -27 -2 -13 -20
right_child=4 2 13 5 -6 6 8 -9 25 16 -12 28 -14 -15 -16 -17 17 18 29 20 23 -23 -24 -25 -26 26 -28 -29 -30 -31
leaf_value=0.033208448491843033 0.014505257349728327 0.026776781832378922 -0.11067135429573441 0.0013005459902840366 0.017650452268175906 0.0046832695957320872 0.0061044708531168227 0.019963282716041166 0.010185702736684359 -0.020224499798913938 -0.019425056324456444 -0.048378552655837792 0.0055896722128609038 0.012251301474982955 0.044111839792636165 0.010697727221672372 -0.019797498552044431 0.015247918980068609 -0.015057293931123279 0.0028460624283175085 0.023805534955981384 -0.031209019902947239 -0.051180674462030423 0.10943917139890408 -0.0019733160068939794 -0.0049531740515627908 -0.015439437698195542 0.046566609473169651 0.017627983205650049 -0.0037662955539617912
leaf_weight=4040 3831 5277 499 33633 75592 4125 22289 6917 3051 5513 63335 709 67820 15992 491 34973 7249 5490 35063 9679 636 5538 3682 597 27468 21327 40023 1946 528 14387
leaf_count=4040 3831 5277 499 33633 75592 4125 22289 6917 3051 5513 63335 709 67820 15992 491 34973 7249 5490 35063 9679 636 5538 3682 597 27468 21327 40023 1946 528 14387
internal_value=0 -0.00499183 -0.00709991 -0.00799379 0.0124641 -0.00853695 -0.0114654 -0.00564044 -0.00641862 -0.00682956 -0.0179509 0.0178551 0.00713725 0.00956052 -0.0339051 0.0130288 -0.00920107 -0.0126063 -0.00907223 -0.00466334 0.00989943 -0.00878881 -0.0303686 0.065268 -0.00502413 -0.0107528 -0.0117941 0.0253052 -0.0202044 -0.0117723
internal_weight=0 372511 333498 316516 149189 310002 154150 155852 86690 148935 67460 6514 73597 16982 990 39013 115302 65871 54940 49431 10912 38519 10931 1233 32981 64401 61350 5777 1237 49450
internal_count=521700 372511 333498 316516 149189 310002 154150 155852 86690 148935 67460 6514 73597 16982 990 39013 115302 65871 54940 49431 10912 38519 10931 1233 32981 64401 61350 5777 1237 49450
is_linear=0
shrinkage=0.1


Tree=25
num_leaves=31
num_cat=0
split_feature=0 0 1 1 0 0 0 0 0 1 1 1 1 1 1 1 1 1 1 1 1 0 0 1 1 0 1 0 0 1
split_gain=2655.41 1047.17 387.647 397.398 304.636 292.172 417.883 192.378 182.275 214.066 349.675 203.395 181.687 486.601 472.644 401.914 173.093 167.495 248.05 162.289 160.02 888.291 219.973 188.36 156.628 638.052 313.934 232.496 149.82 191.461
threshold=-0.5548209999999999 -1.5121149999999999 2.7000000000000006 11.900000000000002 -1.4937699999999998 -0.6475209999999999 -0.76017099999999982 -0.38662099999999994 -1.04097 5.1000000000000005 5.3000000000000016 4.9000000000000012 9.1000000000000014 9.5000000000000018 7.1000000000000005 7.9000000000000012 10.300000000000002 6.6000000000000005 6.9000000000000012 9.1000000000000014 10.700000000000001 -1.2640149999999999 -1.2323649999999999 10.500000000000002 2.5000000000000004 -0.67417099999999985 2.2000000000000006 -0.72422099999999989 -0.70067099999999993 4.7000000000000002
decision_type=2 2 2 2 2 2 2 2 2 2 2 2 2 2 2 2 2 2 2 2 2 2 2 2 2 2 2 2 2 2
left_child=1 -1 24 5 -5 6 8 -2 16 11 -11 -10 14 -14 17 -16 19 -12 -19 -4 21 23 -22 -18 26 27 -3 -26 -8 -30
right_child=7 2 3 4 -6 -7 28 -9 9 10 12 -13 13 -15 15 -17 20 18 -20 -21 22 -23 -24 -25 25 -27 -28 -29 29 -31
leaf_value=0.016356654380116072 0.011817309040141992 0.01591993433973226 0.00095085854771490724 -0.077394820400038547 0.027364864274799946 0.00072682569983575126 -0.019003319647541053 0.022741581670750504 -0.0037528989403558493 -0.03702349272317914 -0.0072182955875867861 0.019431455342384413 0.01745363333289052 -0.0092823539922846782 -0.033162951804313924 -0.011553119782661006 0.02822545258672346 0.025162088159201224 -0.0079713539751438134 0.019688769032644382 -0.0070731526888534908 -0.038840798958819242 0.0097173307082192364 -0.0039888006131328082 0.010900564310565748 0.070035268628457464 -0.013360767669831656 -0.047231255014853327 -0.022221027220630671 -0.0045039482426291822
leaf_weight=24478 91055 7514 21021 294 4971 52585 34302 19588 46526 4491 26630 4119 8945 28486 13433 23954 3346 4503 4535 5925 22297 7137 12003 3967 5196 1876 7142 793 8414 22174
leaf_count=24478 91055 7514 21021 294 4971 52585 34302 19588 46526 4491 26630 4119 8945 28486 13433 23954 3346 4503 4535 5925 22297 7137 12003 3967 5196 1876 7142 793 8414 22174
internal_value=0 -0.0037014 -0.00497147 -0.00575907 0.021515 -0.0061593 -0.00734185 0.0137513 -0.00542621 -0.00728421 -0.00967025 -0.0018673 -0.00855841 -0.00289317 -0.0114611 -0.0193174 -0.00136093 -0.0032261 0.00853671 0.00507103 -0.00491612 -0.0137431 -0.00119746 0.0107506 0.00776035 0.0191445 0.00165119 0.00320336 -0.0144659 -0.00937748
internal_weight=0 411057 386579 364058 5265 358793 306208 110643 241318 165622 114977 50645 110486 37431 73055 37387 75696 35668 9038 26946 48750 14450 34300 7313 22521 7865 14656 5989 64890 30588
internal_count=521700 411057 386579 364058 5265 358793 306208 110643 241318 165622 114977 50645 110486 37431 73055 37387 75696 35668 9038 26946 48750 14450 34300 7313 22521 7865 14656 5989 64890 30588
is_linear=0
shrinkage=0.1


Tree=26
num_leaves=31
num_cat=0
split_feature=0 0 1 1 1 1 1 1 1 1 1 0 1 0 1 1 1 0 0 1 1 1 0 1 1 1 0 1 1 1
split_gain=2154.63 885.243 335.361 473.905 354.689 206.287 452.958 412.262 524.553 321.07 277.423 195.519 393.754 313.531 242.079 194.354 186.642 199.441 174.359 167.202 229.076 268.449 165.114 157.646 229.893 291.573 141.959 240.632 160.515 370.951
threshold=-0.57177099999999992 -1.4090149999999999 4.1000000000000005 4.3000000000000016 11.600000000000003 5.7000000000000002 7.4000000000000012 6.9000000000000012 6.6000000000000005 7.9000000000000012 8.5000000000000018 -0.65422099999999983 3.9000000000000004 -0.72752099999999986 2.2000000000000006 9.1000000000000014 3.9000000000000004 -0.67082099999999989 -0.63432099999999991 3.1000000000000005 2.5000000000000004 2.7000000000000006 -1.3283149999999997 9.5000000000000018 9.9000000000000021 9.7000000000000011 -1.0116699999999998 10.300000000000002 8.9000000000000021 6.9000000000000012
decision_type=2 2 2 2 2 2 2 2 2 2 2 2 2 2 2 2 2 2 2 2 2 2 2 2 2 2 2 2 2 2
left_child=1 -1 11 18 26 -2 7 8 -7 -8 -11 13 19 14 -3 -12 -15 -18 -4 20 -13 -22 -6 -17 25 -25 27 -5 29 -28
right_child=5 2 3 4 22 6 9 -9 -10 10 15 12 -14 16 -16 23 17 -19 -20 -21 21 -23 -24 24 -26 -27 28 -29 -30 -31
leaf_value=0.011229936067460457 0.015741822647333131 0.023749889444885156 -0.035967239819347394 0.0030083731647496045 0.036188036171428663 -0.008159330682650151 0.038388976564921733 -0.035446439968807204 0.035324896827913406 -0.0032071329150323799 0.028144247267192501 -0.005932572830013241 0.0644330671773507 -0.020206437669773477 -0.0001073559566413411 -0.0039040034463378422 0.00065668016063722692 0.10270406145127223 0.0086070310793432015 -0.0070991676471248129 0.069856727167394883 0.014005874948577657 0.0047632064654755876 0.0092459555962771979 -0.0036944569914047413 0.050352844147811986 -0.0052560384963402911 -0.008455858568554157 -0.0033393770184381049 -0.01548288669441774
leaf_weight=36881 61675 4729 7066 37078 2588 11948 4598 3640 3613 10644 8694 2600 1300 10512 42274 5632 904 243 1002 5127 1283 2614 4724 3914 3612 3086 84284 36169 58029 61237
leaf_count=36881 61675 4729 7066 37078 2588 11948 4598 3640 3613 10644 8694 2600 1300 10512 42274 5632 904 243 1002 5127 1283 2614 4724 3914 3612 3086 84284 36169 58029 61237
internal_value=0 -0.00353256 -0.0050293 -0.00653223 -0.00585355 0.0116913 0.00748428 -0.00514993 0.00193697 0.0135218 0.0103084 0.00110488 0.0122391 -0.00134814 0.00229294 0.0160771 -0.016027 0.0222761 -0.0304314 0.00640188 0.017056 0.0323935 0.0158857 0.00961868 0.0167954 0.0273682 -0.00642782 -0.00265261 -0.00778632 -0.00955962
internal_weight=0 400644 363763 292177 284109 121056 59381 19201 15561 40180 35582 71586 12924 58662 47003 24938 11659 1147 8068 11624 6497 3897 7312 16244 10612 7000 276797 73247 203550 145521
internal_count=521700 400644 363763 292177 284109 121056 59381 19201 15561 40180 35582 71586 12924 58662 47003 24938 11659 1147 8068 11624 6497 3897 7312 16244 10612 7000 276797 73247 203550 145521
is_linear=0
shrinkage=0.1


Tree=27
num_leaves=31
num_cat=0
split_feature=0 1 0 1 0 1 1 1 1 1 0 0 1 0 0 1 1 1 1 1 1 1 1 1 1 0 1 1 1 1
split_gain=1778.73 800.153 263.302 256.566 251.289 164.412 245.682 272.752 219.173 302.302 293.491 201.003 148.669 147.468 192.728 162.401 1201.89 210.753 381.406 419 271.808 260.859 178.468 144.319 223.421 190.753 137.88 271.287 335.768 260.52
threshold=-0.61777099999999996 11.300000000000002 -0.93262099999999981 3.3000000000000003 -0.46797099999999997 4.1000000000000005 4.5000000000000009 4.7000000000000002 3.7000000000000006 3.5000000000000004 -0.6576209999999999 -0.72752099999999986 3.9000000000000004 -0.6939209999999999 -0.75702099999999983 9.9000000000000021 9.7000000000000011 7.7000000000000002 8.7000000000000011 9.1000000000000014 7.4000000000000012 8.9000000000000021 8.1000000000000014 5.5000000000000009 4.9000000000000012 -0.74712099999999981 6.3000000000000016 7.7000000000000002 7.9000000000000012 7.1000000000000005
decision_type=2 2 2 2 2 2 2 2 2 2 2 2 2 2 2 2 2 2 2 2 2 2 2 2 2 2 2 2 2 2
left_child=1 2 3 -1 -2 8 11 -8 9 -4 -10 -7 -12 14 -9 16 17 20 22 21 -15 -20 -19 24 25 -16 -25 29 -29 -28
right_child=4 -3 5 -5 -6 6 7 13 10 -11 12 -13 -14 15 23 -17 -18 18 19 -21 -22 -23 -24 26 -26 -27 27 28 -30 -31
leaf_value=0.015479385138349212 0.0058838211450246546 0.011049003374714501 -0.0025242167977786549 -0.0028709612450162412 0.014265378446200353 -0.013937950926169005 0.014803619050209098 -0.0082083037314428769 0.0043040264902850719 -0.028600418657698769 0.022769362815130801 -0.043723782095407421 0.092251945839854743 -0.0011822826333946399 -0.1401075583405611 -0.027638958739393583 0.096942611492521036 -0.011586059222017806 0.0026547686176648677 -0.018464214053396068 0.048519246911301335 0.068500290322293753 -0.046606643295413357 -0.037925779468294216 0.01269730324243443 -0.022424385313852643 -0.016342698324424448 -0.080195226869842332 -0.020474021431691886 0.030277798988052097
leaf_weight=8092 89687 33497 35321 130407 59502 6531 5036 77206 8763 5086 636 3469 597 14602 164 2452 1205 2416 1218 3685 1190 1189 3659 4075 3057 860 3005 1021 12078 1994
leaf_count=8092 89687 33497 35321 130407 59502 6531 5036 77206 8763 5086 636 3469 597 14602 164 2452 1205 2416 1218 3685 1190 1189 3659 4075 3057 860 3005 1021 12078 1994
internal_value=0 -0.00369525 -0.00515209 -0.00179882 0.00922669 -0.00746824 -0.0091275 -0.00804671 -0.00252659 -0.00580641 0.0107315 -0.0242707 0.0564118 -0.00889863 -0.0107252 -0.00292151 -0.000843363 -0.00505782 -0.0149491 0.00273141 0.00256296 0.0351809 -0.0326791 -0.0181266 -0.000844635 -0.0412721 -0.0213074 -0.0175655 -0.025129 0.00225328
internal_weight=0 372511 339014 138499 149189 200515 150112 140112 50403 40407 9996 10000 1233 135076 103460 31616 29164 27959 12167 6092 15792 2407 6075 26254 4081 1024 22173 18098 13099 4999
internal_count=521700 372511 339014 138499 149189 200515 150112 140112 50403 40407 9996 10000 1233 135076 103460 31616 29164 27959 12167 6092 15792 2407 6075 26254 4081 1024 22173 18098 13099 4999
is_linear=0
shrinkage=0.1


Tree=28
num_leaves=31
num_cat=0
split_feature=0 0 1 1 0 0 0 1 1 1 1 1 1 1 1 1 1 1 1 1 1 1 1 1 1 1 1 1 1 0
split_gain=1454.35 639.104 240.523 238.347 244.951 171.424 253.357 139.016 327.6 410.902 360.06 183.799 203.12 128.389 126.571 594.957 258.846 312.722 256.716 248.402 820.872 138.99 459.208 259.423 284.325 401.28 259.129 339.361 199.779 126.079
threshold=-0.55152099999999982 -1.5121149999999999 2.7000000000000006 11.900000000000002 -1.4937699999999998 -0.6475209999999999 -0.76372099999999987 5.7000000000000002 7.1000000000000005 6.9000000000000012 6.6000000000000005 7.9000000000000012 8.5000000000000018 9.1000000000000014 8.5000000000000018 8.3000000000000025 9.1000000000000014 8.9000000000000021 8.7000000000000011 9.7000000000000011 9.9000000000000021 7.9000000000000012 7.4000000000000012 5.7000000000000002 6.6000000000000005 6.9000000000000012 5.1000000000000005 4.9000000000000012 5.5000000000000009 -0.62792099999999984
decision_type=2 2 2 2 2 2 2 2 2 2 2 2 2 2 2 2 2 2 2 2 2 2 2 2 2 2 2 2 2 2
left_child=1 -1 -3 5 -5 6 -4 -2 9 10 -9 -10 -13 -14 15 21 17 18 -16 -18 -21 22 23 26 -25 -26 27 -7 -28 -23
right_child=7 2 3 4 -6 14 -8 8 11 -11 -12 12 13 -15 16 -17 19 -19 -20 20 -22 29 -24 24 25 -27 28 -29 -30 -31
leaf_value=0.012965320385682898 0.013765676896645405 0.0062993755713299654 -0.0040202884490705484 -0.071883233585933445 0.0220552814050297 0.0033823184431814091 -0.010980987141726437 -0.0072253704237107801 0.031066252996671779 -0.041798576775758677 0.03069594366082487 -0.0027914770263840361 0.024978423941082108 0.0089764604475164652 0.038905474403668587 -0.063820341598269645 -0.017168435351856668 0.06586061915493778 -0.018976511043245468 0.076353863763586244 -0.014273501625523084 -0.061134286054176069 0.039553095721019338 -0.02837817865185735 0.046974951504985041 -0.016097631900085212 0.040961125140892306 -0.045689410728382493 -0.0032736132009380083 -0.010219288667946897
leaf_weight=24478 55996 22678 239295 294 4971 16488 66913 10623 4409 2572 3276 9688 7718 14311 1537 1511 4612 1493 1528 1497 3007 609 2965 6145 1499 3084 2999 1541 1548 2415
leaf_count=24478 55996 22678 239295 294 4971 16488 66913 10623 4409 2572 3276 9688 7718 14311 1537 1511 4612 1493 1528 1497 3007 609 2965 6145 1499 3084 2999 1541 1548 2415
internal_value=0 -0.00270703 -0.00369417 -0.00431347 0.0168097 -0.0046218 -0.00554135 0.010298 0.0066063 -0.00508173 0.0017127 0.0119353 0.00927584 0.0145828 0.000546746 -0.00224356 0.00887319 0.0283307 0.0100495 -0.000855585 0.0158484 0.000124352 0.0018417 -0.00151569 -0.0143189 0.00453204 0.00456835 -0.000812009 0.0259017 -0.020473
internal_weight=0 413107 388629 365951 5265 360686 306208 108593 52597 16471 13899 36126 31717 22029 54478 40804 13674 4558 3065 9116 4504 39293 36269 33304 10728 4583 22576 18029 4547 3024
internal_count=521700 413107 388629 365951 5265 360686 306208 108593 52597 16471 13899 36126 31717 22029 54478 40804 13674 4558 3065 9116 4504 39293 36269 33304 10728 4583 22576 18029 4547 3024
is_linear=0
shrinkage=0.1


Tree=29
num_leaves=31
num_cat=0
split_feature=0 0 1 1 1 1 1 1 1 1 1 1 1 1 1 1 1 1 0 0 0 0 0 1 1 1 1 1 1 1
split_gain=1178.73 574.416 218.44 193.525 191.816 175.244 294.315 208.756 506.739 363.998 194.715 461.732 348.562 349.886 327.669 325.476 174.739 290.716 151.296 148.759 138.881 134.864 156.606 169.46 465.639 255.369 253.696 353.892 259.293 212.195
threshold=-0.61777099999999996 -1.4090149999999999 11.900000000000002 4.1000000000000005 2.2000000000000006 8.5000000000000018 8.3000000000000025 9.9000000000000021 9.7000000000000011 9.1000000000000014 7.4000000000000012 6.9000000000000012 6.6000000000000005 5.7000000000000002 5.1000000000000005 7.9000000000000012 8.9000000000000021 8.7000000000000011 -0.68722099999999986 -0.51777099999999987 -0.47542099999999993 -0.82217099999999987 -0.67082099999999989 3.1000000000000005 2.5000000000000004 3.5000000000000004 4.1000000000000005 3.9000000000000004 4.7000000000000002 2.7000000000000006
decision_type=2 2 2 2 2 2 2 2 2 2 2 2 2 2 2 2 2 2 2 2 2 2 2 2 2 2 2 2 2 2
left_child=1 -1 4 -2 18 6 10 8 9 16 11 12 13 14 -5 -12 17 -7 -3 -8 -11 -6 -23 24 -24 -25 27 -27 -28 -26
right_child=3 2 -4 5 21 7 19 -9 -10 20 15 -13 -14 -15 -16 -17 -18 -19 -20 -21 -22 22 23 25 29 26 28 -29 -30 -31
leaf_value=0.0088379031299037226 0.012859239703518236 0.01939906091062292 0.020006894983848753 5.1532082580052185e-07 -0.0033124750333417673 0.026617828279221024 -0.047008452004137134 -0.0073576173721106516 0.048501444503649405 -0.012626860695100698 0.032077626276876353 -0.027315925996110102 0.031451554599192549 -0.010789849857517188 0.02246123348165284 0.001381528623528126 0.038942729061779417 -0.017620934338098575 -0.020834981690567356 -0.0092826680206893625 0.0093283648450260114 -0.009583098031962882 -0.043705314648610695 -0.041331219485071541 0.083033624457792166 0.0032878885359685969 -0.035199329014162652 0.084484357981541761 -0.0012119662331775301 0.021176263888522062
leaf_weight=36881 46548 5383 3654 17830 200689 4709 1565 5037 3828 6619 6022 5110 4306 14876 10217 8101 4002 2170 1131 3147 5102 92700 863 1720 824 1707 2500 783 21980 1696
leaf_count=36881 46548 5383 3654 17830 200689 4709 1565 5037 3828 6619 6022 5110 4306 14876 10217 8101 4002 2170 1131 3147 5102 92700 863 1720 824 1707 2500 783 21980 1696
internal_value=0 -0.00300813 -0.00430984 0.00751101 -0.00457749 0.00508557 0.00233813 0.0112999 0.0148556 0.00915719 0.00405036 0.00123869 0.00432819 0.0016072 0.00818254 0.0144702 0.0223283 0.0126626 0.0124134 -0.0218126 -0.00307003 -0.00491755 -0.00749922 -0.00147621 0.0196917 -0.00397223 -0.00158968 0.0288208 -0.0046829 0.0414026
internal_weight=0 372511 335630 149189 331976 102641 71174 31467 26430 22602 66462 52339 47229 42923 28047 14123 10881 6879 6514 4712 11721 325462 124773 32073 3383 28690 26970 2490 24480 2520
internal_count=521700 372511 335630 149189 331976 102641 71174 31467 26430 22602 66462 52339 47229 42923 28047 14123 10881 6879 6514 4712 11721 325462 124773 32073 3383 28690 26970 2490 24480 2520
is_linear=0
shrinkage=0.1


Tree=30
num_leaves=31
num_cat=0
split_feature=0 0 1 1 1 0 1 1 1 1 0 1 1 1 1 0 0 1 0 1 1 0 1 1 1 0 0 1 1 1
split_gain=973.546 435.902 196.329 337.851 267.788 302.438 265.242 199.557 546.052 199.128 162.016 160.325 156.473 422.642 138.32 194.576 122.2 231.283 229.68 137.1 130.781 125.015 117.224 126.055 193.222 116.615 117.615 137.713 346.869 184.618
threshold=-0.54502099999999987 -1.5121149999999999 4.1000000000000005 4.5000000000000009 5.1000000000000005 -0.97092099999999992 8.9000000000000021 6.9000000000000012 6.6000000000000005 9.3000000000000025 -0.66092099999999987 4.9000000000000012 4.9000000000000012 4.7000000000000002 11.900000000000002 -1.4937699999999998 -0.65422099999999983 3.9000000000000004 -0.72422099999999989 2.2000000000000006 3.9000000000000004 -0.67082099999999989 3.1000000000000005 2.5000000000000004 2.7000000000000006 -1.1342149999999998 -0.63762099999999988 7.9000000000000012 7.4000000000000012 8.5000000000000018
decision_type=2 2 2 2 2 2 2 2 2 2 2 2 2 2 2 2 2 2 2 2 2 2 2 2 2 2 2 2 2 2
left_child=1 -1 16 -4 5 -5 7 8 -6 -8 12 -12 13 -7 -11 -16 18 22 19 -3 -20 -22 23 -18 -25 -9 -27 28 -28 -29
right_child=-2 2 3 4 6 10 9 25 -10 14 11 -13 -14 -15 15 -17 17 -19 20 -21 21 -23 -24 24 -26 26 27 29 -30 -31
leaf_value=0.010784998230426905 0.0086305350479705528 0.01852751011186737 -0.01703252430114769 0.030632026234309502 -0.0063477937798791769 0.020562505979965902 0.0093144616429122456 0.0092787586782247244 0.021353010895658643 -0.003143638081948846 -0.00087270409042459411 -0.036864885687490988 0.021670932761413901 -0.02061238137964333 -0.065578699461659604 0.018144971347644156 -0.0018357373158496917 0.043793896791653908 -0.01706642339719678 0.0006681550688374476 0.0012863859140662454 0.08258993786303595 -0.0046341834354540036 0.050275259375433104 0.0091116089824924071 -0.013092965299570032 -0.015171653209932568 -0.024818430505706621 0.033628594063601185 0.0075834426402518187
leaf_weight=24478 104517 4779 18887 4357 61174 4957 16918 2869 8053 104081 3679 1865 4905 5015 294 4971 3452 1722 10046 42741 853 243 6820 1714 3407 61757 2966 4380 2862 2938
leaf_count=24478 104517 4779 18887 4357 61174 4957 16918 2869 8053 104081 3679 1865 4905 5015 294 4971 3452 1722 10046 42741 853 243 6820 1714 3407 61757 2966 4380 2862 2938
internal_value=0 -0.00216221 -0.00296923 -0.00406255 -0.00324064 0.00671375 -0.00414325 -0.00703069 -0.00312543 -0.000781635 0.00161057 -0.0129805 0.00704801 -0.00014468 -0.0023437 0.0134698 0.00160344 0.00903804 -0.000565648 0.00246424 -0.0134879 0.0193126 0.00514994 0.0129334 0.0228891 -0.0105069 -0.0112647 -0.002676 0.00879305 -0.0118099
internal_weight=0 417183 392705 316928 298041 24778 273263 146999 69227 126264 20421 5544 14877 9972 109346 5265 75777 17115 58662 47520 11142 1096 15393 8573 5121 77772 74903 13146 5828 7318
internal_count=521700 417183 392705 316928 298041 24778 273263 146999 69227 126264 20421 5544 14877 9972 109346 5265 75777 17115 58662 47520 11142 1096 15393 8573 5121 77772 74903 13146 5828 7318
is_linear=0
shrinkage=0.1


Tree=31
num_leaves=31
num_cat=0
split_feature=0 0 1 1 0 0 0 1 1 0 1 1 1 1 1 1 1 1 1 1 1 1 1 1 1 0 1 1 1 1
split_gain=796.715 412.514 197.794 303.414 162.746 156.824 122.043 143.977 221.55 176.902 119.002 324.8 271.744 230.958 182.508 460.817 177.422 150.407 194.497 551.592 160.211 219.803 142.311 214.379 117.986 320.977 236.941 161.296 145.182 201.801
threshold=-0.61777099999999996 -1.0673149999999998 4.1000000000000005 4.3000000000000016 -1.7315149999999997 -0.38662099999999994 -0.95777099999999982 3.7000000000000006 3.5000000000000004 -0.6576209999999999 5.7000000000000002 7.4000000000000012 7.9000000000000012 8.5000000000000018 6.9000000000000012 6.6000000000000005 8.3000000000000025 9.1000000000000014 9.7000000000000011 9.9000000000000021 8.9000000000000021 8.7000000000000011 5.1000000000000005 4.9000000000000012 5.1000000000000005 -0.66422099999999984 4.5000000000000009 4.9000000000000012 8.9000000000000021 10.100000000000001
decision_type=2 2 2 2 2 2 2 2 2 2 2 2 2 2 2 2 2 2 2 2 2 2 2 2 2 2 2 2 2 2
left_child=1 4 6 -4 -1 10 -3 8 -8 -9 22 14 -13 16 15 -12 -14 20 -19 -20 21 -15 23 -2 25 27 -27 -5 -26 -30
right_child=5 2 3 24 -6 -7 7 9 -10 -11 11 12 13 17 -16 -17 -18 18 19 -21 -22 -23 -24 -25 28 26 -28 -29 29 -31
leaf_value=0.018955770286987791 0.0078414399100728074 0.010585912207637285 -0.026104911846520414 0.00023205079839697248 0.0021259685702314291 0.014514702446087269 -0.0012871920883356872 0.0043102168968543247 -0.02276749427432806 0.044552309792156471 -0.011263457781649822 0.027049398937942754 0.00043907985370323038 0.023545508365540691 -0.024360684264652523 0.028359369447044838 -0.026982565866141606 -0.0055118270548620042 0.043857393770847686 -0.0069545220396240856 0.035140988640356412 -0.016665679265654858 0.019555279236206143 -0.017275419093010367 -0.0081981658316848238 -0.080795185603517991 -0.014282923907945303 0.019519369758988353 0.0016915679894896546 -0.01053409961883124
leaf_weight=6143 48546 10003 7174 18588 88866 19588 38151 9578 5493 1233 13899 5844 7128 3639 5110 3721 3527 10686 3710 5037 3703 2170 9227 3654 116588 706 2219 5655 42278 19836
leaf_count=6143 48546 10003 7174 18588 88866 19588 38151 9578 5493 1233 13899 5844 7128 3639 5110 3721 3527 10686 3710 5037 3703 2170 9227 3654 116588 706 2219 5655 42278 19836
internal_value=0 -0.00247309 -0.00442024 -0.00588875 0.00321413 0.00617507 0.000433424 -0.00143152 -0.00399069 0.00889985 0.00491462 0.00203826 0.00691984 0.00394921 -0.00772146 -0.00289589 -0.00863799 0.0085827 0.00353942 0.0145971 0.0188861 0.00852429 0.0081069 0.00608326 -0.00518427 0.000955543 -0.0303368 0.00473107 -0.0061177 -0.00221268
internal_weight=0 372511 277502 213044 95009 149189 64458 54455 43644 10811 129601 68174 45444 39600 22730 17620 10655 28945 19433 8747 9512 5809 61427 52200 205870 27168 2925 24243 178702 62114
internal_count=521700 372511 277502 213044 95009 149189 64458 54455 43644 10811 129601 68174 45444 39600 22730 17620 10655 28945 19433 8747 9512 5809 61427 52200 205870 27168 2925 24243 178702 62114
is_linear=0
shrinkage=0.1


Tree=32
num_leaves=31
num_cat=0
split_feature=0 1 1 1 1 0 1 1 0 1 1 0 1 1 1 0 1 1 0 0 0 1 1 0 1 0 1 1 0 1
split_gain=652.982 306.382 140.737 227.872 197.526 245.427 144.151 171.871 248.383 956.641 799.053 542.047 194.568 255.607 160.615 185.524 389.909 156.552 368.515 289.037 239.171 263.817 210.908 170.225 152.738 280.424 146.401 148.859 140.853 130.127
threshold=-0.54502099999999987 11.300000000000002 4.1000000000000005 4.5000000000000009 5.1000000000000005 -0.98657099999999986 8.9000000000000021 9.9000000000000021 -0.6939209999999999 9.7000000000000011 9.1000000000000014 -0.73082099999999983 9.7000000000000011 9.1000000000000014 8.3000000000000025 -0.71432099999999987 5.3000000000000016 10.700000000000001 -1.2640149999999999 -1.2479649999999998 -1.4247599999999998 11.100000000000001 11.100000000000001 -1.4754699999999998 10.100000000000001 -0.71072099999999983 6.3000000000000016 5.7000000000000002 -0.66092099999999987 10.500000000000002
decision_type=2 2 2 2 2 2 2 2 2 2 2 2 2 2 2 2 2 2 2 2 2 2 2 2 2 2 2 2 2 2
left_child=1 2 -1 -4 5 -5 14 8 11 10 -10 12 13 -8 15 -6 -17 18 29 20 21 -19 -21 -23 25 -20 27 -18 -27 -9
right_child=-2 -3 3 4 6 -7 7 17 9 -11 -12 -13 -14 -15 -16 16 26 19 24 22 -22 23 -24 -25 -26 28 -28 -29 -30 -31
leaf_value=0.0012890995090573485 0.0070682209574950616 0.0074009647232820726 -0.014163516563799081 0.029865686047005909 -0.0068408230293336668 0.0016103270801526089 -0.010862833636602705 0.026392521821430037 0.052756282154323181 0.073114326680298602 -0.01447823433882333 -0.041726616742416928 -0.01297333763833667 0.014246864798480542 -0.013340773232623504 0.038438605945990495 0.0035024954869583604 0.016656523127828803 0.01112387393463614 0.0059620274143034682 -0.01908415783770908 -0.0058577501425512869 0.036324821413071029 -0.055363216516510508 -0.016493723049746428 -0.062492684933441192 0.0039155009029698132 -0.017884172163215795 -0.012660107317660632 0.00048309708655628713
leaf_weight=75777 104517 33497 18887 3596 86102 21182 5405 3346 2349 2376 7142 2911 5580 16220 23239 2666 5412 6402 5906 10374 8509 4635 2935 817 25062 818 21416 8164 1850 4608
leaf_count=75777 104517 33497 18887 3596 86102 21182 5405 3346 2349 2376 7142 2911 5580 16220 23239 2666 5412 6402 5906 10374 8509 4635 2935 817 25062 818 21416 8164 1850 4608
