tree
version=v3
num_class=1
num_tree_per_iteration=1
label_index=0
max_feature_idx=1
objective=regression
feature_names=Column_0 Column_1
feature_infos=[-1.88123:-0.30150500000000002] [2:12]
tree_sizes=2927 3006 3000 3021 3003 3026 3034 3011 3037 3024 3047 3013 3023 3040 3039 3029 3017 3031 3020 3036 3034 3014 3017 3035 3051 3018 3031 3065 3040 3059 3035 3049 3050 3022 3015 3040 3039 3041 3029 3033 3019 3078 3023 3038 3018 3022 3038 3038 3019 2975 2980 3035 3042 2977 2997 3023 3037 3013 2987 2998 2983 2996 3027 3014 2998 3024 3004 2977 2999 3004 3007 3005 2996 2980 3017 2976 3004 2976 2992 2960 3009 2968 3013 3032 3028 2946 2972 2992 3011 2998 3004 3006 2991 2980 2976 3007 3020 2975 2992 2953

Tree=0
num_leaves=31
num_cat=0
split_feature=0 1 1 0 0 0 0 0 1 1 1 0 0 1 1 1 1 1 0 0 0 1 0 1 1 1 1 0 1 1
split_gain=303867 172255 58006.2 29879.9 15245.8 16297 14777.5 11145.2 8024.91 4784.47 4280.79 3424.06 2972.95 2660.97 5871.4 2466.67 4576.83 1782.78 1521.57 1990.99 1468.3 1426.06 1373.51 1520.93 1371.45 1320.89 1211.29 1102.46 1393 1078.89
threshold=-0.59581149999999983 10.900000000000002 4.1000000000000005 -1.5281649999999998 -1.3392149999999998 -0.64142099999999991 -0.51000649999999992 -0.87180649999999982 11.500000000000002 4.5000000000000009 2.9000000000000004 -1.4364149999999998 -0.6697209999999999 6.7000000000000002 5.7000000000000002 5.5000000000000009 6.7000000000000002 5.3000000000000016 -0.62730649999999988 -0.85847099999999987 -1.6478149999999998 4.5000000000000009 -0.67321149999999996 3.9000000000000004 6.7000000000000002 8.4000000000000004 3.4000000000000008 -0.81362099999999982 5.1000000000000005 5.7000000000000002
decision_type=2 2 2 2 2 2 2 2 2 2 2 2 2 2 2 2 2 2 2 2 2 2 2 2 2 2 2 2 2 2
left_child=1 2 10 20 -4 7 9 17 11 -2 18 -5 27 14 -11 -8 -17 -6 19 -1 -3 -7 -12 26 29 -26 -24 -9 -29 -23
right_child=6 3 4 8 5 21 15 12 -10 13 22 -13 -14 -15 -16 16 -18 -19 -20 -21 -22 24 23 -25 25 -27 -28 28 -30 -31
leaf_value=-4.4100409800563254 -4.3126404954117161 -4.2569562027665082 -4.4364939995118782 -4.3709031963348588 -4.5281057528587434 -4.37607076123233 -4.2652509683818893 -4.5929091690135229 -4.3599184429152293 -4.3584324502967196 -4.491156463305046 -4.4688542274740097 -4.5528315530651184 -4.347692402161603 -4.4921513966292581 -4.3645221264219867 -4.2735890297897576 -4.5614343796954797 -4.3579930714216717 -4.4597343044672169 -4.3037771318218327 -4.4781377886671425 -4.4143007436531434 -4.3387474368805901 -4.3836203400485534 -4.478438165598428 -4.5130965675174668 -4.589818256568206 -4.6296092867209957 -4.5564325428976655
leaf_weight=14137 16404 15934 9147 4407 20322 1464 43406 20973 17104 8204 28744 18764 9626 12183 5475 8447 16056 76341 2536 18764 11555 4374 2482 1212 2205 4403 2482 11485 37604 2945
leaf_count=14137 16404 15934 9147 4407 20322 1464 43406 20973 17104 8204 28744 18764 9626 12183 5475 8447 16056 76341 2536 18764 11555 4374 2482 1212 2205 4403 2482 11485 37604 2945
internal_value=-4.45274 -4.49963 -4.53526 -4.35701 -4.56262 -4.56864 -4.30846 -4.57725 -4.41187 -4.35489 -4.45711 -4.45022 -4.60494 -4.38168 -4.41195 -4.27957 -4.30494 -4.55443 -4.43263 -4.43838 -4.27664 -4.46996 -4.48196 -4.43918 -4.47982 -4.4468 -4.4637 -4.6121 -4.6203 -4.50964
internal_weight=0 339010 271246 67764 200889 191742 110175 176351 40275 42266 70357 23171 79688 25862 13679 67909 24503 96663 35437 32901 27489 15391 34920 6176 13927 6608 4964 70062 49089 7319
internal_count=449185 339010 271246 67764 200889 191742 110175 176351 40275 42266 70357 23171 79688 25862 13679 67909 24503 96663 35437 32901 27489 15391 34920 6176 13927 6608 4964 70062 49089 7319
is_linear=0
shrinkage=1


Tree=1
num_leaves=31
num_cat=0
split_feature=0 1 1 0 0 0 0 0 1 1 1 0 0 1 1 1 1 1 0 0 0 1 0 0 1 1 1 1 1 1
split_gain=246228 138377 47313.1 24202.7 13328.2 13960.5 11177.4 8611.12 6500.18 4077.72 3505.12 2872.16 2790.04 2345.42 5308.04 1517.71 2933.59 1510.59 1453.6 1620.23 1263.51 1240.59 1211.19 1207.54 1453.46 1126.64 1118.75 1110.83 1074.56 1057.68
threshold=-0.59221149999999989 10.900000000000002 4.1000000000000005 -1.5281649999999998 -0.63792099999999985 -1.3272149999999998 -0.49522099999999997 -0.8814114999999999 11.500000000000002 4.5000000000000009 2.9000000000000004 -0.67321149999999996 -1.4248149999999997 6.7000000000000002 5.7000000000000002 5.5000000000000009 6.7000000000000002 5.3000000000000016 -0.62730649999999988 -0.86837099999999989 -0.66621149999999985 3.9000000000000004 -1.6296649999999999 -0.78271149999999989 5.1000000000000005 3.4000000000000008 4.5000000000000009 6.7000000000000002 4.5000000000000009 8.4000000000000004
decision_type=2 2 2 2 2 2 2 2 2 2 2 2 2 2 2 2 2 2 2 2 2 2 2 2 2 2 2 2 2 2
left_child=1 2 10 22 5 -4 9 17 12 -2 18 23 -5 14 -11 -8 -17 -7 19 -1 -12 25 -3 -9 -25 -22 -6 -28 -13 -29
right_child=6 3 4 8 26 7 15 11 -10 13 20 28 -14 -15 -16 16 -18 -19 -20 -21 21 -23 -24 24 -26 -27 27 29 -30 -31
leaf_value=0.039776787229432509 0.13157329995091446 0.17410815962898965 0.011131963243635953 0.068753758110387642 0.074187357851436667 -0.066036020715583246 0.17133844318888433 -0.12930721059272102 0.083538798992436575 0.092784731232810141 -0.034120710042254566 0.0025735318969900682 -0.015846130086035137 0.10198486350278635 -0.026719319049037057 0.086668148522981089 0.16475126412338331 -0.097434223144509682 0.087645455555751151 -0.00541580795493787 0.042741649154944321 0.10945467165862062 0.13027732085397786 -0.11948183812477729 -0.16610634566039134 -0.054806113884375035 -0.044376066463772734 0.068689745334824179 -0.099342014521262567 -0.01610224323969579
leaf_weight=13350 18548 17695 9722 4960 1470 19393 39368 35524 17104 9289 29311 1144 18211 13508 6196 7278 14198 73007 2827 19551 2367 1157 9794 8751 28336 2369 7322 2206 10813 4416
leaf_count=13350 18548 17695 9722 4960 1470 19393 39368 35524 17104 9289 29311 1144 18211 13508 6196 7278 14198 73007 2827 19551 2367 1157 9794 8751 28336 2369 7322 2206 10813 4416
internal_value=0 -0.0417533 -0.073498 0.086153 -0.0981592 -0.105538 0.131287 -0.111948 0.0367795 0.0949571 -0.00323169 -0.135005 0.00226338 0.0715323 0.0449677 0.159673 0.13829 -0.0908443 0.0188342 0.0129217 -0.025626 0.0166253 0.158492 -0.142484 -0.155105 -0.00605283 -0.00878708 -0.0175344 -0.0895911 0.0121447
internal_weight=0 340800 273036 67764 202104 186690 108385 176968 40275 47541 70932 84568 23171 28993 15485 60844 21476 92400 35728 32901 35204 5893 27489 72611 37087 4736 15414 13944 11957 6622
internal_count=449185 340800 273036 67764 202104 186690 108385 176968 40275 47541 70932 84568 23171 28993 15485 60844 21476 92400 35728 32901 35204 5893 27489 72611 37087 4736 15414 13944 11957 6622
is_linear=0
shrinkage=0.1


Tree=2
num_leaves=31
num_cat=0
split_feature=0 1 1 0 0 0 0 0 1 1 1 0 1 1 1 0 1 1 0 1 0 1 0 1 1 1 0 0 0 1
split_gain=199772 114009 37798.6 19636.9 11014.9 10310.8 9274.19 8081.15 5770.86 2989.36 2784.14 2115.69 1694.31 1595.24 3494.8 1306.28 1295.78 3196.16 1213.8 1204.31 1175.51 1091.74 1039.6 1032.61 1031.25 995.742 934.876 1229.21 902.6 1172.94
threshold=-0.59922099999999989 10.900000000000002 4.1000000000000005 -1.5141599999999997 -0.52472099999999988 -1.35137 -0.64832099999999981 -0.86837099999999989 11.700000000000001 4.5000000000000009 2.9000000000000004 -0.44982099999999997 11.300000000000002 6.7000000000000002 5.7000000000000002 -1.6110149999999999 5.7000000000000002 6.7000000000000002 -0.68007099999999987 7.0500000000000007 -1.4125149999999997 4.5000000000000009 -0.98557099999999986 6.7000000000000002 8.4000000000000004 8.4000000000000004 -0.89742099999999991 -0.63082099999999997 -0.77581149999999988 5.1000000000000005
decision_type=2 2 2 2 2 2 2 2 2 2 2 2 2 2 2 2 2 2 2 2 2 2 2 2 2 2 2 2 2 2
left_child=1 2 10 15 9 -4 7 19 12 -2 26 16 20 14 -11 -3 -6 -18 28 22 -5 -8 -7 -23 -25 -15 -1 -28 -9 -30
right_child=4 3 5 8 11 6 21 18 -10 13 -12 -13 -14 25 -16 -17 17 -19 -20 -21 -22 23 -24 24 -26 -27 27 -29 29 -31
leaf_value=0.039775291724744533 0.10694670767289183 0.15479960024524916 0.017677483911519704 0.038542311034123054 0.13512406402632399 -0.053622344632439638 0.056214976789261052 -0.11929462552521895 0.092709157521195615 0.067555469876249802 -0.024336704301134608 0.15357595873841107 0.034748287748275659 0.11944398857738303 -0.0430060604772474 0.10931280285197829 0.024993733082556244 0.12907126553105322 -0.094635889053591812 -0.092495709606046209 -0.028934868304436853 -0.056329542743342745 -0.084217230250356753 0.04991825004422655 -0.030690009118889496 0.054910725068004741 -0.0031179171444843494 0.070485188952538594 -0.10852653993000183 -0.15340825842058881
leaf_weight=10999 14266 19505 8559 3265 21578 20385 1571 33020 10959 7143 34642 39849 12363 3587 4767 9335 4346 9190 10736 53733 12337 7892 24400 2379 4768 7171 21624 2535 7623 24658
leaf_count=10999 14266 19505 8559 3265 21578 20385 1571 33020 10959 7143 34642 39849 12363 3587 4767 9335 4346 9190 10736 53733 12337 7892 24400 2379 4768 7171 21624 2535 7623 24658
internal_value=0 -0.0384117 -0.0675638 0.0775377 0.115783 -0.0897025 -0.0945102 -0.101305 0.0312009 0.0710849 -0.0042167 0.137806 0.00709688 0.0485155 0.023303 0.140076 0.119909 0.0956551 -0.125796 -0.0824018 -0.0148141 -0.0231074 -0.0702912 -0.0313935 -0.00385818 0.0764278 0.015608 0.00460524 -0.130919 -0.14281
internal_weight=0 337288 269524 67764 111897 199724 191165 174555 38924 36934 69800 74963 27965 22668 11910 28840 35114 13536 76037 98518 15602 16610 44785 15039 7147 10758 35158 24159 65301 32281
internal_count=449185 337288 269524 67764 111897 199724 191165 174555 38924 36934 69800 74963 27965 22668 11910 28840 35114 13536 76037 98518 15602 16610 44785 15039 7147 10758 35158 24159 65301 32281
is_linear=0
shrinkage=0.1


Tree=3
num_leaves=31
num_cat=0
split_feature=0 1 1 0 0 0 0 0 1 1 0 1 1 1 0 1 1 0 0 0 0 0 1 1 0 0 1 1 1 1
split_gain=162234 89437.7 31452.3 15936.6 11104.6 9222.5 6319.38 5312.89 4440.01 2731.65 2470.05 2356.98 1694.42 3737.54 1542.92 1407.68 1313.04 1259.87 1184.27 1117.13 1039.97 1011.39 982.725 1149.52 905.786 890.059 818.98 816.986 816.794 787.537
threshold=-0.58517099999999989 10.900000000000002 4.1000000000000005 -1.5281649999999998 -0.63082099999999997 -1.3142649999999998 -0.47682099999999999 -0.90062099999999989 11.700000000000001 4.5000000000000009 -0.66250649999999989 2.9000000000000004 6.7000000000000002 5.7000000000000002 -1.4125149999999997 10.300000000000002 11.300000000000002 -0.62380599999999986 -0.65532099999999993 -0.84151149999999986 -0.83461149999999995 -1.4248149999999997 3.9000000000000004 3.4000000000000008 -1.6840149999999998 -1.0017699999999998 4.5000000000000009 8.4000000000000004 6.7000000000000002 4.7000000000000002
decision_type=2 2 2 2 2 2 2 2 2 2 2 2 2 2 2 2 2 2 2 2 2 2 2 2 2 2 2 2 2 2
left_child=1 2 11 24 5 21 9 15 14 -2 20 17 13 -11 -5 25 -16 19 -13 -1 -9 -4 23 -20 -3 -7 -12 -14 -28 -8
right_child=6 3 4 8 -6 7 29 10 -10 12 26 18 27 -15 16 -17 -18 -19 22 -21 -22 -23 -24 -25 -26 -27 28 -29 -30 -31
leaf_value=0.030266544196895645 0.11283090684861197 0.14849314612020512 0.039256609658531172 0.048054156558613018 0.0032646977366817516 -0.052545905418979869 0.14517236982287149 -0.095246894340936417 0.082494006351092497 0.082969396547282984 0.023422022689246091 -0.027629646226198463 0.12321372822163597 -0.011829425024598876 -0.026041381826110561 -0.095529765630745431 0.024070305140770677 0.077433919626971548 0.052412844072397526 -0.006505155703370364 -0.11971243350491081 -0.023368802570711736 0.10682937995621444 -0.048998287035291244 0.11201606029106655 -0.07605525419837178 -0.098168785820385268 0.073967422319823034 -0.040264559065602695 0.12049695451522341
leaf_weight=15514 20767 12410 4976 7442 15388 30357 27686 24638 11421 10403 1024 30182 5166 6929 12337 19735 9075 3091 2232 17674 58935 5353 1108 2239 15079 34300 5113 9683 4653 24275
leaf_count=15514 20767 12410 4976 7442 15388 30357 27686 24638 11421 10403 1024 30182 5166 6929 12337 19735 9075 3091 2232 17674 58935 5353 1108 2239 15079 34300 5113 9683 4653 24275
internal_value=0 -0.0331751 -0.0584069 0.0697839 -0.0784258 -0.0850739 0.108869 -0.0903827 0.0297194 0.084556 -0.106686 -0.00158719 0.0663097 0.0450707 0.00883013 -0.0721527 -0.00480266 0.0163712 -0.0198057 0.0106841 -0.1125 0.00680102 0.0225211 0.00162789 0.128484 -0.0650174 -0.0616593 0.0911003 -0.0705804 0.133645
internal_weight=0 344276 276512 67764 204472 189084 104909 178755 40275 52948 94363 72040 32181 17332 28854 84392 21412 36279 35761 33188 83573 10329 5579 4471 27489 64657 10790 14849 9766 51961
internal_count=449185 344276 276512 67764 204472 189084 104909 178755 40275 52948 94363 72040 32181 17332 28854 84392 21412 36279 35761 33188 83573 10329 5579 4471 27489 64657 10790 14849 9766 51961
is_linear=0
shrinkage=0.1


Tree=4
num_leaves=31
num_cat=0
split_feature=0 1 1 0 0 0 0 0 1 0 1 1 0 1 0 0 1 1 0 1 1 1 1 1 1 1 1 1 1 1
split_gain=131557 71875.6 25682.8 12975.5 9835.78 7503.29 4729.01 4619.99 3563.44 2116.42 1978.83 3001.3 1960.6 1675.77 1270.23 1114.4 1092.71 1031.93 980 801.814 814.508 1394.68 777.776 814.319 897.424 985.325 728.61 789.083 1334.18 719.223
threshold=-0.58162099999999983 10.900000000000002 4.1000000000000005 -1.5416649999999998 -0.63082099999999997 -1.3637649999999997 -0.48782099999999989 -0.91042099999999981 11.300000000000002 -0.63082099999999997 5.5000000000000009 6.7000000000000002 -0.6697209999999999 2.9000000000000004 -1.4485599999999998 -0.82060599999999984 11.700000000000001 5.3000000000000016 -0.8310209999999999 4.7000000000000002 6.7000000000000002 5.7000000000000002 4.5000000000000009 6.7000000000000002 7.4500000000000002 7.0500000000000007 4.5000000000000009 6.7000000000000002 5.7000000000000002 8.4000000000000004
decision_type=2 2 2 2 2 2 2 2 2 2 2 2 2 2 2 2 2 2 2 2 2 2 2 2 2 2 2 2 2 2
left_child=1 2 9 -3 5 -4 10 17 14 13 -2 -12 15 18 -5 -9 -10 -7 -1 -8 21 -21 -14 -24 25 -25 -6 28 -28 -29
right_child=6 3 4 8 26 7 19 12 16 -11 11 -13 22 -15 -16 -17 -18 -19 -20 20 -22 -23 23 24 -26 -27 27 29 -30 -31
leaf_value=0.02641195662405816 0.093763179150123888 0.11792237979318583 0.018569126729205489 0.051053454368567619 0.068384334087558812 -0.041070467746128443 0.12955617241795378 -0.086763910031892516 0.032045000128481785 0.048137930900198522 0.0014680620915704151 0.081117399089697145 0.015176873073193629 -0.023061438237923729 -0.02110080186218544 -0.11021102205098586 0.073849779525359857 -0.068944329689012054 -0.0082522847750008677 0.1157392995816649 0.1236572498072766 0.051827379808980015 -0.092315030413909788 -0.054433087913643034 -0.061500360957752381 0.12083777565948713 0.0090984782346719868 0.066222393157845158 -0.074795053494339889 -0.0012941825911032268
leaf_weight=16341 25486 26199 7942 2978 1580 16605 29998 33404 13234 7846 7462 12926 1259 32140 13501 51556 11852 66365 16282 8189 13247 5856 6268 639 4402 644 4687 2362 3183 4752
leaf_count=16341 25486 26199 7942 2978 1580 16605 29998 33404 13234 7846 7462 12926 1259 32140 13501 51556 11852 66365 16282 8189 13247 5856 6268 639 4402 644 4687 2362 3183 4752
internal_value=0 -0.02955 -0.0520414 0.0628055 -0.0700936 -0.0765665 0.0991134 -0.0807376 0.0280646 -0.000912701 0.075187 0.0519658 -0.0954194 -0.00685516 -0.00806146 -0.100992 0.0517959 -0.0633659 0.00911118 0.118272 0.105869 0.0890915 -0.059583 -0.0674574 -0.0400506 0.0335439 0.00379658 -0.00301393 -0.024832 0.0211228
internal_weight=0 346021 278257 67764 205648 189084 103164 181142 41565 72609 45874 20388 98172 64763 16479 84960 25086 82970 32623 57290 27292 14045 13212 11953 5685 1283 16564 14984 7870 7114
internal_count=449185 346021 278257 67764 205648 189084 103164 181142 41565 72609 45874 20388 98172 64763 16479 84960 25086 82970 32623 57290 27292 14045 13212 11953 5685 1283 16564 14984 7870 7114
is_linear=0
shrinkage=0.1


Tree=5
num_leaves=31
num_cat=0
split_feature=0 1 1 0 0 0 0 0 1 1 1 0 0 1 1 1 1 1 0 1 1 1 0 0 1 0 1 1 1 0
split_gain=106764 61209.1 20099.6 10542.9 7048.5 5544.37 4988.96 4448.99 3120.68 1600.81 1537.04 1521.98 1299.78 1084.08 960.847 1951.37 948.216 902.11 837.059 825.398 1784.06 805.48 740.68 864.708 729.036 638.573 633.757 717.872 618.478 609.81
threshold=-0.60280649999999991 10.900000000000002 3.9000000000000004 -1.5141599999999997 -0.53902099999999986 -1.3757149999999998 -0.65182099999999987 -0.89112099999999994 11.700000000000001 4.5000000000000009 4.5000000000000009 -0.42490649999999996 -0.91042099999999981 4.5000000000000009 6.7000000000000002 5.7000000000000002 5.1000000000000005 11.300000000000002 -1.6655649999999997 6.7000000000000002 5.7000000000000002 5.3000000000000016 -0.78952099999999992 -0.69422099999999987 2.9000000000000004 -1.4004149999999997 6.7000000000000002 8.4000000000000004 8.4000000000000004 -0.65182099999999987
decision_type=2 2 2 2 2 2 2 2 2 2 2 2 2 2 2 2 2 2 2 2 2 2 2 2 2 2 2 2 2 2
left_child=1 2 12 18 9 -4 7 21 17 -2 -8 13 -1 -6 15 -15 -9 25 -3 20 -11 -7 -18 -24 29 -5 -12 -28 -21 -14
right_child=4 3 5 8 11 6 10 16 -10 19 26 -13 24 14 -16 -17 22 -19 -20 28 -22 -23 23 -25 -26 -27 27 -29 -30 -31
leaf_value=0.023494740748268517 0.072076326589772574 0.11967249565765498 0.02037060930912948 0.02544880850638816 0.10613367937906376 -0.040713805319227088 0.058218408156745449 -0.071725246714614069 0.067803866528645812 0.04037262837906775 -0.048195681424236053 0.11746984408393797 -0.0042900490523953812 0.087702434531479856 0.096337552901370138 0.017791421667694363 -0.083439837719677057 0.025024066770038097 0.085594727442517088 0.084196340327939642 -0.044937647516335687 -0.062837976324742847 -0.11532809200437771 -0.081534829364403982 -0.023236657281702669 -0.022326638752841632 0.037742108329613937 -0.02951227145632588 0.029208230717440747 0.038521461716242877
leaf_weight=17203 12151 14179 7357 3653 21806 21282 2359 22953 10959 6123 7864 29321 20959 10437 14064 6466 28717 12363 14661 3065 4088 72566 24805 10899 19700 11949 2384 4748 6149 3955
leaf_count=17203 12151 14179 7357 3653 21806 21282 2359 22953 10959 6123 7864 29321 20959 10437 14064 6466 28717 12363 14661 3065 4088 72566 24805 10899 19700 11949 2384 4748 6149 3955
internal_value=0 -0.028377 -0.0498646 0.056525 0.0837593 -0.0648758 -0.0680341 -0.0729392 0.0225727 0.0436078 -0.0168148 0.0992029 0.000143247 0.0890537 0.0770265 0.060959 -0.0891777 0.00484735 0.102349 0.0257997 0.00621844 -0.0578209 -0.095396 -0.105012 -0.00886101 -0.0111407 -0.0286182 -0.00703128 0.0474998 0.00250611
internal_weight=0 335515 267751 67764 113670 205934 198577 181222 38924 31576 17355 82094 61817 52773 30967 16903 87374 27965 28840 19425 10211 93848 64421 35704 44614 15602 14996 7132 9214 24914
internal_count=449185 335515 267751 67764 113670 205934 198577 181222 38924 31576 17355 82094 61817 52773 30967 16903 87374 27965 28840 19425 10211 93848 64421 35704 44614 15602 14996 7132 9214 24914
is_linear=0
shrinkage=0.1


Tree=6
num_leaves=31
num_cat=0
split_feature=0 1 1 0 0 0 0 0 1 0 0 1 1 1 0 1 1 0 0 1 1 1 0 0 0 1 1 1 1 1
split_gain=86761.1 46850.3 17044.7 8603.04 7112.86 5137.3 2945.72 2829.51 2340.15 1554.87 1451.21 1439.89 1202.67 1134.75 992.397 928.025 2027.43 767.919 754.541 701.006 1273.89 669.08 615.191 548.763 532.056 513.867 476.114 1340.12 494.872 463.967
threshold=-0.57812099999999988 10.900000000000002 4.1000000000000005 -1.5557649999999998 -0.62730649999999988 -1.3142649999999998 -0.46922099999999994 -0.92342099999999994 11.300000000000002 -0.63441149999999991 -0.65901149999999986 4.5000000000000009 10.300000000000002 2.9000000000000004 -1.4611649999999996 6.7000000000000002 5.7000000000000002 -0.83815899999999988 -0.82402099999999989 3.4000000000000008 3.9000000000000004 11.700000000000001 -1.4364149999999998 -1.0414699999999997 -1.4872149999999997 8.4000000000000004 5.5000000000000009 6.7000000000000002 7.4500000000000002 2.3000000000000003
decision_type=2 2 2 2 2 2 2 2 2 2 2 2 2 2 2 2 2 2 2 2 2 2 2 2 2 2 2 2 2 2
left_child=1 2 9 -3 5 22 11 12 14 13 17 -2 23 18 -5 16 -13 -9 29 -11 -21 24 -4 -7 -10 -17 -6 -28 -29 -1
right_child=6 3 4 8 26 7 -8 10 21 19 -12 15 -14 -15 -16 25 -18 -19 -20 20 -22 -23 -24 -25 -26 -27 27 28 -30 -31
leaf_value=0.054806726295246438 0.085494223193180438 0.097728607041240034 0.034844508042284034 0.046634921858583596 0.030497717819441845 -0.029662168347697929 0.099171963354692971 -0.068049878695625329 0.072437342777949804 0.056937154482260305 -0.041758842448828541 0.063768443741232611 -0.073177944001540624 -0.01914986345766732 -0.016476725678247282 0.095865939142187939 -0.0061227475012333868 -0.08710370218462507 -0.0085611424224940249 -0.052967735869113845 0.09369653503682461 0.059520707708872071 -0.014476149467033015 -0.050680103614359297 0.018766856072440132 0.056592122309694598 -0.05214511961491472 0.069804102635221063 0.0063363174404633725 0.013657632646860427
leaf_weight=3439 20876 24828 4423 3036 5482 18327 48515 32274 2201 6290 10759 10478 18638 31862 13893 5105 6873 61379 15420 1782 887 12319 5906 38557 11487 9590 3962 1579 5535 13483
leaf_count=3439 20876 24828 4423 3036 5482 18327 48515 32274 2201 6290 10759 10478 18638 31862 13893 5105 6873 61379 15420 1782 887 12319 5906 38557 11487 9590 3962 1579 5535 13483
internal_value=0 -0.0237365 -0.0417939 0.0508725 -0.0564688 -0.0619397 0.0813737 -0.0658766 0.0237777 -0.000310055 -0.0765416 0.0650575 -0.0511319 -0.00575571 -0.00515846 0.0517443 0.0360835 -0.0805375 0.00743966 0.0387158 -0.00422618 0.0426133 0.00664354 -0.0439085 0.027397 0.0702357 0.0063946 -0.0055351 0.0204234 0.0220202
internal_weight=0 347748 279984 67764 206821 190263 101437 179934 42936 73163 104412 52922 75522 64204 16929 32046 17351 93653 32342 8959 2669 26007 10329 56884 13688 14695 16558 11076 7114 16922
internal_count=449185 347748 279984 67764 206821 190263 101437 179934 42936 73163 104412 52922 75522 64204 16929 32046 17351 93653 32342 8959 2669 26007 10329 56884 13688 14695 16558 11076 7114 16922
is_linear=0
shrinkage=0.1


Tree=7
num_leaves=31
num_cat=0
split_feature=0 0 1 1 0 0 0 0 1 0 1 1 1 0 1 0 1 0 1 1 1 1 1 1 1 1 1 1 1 1
split_gain=70377.3 37343.8 11423.3 11097.9 8153.93 3388.07 3027.12 1983 1416.37 1226.93 1581.09 1101.61 1066.68 1033.29 905.401 887.564 1437.56 1140.38 724.758 1615.78 556.387 1003.3 540.783 958.17 1887.43 889.979 635.268 787.926 532.574 518.126
threshold=-0.57102099999999989 -1.4004149999999997 3.9000000000000004 11.100000000000001 -0.63441149999999991 -1.5736649999999999 -0.93661149999999982 -0.46142099999999991 11.700000000000001 -0.68372099999999991 4.3000000000000016 4.5000000000000009 4.5000000000000009 -0.77581149999999988 5.5000000000000009 -0.62022099999999991 3.4000000000000008 -0.89112099999999994 6.7000000000000002 5.7000000000000002 6.7000000000000002 5.7000000000000002 6.4000000000000012 9.9000000000000021 9.7000000000000011 8.4000000000000004 7.0500000000000007 7.4500000000000002 8.4000000000000004 5.3000000000000016
decision_type=2 2 2 2 2 2 2 2 2 2 2 2 2 2 2 2 2 2 2 2 2 2 2 2 2 2 2 2 2 2
left_child=1 5 15 4 6 -1 29 12 -5 13 -11 -6 -2 -8 -15 17 -17 -3 19 -14 21 -13 -12 24 25 26 -24 -28 -22 -4
right_child=7 2 3 8 11 -7 9 -9 -10 10 22 20 18 14 -16 16 -18 -19 -20 -21 28 -23 23 -25 -26 -27 27 -29 -30 -31
leaf_value=0.090079237405673432 0.079316590543383109 0.018591461494823373 -0.026564813373586179 0.0065617074619995679 0.062858654755959434 0.035834752719021673 -0.064720261182974428 0.090408764927463831 0.060937130612629925 0.051572459173440513 -0.071440539985821533 0.0076297355875210998 0.060971125674227633 -0.064566565773846479 -0.099264523289197562 0.060450412909499332 -0.048598511112973086 -0.010745938522845421 0.066756290151160247 -0.0016716985858925967 0.049949902635093912 -0.056426292405740243 -0.047344182580987638 -0.10396865884288163 0.129908451845935 -0.083540060043035824 0.11210890454958794 -0.028242195581400866 -0.001225651459421125 -0.046498068198689381
leaf_weight=23099 21048 19994 16194 14170 3021 22959 61912 45017 7237 1591 7944 6067 10524 11778 20803 5531 1547 39280 14538 6764 3047 4096 1607 1591 767 2391 797 803 6114 66954
leaf_count=23099 21048 19994 16194 14170 3021 22959 61912 45017 7237 1591 7944 6067 10524 11778 20803 5531 1547 39280 14538 6764 3047 4096 1607 1591 767 2391 797 803 6114 66954
internal_value=0 -0.0208949 -0.03356 -0.0437555 -0.0505179 0.0630394 -0.0570703 0.0749838 0.0249442 -0.0678028 -0.0434738 0.00670249 0.061851 -0.0723062 -0.0867212 0.00314665 0.0366162 -0.000849998 0.0503002 0.0364619 -0.00207663 -0.0181868 -0.0529844 -0.0345561 -0.0172057 -0.0373623 -0.00293414 0.0416702 0.0157956 -0.0426158
internal_weight=0 351294 305236 238884 217477 46058 195132 97891 21407 111984 17491 22345 52874 94493 32581 66352 7078 59274 31826 17288 19324 10163 15900 7956 6365 5598 3207 1600 9161 83148
internal_count=449185 351294 305236 238884 217477 46058 195132 97891 21407 111984 17491 22345 52874 94493 32581 66352 7078 59274 31826 17288 19324 10163 15900 7956 6365 5598 3207 1600 9161 83148
is_linear=0
shrinkage=0.1


Tree=8
num_leaves=31
num_cat=0
split_feature=0 1 1 0 0 0 0 0 1 1 1 1 0 1 1 1 1 1 0 1 0 0 1 1 1 0 0 0 1 1
split_gain=57221.1 33179 10818.6 5629.86 4322.87 3159.39 2265.59 2255.04 1569.74 1086.53 917.62 864.938 864.926 817.633 1355.94 794.988 932.376 1047.64 668.876 1004.19 573.414 572.249 684.107 546.571 539.336 651.313 504.236 471.788 447.489 438.972
threshold=-0.6062209999999999 10.900000000000002 3.9000000000000004 -1.5416649999999998 -0.53551149999999992 -1.3016649999999996 -0.65182099999999987 -0.85187099999999993 11.300000000000002 3.4000000000000008 4.3000000000000016 4.7000000000000002 -0.92342099999999994 6.7000000000000002 5.7000000000000002 7.0500000000000007 8.4000000000000004 9.5000000000000018 -0.69080649999999999 4.5000000000000009 -1.4611649999999996 -0.9632059999999999 7.4500000000000002 11.900000000000002 5.5000000000000009 -0.75781149999999986 -1.0239699999999996 -1.7261099999999998 2.9000000000000004 6.4000000000000012
decision_type=2 2 2 2 2 2 2 2 2 2 2 2 2 2 2 2 2 2 2 2 2 2 2 2 2 2 2 2 2 2
left_child=1 2 12 27 9 -4 7 15 20 -2 -8 -6 -1 14 -13 26 21 -18 24 -20 -5 -17 -23 -10 -9 -26 -7 -3 -14 -21
right_child=4 3 5 8 11 6 10 18 23 -11 -12 13 28 -15 -16 16 17 -19 19 29 -22 22 -24 -25 25 -27 -28 -29 -30 -31
leaf_value=0.020570039534173731 0.063968064067634986 0.096548592958238436 0.0044114855924786015 0.037857392444486 0.083933904976889878 -0.019186266382802065 0.061194892168625885 -0.059483735230279812 0.026060781780915084 0.021882373814993868 -0.022474908380708699 0.071363130156213039 0.0018733886478917703 0.07788206647012029 0.019852312660847207 -0.061880970238428104 -0.013796885115102051 -0.054382665623745267 0.019768949746566698 -0.079037503636212411 -0.01342726367129108 -0.07018324096094479 -0.15730760779928857 0.060637495879996006 -0.068799169896920004 -0.095640790833283584 -0.041792985538576889 0.068188807114330285 -0.017987712295603683 -0.040489597763551863
leaf_weight=15281 7927 8867 10916 2586 39892 13284 1439 20571 19073 27127 14709 12003 25714 19551 8899 5208 7651 37695 1888 5615 13893 1804 1801 6013 22409 15153 38350 17332 20300 6234
leaf_count=15281 7927 8867 10916 2586 39892 13284 1439 20571 19073 27127 14709 12003 25714 19551 8899 5208 7651 37695 1888 5615 13893 1804 1801 6013 22409 15153 38350 17332 20300 6234
internal_value=0 -0.0209861 -0.0368986 0.0414818 0.0607014 -0.0479331 -0.0508813 -0.0541409 0.018598 0.0313995 -0.0150188 0.0734856 -4.31923e-05 0.0631822 0.0494325 -0.044855 -0.0533192 -0.0475348 -0.0678098 -0.0479642 -0.00537932 -0.0830815 -0.113709 0.0343487 -0.0724994 -0.0796274 -0.0359769 0.0777871 -0.00688873 -0.0587567
internal_weight=0 333786 266022 67764 115399 204727 193811 177663 41565 35054 16148 80345 61295 40453 20902 105793 54159 45346 71870 13737 16479 8813 3605 25086 58133 37562 51634 26199 46014 11849
internal_count=449185 333786 266022 67764 115399 204727 193811 177663 41565 35054 16148 80345 61295 40453 20902 105793 54159 45346 71870 13737 16479 8813 3605 25086 58133 37562 51634 26199 46014 11849
is_linear=0
shrinkage=0.1


Tree=9
num_leaves=31
num_cat=0
split_feature=0 1 1 0 0 0 0 0 1 0 0 1 0 0 1 0 1 1 0 1 1 1 1 1 1 0 1 0 1 1
split_gain=46410.3 24961.5 9208.23 4584.22 4197.22 2799.44 1570.82 1480.64 1421.06 1058.84 906.186 903.367 819.738 709.974 661.445 572.008 552.475 850.094 543.386 501.76 501.153 559.164 771.361 1713.31 1009.49 488.81 461.139 447.244 440.117 515.352
threshold=-0.57451149999999995 10.900000000000002 4.1000000000000005 -1.5141599999999997 -0.62380599999999986 -1.3016649999999996 -0.52122099999999982 -0.92012099999999986 11.700000000000001 -0.65901149999999986 -0.67662099999999992 10.300000000000002 -0.87180649999999982 -0.403221 3.9000000000000004 -1.4872149999999997 5.5000000000000009 6.7000000000000002 -0.81712099999999988 4.5000000000000009 4.5000000000000009 6.7000000000000002 9.9000000000000021 9.7000000000000011 8.4000000000000004 -1.7048149999999997 10.700000000000001 -1.4734149999999999 4.5000000000000009 6.7000000000000002
decision_type=2 2 2 2 2 2 2 2 2 2 2 2 2 2 2 2 2 2 2 2 2 2 2 2 2 2 2 2 2 2
left_child=1 2 9 25 5 -4 16 11 27 12 18 -7 14 28 -1 -10 -2 -18 19 -9 -12 -22 23 24 -23 -3 -13 -5 -8 -30
right_child=6 3 4 8 -6 7 13 10 15 -11 20 26 -14 -15 -16 -17 17 -19 -20 -21 21 22 -24 -25 -26 -27 -28 -29 29 -31
leaf_value=0.013753211939229286 0.052426079727614955 0.084624063352543299 0.0039703368046911797 0.042284197113584505 0.007242577466555023 -0.031482432297456349 0.072283383764173592 -0.088503126940926199 -0.030180618256897569 0.025381408539932527 0.016083571249454181 -0.068302314991243299 -0.015724408138241948 0.08342677589209109 -0.035284554153261587 0.05236744427841649 -0.012497386182017133 0.043246361363590856 -0.067246583199189039 -0.047779463227719164 -0.058550463727226769 0.018131848579638635 -0.080596421796837237 0.12930620643907828 -0.070392030326124747 0.057623254584474259 -0.034584669738998174 -0.001085439541253698 0.041770145515489479 0.067907302604147374
leaf_weight=22800 14454 10603 10916 2624 16579 57999 22155 3311 916 13525 1708 12114 34300 20710 3128 10043 4255 7662 48045 35092 8497 2594 1708 826 2559 18237 6098 25341 16459 13927
leaf_count=22800 14454 10603 10916 2624 16579 57999 22155 3311 916 13525 1708 12114 34300 20710 3128 10043 4255 7662 48045 35092 8497 2594 1708 826 2559 18237 6098 25341 16459 13927
internal_value=0 -0.0171597 -0.0302636 0.0373336 -0.0410265 -0.0452061 0.0602115 -0.0481793 0.0149452 9.68028e-05 -0.0559187 -0.0375833 -0.00558119 0.0677458 0.00783721 0.0454677 0.0392834 0.0233429 -0.0601584 -0.0512905 -0.0354339 -0.0408709 -0.0213283 -0.00439744 -0.0258295 0.0675501 -0.0570125 0.002984 0.0615648 0.0537497
internal_weight=0 349563 281799 67764 208046 191467 99622 180551 38924 73753 104340 76211 60228 73251 25928 10959 26371 11917 86448 38403 17892 16184 7687 5979 5153 28840 18212 27965 52541 30386
internal_count=449185 349563 281799 67764 208046 191467 99622 180551 38924 73753 104340 76211 60228 73251 25928 10959 26371 11917 86448 38403 17892 16184 7687 5979 5153 28840 18212 27965 52541 30386
is_linear=0
shrinkage=0.1


Tree=10
num_leaves=31
num_cat=0
split_feature=0 1 1 0 0 0 0 0 1 1 0 0 1 0 1 1 1 1 1 1 0 0 1 1 1 1 0 1 0 1
split_gain=37674.6 21794.4 7097.57 3760.38 2890.14 2134.89 1483.82 1615.44 1136.42 759.928 730.137 617.324 605.507 540.866 817.019 498.288 1390.27 473.989 867.268 688.139 446.577 436.659 535.829 425.943 1369.49 418.304 564.773 372.215 371.871 347.39
threshold=-0.6062209999999999 10.900000000000002 3.9000000000000004 -1.5557649999999998 -0.54262099999999991 -1.3881149999999998 -0.64832099999999981 -0.8552114999999999 11.300000000000002 3.4000000000000008 -0.41211149999999991 -0.94325949999999981 4.5000000000000009 -0.69422099999999987 4.5000000000000009 5.7000000000000002 6.7000000000000002 7.0500000000000007 8.4000000000000004 9.5000000000000018 -1.4485599999999998 -0.98242099999999988 7.4500000000000002 9.9000000000000021 9.7000000000000011 5.5000000000000009 -0.75422099999999992 2.9000000000000004 -1.0326699999999998 11.900000000000002
decision_type=2 2 2 2 2 2 2 2 2 2 2 2 2 2 2 2 2 2 2 2 2 2 2 2 2 2 2 2 2 2
left_child=1 2 11 -3 9 -4 7 17 20 -2 15 -1 -8 25 -15 -6 -17 28 21 -20 -5 -19 -23 24 -16 -9 -27 -13 -7 -10
right_child=4 3 5 8 10 6 12 13 29 -11 -12 27 -14 14 23 16 -18 18 19 -21 -22 22 -24 -25 -26 26 -28 -29 -30 -31
leaf_value=0.019798379249849413 0.052182915409517798 0.064578442193600163 0.016402934379455874 0.027754894597283516 0.060334614953546029 -0.012809047733579607 0.040602485063012506 -0.04760725810505597 0.022311680660228501 0.015031468815500186 0.073595881585850467 0.0026182017128841334 -0.018370743678800438 0.017680047899720837 -0.049494421150991411 0.0054544156951469433 0.058071945671146444 -0.049421465737260625 -0.0086875987868558612 -0.041528550701182922 -0.012661778786722422 -0.058285831619000097 -0.13024653953708504 -0.097984931289508789 0.093796663127491797 -0.056146887159838843 -0.081670941825872451 -0.014963064161428195 -0.033095868569102987 0.049359318072422449
leaf_weight=12456 7112 24828 6759 3428 36332 11747 2013 20537 19756 24379 24214 27283 12887 2237 11787 7307 16055 4571 7537 41576 13501 2070 2069 1488 707 24032 13561 21556 39149 6251
leaf_count=12456 7112 24828 6759 3428 36332 11747 2013 20537 19756 24379 24214 27283 12887 2237 11787 7307 16055 4571 7537 41576 13501 2070 2069 1488 707 24032 13561 21556 39149 6251
internal_value=0 -0.0170286 -0.0299253 0.0336002 0.0492544 -0.0388629 -0.0407498 -0.0432197 0.0156869 0.0234218 0.0589494 -7.34612e-05 -0.0104034 -0.0545791 -0.038432 0.0530083 0.0416146 -0.0354514 -0.0416462 -0.0364887 -0.00447769 -0.0707276 -0.0942575 -0.0474094 -0.041386 -0.0590843 -0.0653542 -0.00514162 -0.0284136 0.0288128
internal_weight=0 333786 266022 67764 115399 204727 197968 183068 42936 31491 83908 61295 14900 74349 16219 59694 23362 108719 57823 49113 16929 8710 4139 13982 12494 58130 37593 48839 50896 26007
internal_count=449185 333786 266022 67764 115399 204727 197968 183068 42936 31491 83908 61295 14900 74349 16219 59694 23362 108719 57823 49113 16929 8710 4139 13982 12494 58130 37593 48839 50896 26007
is_linear=0
shrinkage=0.1


Tree=11
num_leaves=31
num_cat=0
split_feature=0 0 1 1 0 0 0 0 0 1 0 0 1 1 0 1 1 1 1 1 1 0 1 0 1 1 1 1 1 1
split_gain=30634.7 16463.4 5023.37 4996.48 3372.04 1454.44 1380.76 920.99 855.047 767.192 660.872 578.973 548.27 1271.51 539.655 521.056 411.066 391.761 1031.82 645.772 372.403 363.75 360.379 359.987 351.573 332.361 1030.66 400.307 1053.44 654.38
threshold=-0.56761149999999982 -1.4004149999999997 4.1000000000000005 11.100000000000001 -0.62380599999999986 -1.5918149999999998 -0.9499209999999999 -0.44162099999999999 -0.65532099999999993 11.500000000000002 -1.3272149999999998 -0.86181149999999984 5.7000000000000002 6.7000000000000002 -0.65532099999999993 2.3000000000000003 5.3000000000000016 3.4000000000000008 3.9000000000000004 2.5500000000000003 2.3000000000000003 -0.83461149999999995 8.4000000000000004 -0.61661149999999987 3.9000000000000004 5.5000000000000009 6.7000000000000002 9.9000000000000021 9.7000000000000011 8.4000000000000004
decision_type=2 2 2 2 2 2 2 2 2 2 2 2 2 2 2 2 2 2 2 2 2 2 2 2 2 2 2 2 2 2
left_child=1 5 8 4 6 -1 16 12 11 10 -5 15 -2 -14 21 -3 -4 19 -19 20 -10 -8 -15 -22 -17 -6 -27 28 29 -28
right_child=7 2 3 9 25 -7 14 -9 17 -11 -12 -13 13 22 -16 24 -18 18 -20 -21 23 -23 -24 -25 -26 26 27 -29 -30 -31
leaf_value=0.061250478533080202 0.050179644298798322 0.046780867701794168 -0.011093957764196935 -0.049040703436502561 0.025078484622486227 0.02561338127275218 -0.039993984508869485 0.062604120548123809 0.044802858573947203 0.035439228224879542 0.011008002019890739 -0.01348342534954816 -0.0035514594094922685 0.067183797872477871 -0.023432657921311148 0.0061382171367723335 -0.03074346541796005 -0.038033799152884129 0.067316903841538253 0.055797615182892779 -0.05803769981753807 -0.051928777590782509 0.035690068179026584 0.014597640251650394 -0.028995498109898068 -0.041187712927273273 0.048084346803430711 -0.023208258037875896 0.1293473744952002 -0.021596360525968993
leaf_weight=21336 36095 2828 12807 2361 6298 24722 43740 36316 1470 10854 8192 33267 7467 5477 10744 21419 63111 2787 1395 5637 1222 61364 10794 1545 3285 4540 2704 1805 916 2687
leaf_count=21336 36095 2828 12807 2361 6298 24722 43740 36316 1470 10854 8192 33267 7467 5477 10744 21419 63111 2787 1395 5637 1222 61364 10794 1545 3285 4540 2704 1805 916 2687
internal_value=0 -0.0136288 -0.0219934 -0.0292578 -0.0339341 0.042122 -0.0379107 0.0500416 0.00053299 0.0167725 -0.00242657 -0.00460587 0.0424167 0.0306128 -0.0447798 0.0061209 -0.0274287 0.0227611 -0.00289171 0.033626 0.00412827 -0.046962 0.0462912 -0.0174806 0.00146633 0.00630786 -0.00303591 0.0183163 0.0302002 0.0133539
internal_weight=0 353036 306978 232123 210716 46058 191766 96149 74855 21407 10553 60799 59833 23738 115848 27532 75918 14056 4182 9874 4237 105104 16271 2767 24704 18950 12652 8112 6307 5391
internal_count=449185 353036 306978 232123 210716 46058 191766 96149 74855 21407 10553 60799 59833 23738 115848 27532 75918 14056 4182 9874 4237 105104 16271 2767 24704 18950 12652 8112 6307 5391
is_linear=0
shrinkage=0.1


Tree=12
num_leaves=31
num_cat=0
split_feature=0 1 1 0 0 0 0 0 0 0 0 1 1 0 1 1 1 1 1 1 1 1 1 1 1 1 1 1 1 1
split_gain=24841.7 13277.1 4090.36 3905.39 2785.2 1422.22 1345.18 748.865 686.66 523.291 493.053 458.719 456.851 439.338 424.197 496.791 357.025 773.949 347.637 327.998 474.573 1501.43 320.665 913.719 609.2 318.899 1838.71 315.768 292.319 285.081
threshold=-0.56401149999999989 11.300000000000002 4.1000000000000005 -1.4125149999999997 -0.62022099999999991 -0.9632059999999999 -1.5736649999999999 -0.66621149999999985 -0.43361149999999998 -0.85187099999999993 -0.67662099999999992 2.3000000000000003 4.5000000000000009 -0.81362099999999982 4.5000000000000009 5.3000000000000016 6.7000000000000002 5.7000000000000002 5.5000000000000009 4.5000000000000009 7.0500000000000007 7.4500000000000002 3.9000000000000004 3.4000000000000008 2.5500000000000003 9.9000000000000021 9.7000000000000011 6.4000000000000012 3.9000000000000004 2.3000000000000003
decision_type=2 2 2 2 2 2 2 2 2 2 2 2 2 2 2 2 2 2 2 2 2 2 2 2 2 2 2 2 2 2
left_child=1 2 7 -4 5 -5 -3 9 12 11 13 -1 -2 14 -7 -16 17 -14 -15 -12 -21 -22 23 24 29 26 -23 -20 -13 -9
right_child=8 6 3 4 -6 10 -8 22 -10 -11 19 28 16 18 15 -17 -18 -19 27 20 21 25 -24 -25 -26 -27 -28 -29 -30 -31
leaf_value=0.042126628644776898 0.049789717891043063 0.059306235258465061 0.022360750455292299 -0.022384627914108252 0.0070756248758942417 -0.064981050649530955 0.024224062935150142 0.034686914772447001 0.057282587253098982 -0.013826638812968826 0.015516879997782094 0.0048826014341260132 0.038765266394771458 -0.037262123527811816 -0.013270484788810197 -0.038539990180970568 0.043039258357663243 -0.0018152800896691829 -0.07168499111365223 -0.04335386671855674 0.11068293227265213 -0.044038480836912752 0.061852499634763337 -0.031795872065786573 0.048185430739897804 -0.062225779328952763 0.1166930574637193 -0.049378297614418233 -0.026373301979888165 -0.01574368376405498
leaf_weight=2987 24997 18288 15543 77258 18990 4785 27164 1715 32823 29934 1813 22679 12248 15326 9551 41958 16668 7626 8816 9978 906 3652 1620 3255 6564 1824 884 22650 3447 3236
leaf_count=2987 24997 18288 15543 77258 18990 4785 27164 1715 32823 29934 1813 22679 12248 15326 9551 41958 16668 7626 8816 9978 906 3652 1620 3255 6564 1824 884 22650 3447 3236
internal_value=0 -0.0121275 -0.019542 -0.0260716 -0.0295185 -0.0330036 0.0383397 0.000706623 0.0456022 -0.00454266 -0.0397203 0.00500313 0.0393722 -0.0424521 -0.0365002 -0.0338544 0.032246 0.0231938 -0.0496126 -0.0249434 -0.0291973 -0.00975681 0.0196178 0.0149855 0.0282094 -0.0269138 -0.0127143 -0.0556281 0.000758775 0.00172521
internal_weight=0 354823 309371 233934 218391 199401 45452 75437 94362 59047 122143 29113 61539 103086 56294 51509 36542 19874 46792 19057 17244 7266 16390 14770 11515 6360 4536 31466 26126 4951
internal_count=449185 354823 309371 233934 218391 199401 45452 75437 94362 59047 122143 29113 61539 103086 56294 51509 36542 19874 46792 19057 17244 7266 16390 14770 11515 6360 4536 31466 26126 4951
is_linear=0
shrinkage=0.1


Tree=13
num_leaves=31
num_cat=0
split_feature=0 1 1 0 0 0 1 0 0 1 1 1 0 1 0 0 1 0 1 0 0 0 1 1 1 1 0 1 1 0
split_gain=20168 11946.9 3855.36 2039.45 1728.22 1238.92 720.661 671.79 854.083 561.278 988.053 507.205 459.779 449.626 417.148 399.593 394.461 391.668 347.907 373.669 306.647 304.045 441.134 322.646 745.553 280.716 262.109 261.609 382.278 675.397
threshold=-0.60960649999999983 10.900000000000002 3.9000000000000004 -1.5141599999999997 -0.53201149999999986 -1.3016649999999996 11.700000000000001 -0.65532099999999993 -0.8449589999999999 5.5000000000000009 6.7000000000000002 10.100000000000001 -1.4734149999999999 4.3000000000000016 -0.99212099999999992 -0.95320599999999989 7.4500000000000002 -0.39421149999999999 10.700000000000001 -1.2650149999999998 -1.7481649999999997 -0.69422099999999987 4.3000000000000016 9.9000000000000021 9.7000000000000011 3.4000000000000008 -1.4872149999999997 2.9000000000000004 3.4000000000000008 -0.75422099999999992
decision_type=2 2 2 2 2 2 2 2 2 2 2 2 2 2 2 2 2 2 2 2 2 2 2 2 2 2 2 2 2 2
left_child=1 2 15 20 9 26 -5 8 11 -2 -11 14 -8 -9 -7 -1 -12 25 -13 -20 -3 -10 -23 24 -24 -6 -4 -17 29 -29
right_child=4 3 5 6 17 7 12 13 21 10 16 18 -14 -15 -16 27 -18 -19 19 -21 -22 22 23 -25 -26 -27 -28 28 -30 -31
leaf_value=0.017146218797159433 0.029316235421292493 0.063174718326420742 0.034840032494897574 0.0014292900265690182 0.052105223889473952 -0.013835035456727044 -0.022551597521034548 0.041920876600414193 -0.044559831557011799 -0.026888181713443118 0.057815350177884112 -0.045217196614561805 0.03941890384686117 -0.016383130249692669 -0.028607871417868653 0.0025354934376680006 0.012752939391641916 0.057494247822267058 -0.096187613220655763 -0.012696510206963333 0.039173124132341586 0.028314551072293581 -0.034330449019854083 -0.081468919244422733 0.080618973321362641 0.036517516510795017 -0.0037945470463813923 -0.046399118426606038 0.0011419431479032054 0.0037791131133709487
leaf_weight=11012 21087 7043 2199 27965 15449 31121 1368 1453 54402 6223 2500 20511 9591 14747 49545 27838 8712 17282 584 6529 21797 1267 10589 1266 596 45815 8717 6360 10978 4639
leaf_count=11012 21087 7043 2199 27965 15449 31121 1368 1453 54402 6223 2500 20511 9591 14747 49545 27838 8712 17282 584 6529 21797 1267 10589 1266 596 45815 8717 6360 10978 4639
internal_value=0 -0.0125803 -0.022183 0.0248802 0.0356899 -0.028785 0.00994724 -0.0306424 -0.0324321 0.0183404 0.00506549 -0.0269134 0.0316832 -0.0111538 -0.0229085 -9.26169e-05 0.0228007 0.0441988 -0.0386084 -0.0195514 0.0450345 -0.041205 -0.0279007 -0.0336211 -0.0282053 0.0404483 0.00398829 -0.0039034 -0.0120595 -0.0252357
internal_weight=0 332117 264353 67764 117068 203526 38924 192610 176410 38522 17435 108290 10959 16200 80666 60827 11212 78546 27624 7113 28840 68120 13718 12451 11185 61264 10916 49815 21977 10999
internal_count=449185 332117 264353 67764 117068 203526 38924 192610 176410 38522 17435 108290 10959 16200 80666 60827 11212 78546 27624 7113 28840 68120 13718 12451 11185 61264 10916 49815 21977 10999
is_linear=0
shrinkage=0.1


Tree=14
num_leaves=31
num_cat=0
split_feature=0 0 1 1 0 0 0 0 1 1 1 0 1 1 1 1 1 0 0 1 1 1 1 1 1 1 0 0 1 1
split_gain=16416.1 8838.92 2754 2659.31 2044.18 787.077 728.267 535.086 472.958 1198.41 453.799 540.555 386.2 336.821 684.978 338.809 316.166 295.699 343.563 601.019 567.488 532.595 312.178 1188.87 477.804 959.62 316.607 294.935 278.635 271.166
threshold=-0.56012099999999987 -1.4004149999999997 4.1000000000000005 11.100000000000001 -0.62380599999999986 -1.5918149999999998 -0.94640649999999982 -0.64492099999999997 5.7000000000000002 6.7000000000000002 11.500000000000002 -1.3392149999999998 2.9000000000000004 3.4000000000000008 3.9000000000000004 2.5500000000000003 5.3000000000000016 -0.68372099999999991 -0.76505949999999989 4.5000000000000009 4.7000000000000002 5.3000000000000016 8.4000000000000004 7.4500000000000002 10.100000000000001 10.300000000000002 -0.79291149999999988 -0.81362099999999982 2.3000000000000003 4.5000000000000009
decision_type=2 2 2 2 2 2 2 2 2 2 2 2 2 2 2 2 2 2 2 2 2 2 2 2 2 2 2 2 2 2
left_child=1 5 7 4 6 -1 16 12 -2 -10 11 -5 27 15 -15 -9 -4 18 19 -8 -20 -21 23 -23 -24 26 -26 28 -3 -6
right_child=8 2 3 10 29 -7 17 13 9 -11 -12 -13 -14 14 -16 -17 -18 -19 20 21 -22 22 24 -25 25 -27 -28 -29 -30 -31
leaf_value=0.045217324791802294 0.042933047932419748 0.037951200201430106 -0.0061760923570523436 -0.049288067330687996 0.039515059955982125 0.019001538904925175 -0.06201691302727641 0.0072559682969841515 -1.9592212067913263e-05 0.040782831108037425 0.026796979472104285 0.0085817420695854709 -0.011082402236539382 -0.034679560314695913 0.05273911015062771 0.045381160130771182 -0.02319975746038732 -0.021910837723587102 -0.0092895788708925089 -0.009088578399366342 -0.05047789586462436 -0.032915969346523223 -0.013490288374101362 -0.10094917454754218 -0.075971661356525569 -0.019384552592715983 -0.16772591095786912 -0.0063774503883171352 0.0068210361373142311 0.0011330264575990987
leaf_weight=21336 58957 3608 13145 1989 2034 24722 5832 4083 10460 23085 10854 8564 31027 2683 1346 5432 64153 20268 3898 11556 23583 23224 14609 2888 2458 5708 444 13715 14157 19367
leaf_count=21336 58957 3608 13145 1989 2034 24722 5832 4083 10460 23085 10854 8564 31027 2683 1346 5432 64153 20268 3898 11556 23583 23224 14609 2888 2458 5708 444 13715 14157 19367
internal_value=0 -0.00973545 -0.0157971 -0.0211585 -0.0245326 0.0311458 -0.027804 0.000739649 0.0375394 0.0280598 0.0124405 -0.0023254 -0.00316488 0.0187595 -0.00547491 0.0290212 -0.0203048 -0.0328681 -0.0352257 -0.0313498 -0.0446356 -0.0284124 -0.0329391 -0.0404405 -0.024503 -0.0431888 -0.0900099 0.00463871 0.0131434 0.00478094
internal_weight=0 356683 310625 234574 213167 46058 191766 76051 92502 33545 21407 10553 62507 13544 4029 9515 77298 114468 94200 66719 27481 60887 49331 26112 23219 8610 2902 31480 17765 21401
internal_count=449185 356683 310625 234574 213167 46058 191766 76051 92502 33545 21407 10553 62507 13544 4029 9515 77298 114468 94200 66719 27481 60887 49331 26112 23219 8610 2902 31480 17765 21401
is_linear=0
shrinkage=0.1


Tree=15
num_leaves=31
num_cat=0
split_feature=0 0 1 1 0 0 1 1 1 1 1 0 1 1 1 0 0 0 0 0 0 1 1 1 1 1 1 1 1 1
split_gain=13301.2 7985.34 2265.88 2034.08 1247.09 997.343 480.489 389.705 388.745 493.325 355.416 516.908 336.603 715.732 349.311 321.901 317.784 294.636 275.571 429.866 454.633 434.874 1742.14 315.726 1319.65 610.18 257.929 808.022 397.764 860.46
threshold=-0.61302099999999993 -1.3392149999999998 3.9000000000000004 11.100000000000001 -0.52822099999999994 -1.5141599999999997 3.4000000000000008 5.3000000000000016 3.9000000000000004 4.5000000000000009 11.700000000000001 -1.4734149999999999 6.7000000000000002 5.7000000000000002 7.4500000000000002 -0.93321149999999986 -1.0653149999999998 -0.39421149999999999 -0.91702099999999986 -0.69422099999999987 -0.75781149999999986 9.9000000000000021 9.7000000000000011 8.4000000000000004 7.0500000000000007 7.4500000000000002 8.4000000000000004 7.4500000000000002 10.100000000000001 10.300000000000002
decision_type=2 2 2 2 2 2 2 2 2 2 2 2 2 2 2 2 2 2 2 2 2 2 2 2 2 2 2 2 2 2
left_child=1 5 15 7 6 -1 -2 16 -8 -10 -7 -12 13 -11 -14 -3 -4 -6 -9 20 26 22 23 24 -21 -26 27 -20 -28 -30
right_child=4 2 3 -5 17 10 8 18 9 12 11 -13 14 -15 -16 -17 -18 -19 19 21 -22 -23 -24 -25 25 -27 28 -29 29 -31
leaf_value=0.036678020317335046 0.034648769479346746 0.013209356475628401 0.012609929455227832 0.011749117865805162 0.032943980489066479 0.0030673131841715256 -0.027290703961246904 -0.022907652724557998 0.044773588025807637 0.015195487008134244 -0.022196591869754478 0.048240780327639607 0.050845031049716605 -0.031622748214541467 0.010266622425409279 -0.0041373980048108215 -0.019484635603373816 0.047778910751331755 -0.031186023921947699 -0.031757915161998947 -0.050660745845617861 -0.056608705046100882 0.099336007451973796 -0.046661301938702868 0.097645651823959886 0.00090240087064955574 -0.011833042941280634 -0.091005171281615588 -0.08769047257946988 -0.014322241421014069
leaf_weight=30175 9508 13903 3292 16424 59417 19104 2693 68698 4062 8159 1368 4370 2730 5444 9516 46399 49087 17282 20346 9163 15396 2634 1278 3920 1293 1315 12835 2540 2550 4284
leaf_count=30175 9508 13903 3292 16424 59417 19104 2693 68698 4062 8159 1368 4370 2730 5444 9516 46399 49087 17282 20346 9163 15396 2634 1278 3920 1293 1315 12835 2540 2550 4284
internal_value=0 -0.0103195 -0.0172689 -0.0220724 0.0286951 0.0244616 0.0148686 -0.024869 0.0091003 0.0123767 0.00962262 0.0314478 0.00728577 -0.00354144 0.0193128 -0.000137996 -0.0174675 0.0362866 -0.0275197 -0.0316051 -0.0359352 -0.0188044 -0.0129363 -0.0220807 -0.0138948 0.048866 -0.0306076 -0.037825 -0.0222098 -0.0416984
internal_weight=0 330374 275357 215055 118811 55017 42112 198631 32604 29911 24842 5738 25849 13603 12246 60302 52379 76699 146252 77554 57951 19603 16969 15691 11771 2608 42555 22886 19669 6834
internal_count=449185 330374 275357 215055 118811 55017 42112 198631 32604 29911 24842 5738 25849 13603 12246 60302 52379 76699 146252 77554 57951 19603 16969 15691 11771 2608 42555 22886 19669 6834
is_linear=0
shrinkage=0.1


Tree=16
num_leaves=31
num_cat=0
split_feature=0 1 1 0 0 0 0 1 1 1 1 1 0 1 1 1 1 0 1 1 1 1 1 1 1 1 1 1 0 1
split_gain=10852.4 6016.81 1867.18 1471.8 1436.64 723.688 640.619 453.335 370.146 375.964 589.382 353.373 293.742 411.566 558.574 517.378 257.317 254.442 245.872 232.941 829.44 346.861 1407.7 540.734 321.398 259.098 223.947 616.612 369.437 210.37
threshold=-0.56012099999999987 11.300000000000002 2.9000000000000004 -1.4485599999999998 -0.64492099999999997 -0.89422099999999982 -1.5557649999999998 5.1000000000000005 4.7000000000000002 6.7000000000000002 5.7000000000000002 5.3000000000000016 -0.74001149999999993 3.4000000000000008 3.9000000000000004 4.5000000000000009 5.3000000000000016 -0.63082099999999997 7.4500000000000002 5.5000000000000009 6.4000000000000012 9.9000000000000021 9.7000000000000011 8.4000000000000004 7.0500000000000007 5.3000000000000016 4.7000000000000002 4.9000000000000012 -0.77581149999999988 4.9000000000000012
decision_type=2 2 2 2 2 2 2 2 2 2 2 2 2 2 2 2 2 2 2 2 2 2 2 2 2 2 2 2 2 2
left_child=1 2 17 -4 5 11 -3 12 -2 10 16 -5 13 -7 -15 -16 -10 -1 -11 25 -21 22 23 24 -22 29 -17 28 -28 -6
right_child=8 6 3 4 19 7 -8 -9 9 18 -12 -13 -14 14 15 26 -18 -19 -20 20 21 -23 -24 -25 -26 -27 27 -29 -30 -31
leaf_value=0.004402536902855597 0.037021614721303601 0.039800725502921588 0.017564382320841589 -0.0054004315412626127 0.012008511897467024 -0.050441650883286816 0.015805369791362069 -0.031310059140444498 0.017834034983371005 0.050252633799001627 -0.0022314930159713846 -0.018079428809553853 -0.0069220751275326682 0.011103213294721302 -0.046439316116009925 0.015446803433425499 0.045434794423656368 0.027356918313957201 0.027151745516666936 -0.039103317199382058 -0.0020235594341578519 -0.024816895587043822 0.10971647314184262 -0.026127018453744256 0.046392355589048473 0.052531222068809315 -0.035409270401615282 0.014023234119756967 -0.12692732461639075 -0.018819502422997625
leaf_weight=32623 44999 19445 12625 29222 12164 4928 26007 67153 8228 6359 10460 88720 15214 4909 7437 2475 5730 5668 16726 5452 2772 2737 1372 4087 2713 1326 1894 2459 575 2706
leaf_count=32623 44999 19445 12625 29222 12164 4928 26007 67153 8228 6359 10460 88720 15214 4909 7437 2475 5730 5668 16726 5452 2772 2737 1372 4087 2713 1326 1894 2459 575 2706
internal_value=0 -0.00791563 -0.012879 -0.0157801 -0.0173973 -0.0203411 0.0260709 -0.0262943 0.0305223 0.0243655 0.0157154 -0.014938 -0.0178508 -0.0245887 -0.0181375 -0.0278102 0.0291646 0.00780034 0.0335151 0.00134989 -0.00612095 0.00702282 0.0149857 0.00140744 0.021924 0.0101755 -0.00909556 -0.0214215 -0.0567227 0.00639852
internal_weight=0 356683 311231 272940 260315 224986 45452 107044 92502 47503 24418 117942 39891 24677 19749 14840 13958 38291 23085 35329 19133 13681 10944 9572 5485 16196 7403 4928 2469 14870
internal_count=449185 356683 311231 272940 260315 224986 45452 107044 92502 47503 24418 117942 39891 24677 19749 14840 13958 38291 23085 35329 19133 13681 10944 9572 5485 16196 7403 4928 2469 14870
is_linear=0
shrinkage=0.1


Tree=17
num_leaves=31
num_cat=0
split_feature=0 1 1 0 0 0 0 0 0 1 1 1 0 1 1 0 1 0 1 1 0 1 1 0 1 1 1 0 0 1
split_gain=8807 4844.71 1542.23 1345.43 983.196 582.269 529.344 487.026 391.739 328.48 547.686 482.546 310.489 294.687 284.42 238.437 234.776 574.633 525.578 448.113 363.922 226.466 223.227 246.182 216.016 186.841 395.531 802.918 584.068 197.068
threshold=-0.55660599999999982 11.300000000000002 4.3000000000000016 -1.3757149999999998 -0.62022099999999991 -0.67321149999999996 -1.5918149999999998 -0.96952099999999997 -0.84842099999999987 3.9000000000000004 3.4000000000000008 2.5500000000000003 -0.41641149999999999 2.3000000000000003 2.9000000000000004 -0.62022099999999991 2.7000000000000006 -0.77912099999999984 3.4000000000000008 4.1000000000000005 -0.72585949999999988 3.4000000000000008 11.100000000000001 -1.4872149999999997 10.900000000000002 10.300000000000002 10.700000000000001 -1.2650149999999998 -1.2650149999999998 10.500000000000002
decision_type=2 2 2 2 2 2 2 2 2 2 2 2 2 2 2 2 2 2 2 2 2 2 2 2 2 2 2 2 2 2
left_child=1 2 5 22 7 8 -3 25 13 10 11 15 21 -1 -13 -7 20 18 -18 -20 -10 -2 24 -24 -4 -5 27 -27 -28 -29
right_child=12 6 3 4 -6 9 -8 -9 16 -11 -12 14 -14 -15 -16 -17 17 -19 19 -21 -22 -23 23 -25 -26 26 28 29 -30 -31
leaf_value=0.032399568798721266 0.034577687124674149 0.037354500144667818 0.0068218263712108195 -0.0090606755868350569 0.0027548299781655055 -0.026137611681415981 0.015079630539094597 -0.024222003491873974 0.010396601208836374 0.041610484500170145 -0.025169426847689899 0.054379478704281552 0.037081013863761725 -0.00019087754862122071 0.015398067991150661 0.015103469353726888 -0.070275709203108883 -0.0055196514924247932 0.00056182358103307628 -0.071971903837748347 -0.028563238736604119 0.020786236437407915 0.0073988196049000546 -0.03657352908819942 0.033684983748845924 0.0079056537605840804 -0.037463156102476962 -0.062677777192353332 0.0021695856510642775 -0.033685150829849735
leaf_weight=3046 15721 17108 7357 38711 20431 2585 28344 118999 7944 3699 3720 3754 25930 31124 3733 3063 3364 11864 3334 1144 3434 49071 4310 1807 5047 3518 5326 4668 12319 4710
leaf_count=3046 15721 17108 7357 38711 20431 2585 28344 118999 7944 3699 3720 3754 25930 31124 3733 3063 3364 11864 3334 1144 3434 49071 4310 1807 5047 3518 5326 4668 12319 4710
internal_value=0 -0.00704426 -0.0114743 -0.015788 -0.0180805 -5.242e-05 0.0234638 -0.0203418 -0.00467562 0.0146251 0.00870291 0.018296 0.0278335 0.00271432 0.0349434 -0.00377192 -0.0127992 -0.019403 -0.0404068 -0.0179685 -0.00136189 0.0241326 0.0100425 -0.00559089 0.017752 -0.0136743 -0.0195222 -0.0328338 -0.00979324 -0.0481165
internal_weight=0 358463 313011 227203 208682 85808 45452 188251 65254 20554 16855 13135 90722 34170 7487 5648 31084 19706 7842 4478 11378 64792 18521 6117 12404 69252 30541 12896 17645 9378
internal_count=449185 358463 313011 227203 208682 85808 45452 188251 65254 20554 16855 13135 90722 34170 7487 5648 31084 19706 7842 4478 11378 64792 18521 6117 12404 69252 30541 12896 17645 9378
is_linear=0
shrinkage=0.1


Tree=18
num_leaves=31
num_cat=0
split_feature=0 0 1 1 0 0 0 1 0 0 1 1 1 0 1 1 1 1 1 0 1 0 0 1 1 1 1 1 1 1
split_gain=7133.67 3934.5 1333.1 1134.85 860.927 472.102 442.931 367.397 291.184 285.026 282.226 435.563 421.871 258.756 232.938 226.638 735.272 553.075 300.774 272.372 364.28 358.922 208.603 198.219 262.86 192.264 183.987 597.602 276.609 803.508
threshold=-0.55660599999999982 -1.3637649999999997 4.3000000000000016 11.100000000000001 -0.62730649999999988 -0.67662099999999992 -1.6110149999999999 3.9000000000000004 -0.8814114999999999 -0.84151149999999986 3.9000000000000004 3.4000000000000008 2.5500000000000003 -0.453621 2.9000000000000004 7.0500000000000007 8.4000000000000004 9.7000000000000011 6.7000000000000002 -1.0974149999999998 7.4500000000000002 -0.88782099999999986 -0.62022099999999991 4.5000000000000009 5.3000000000000016 11.900000000000002 6.7000000000000002 5.7000000000000002 9.9000000000000021 9.7000000000000011
decision_type=2 2 2 2 2 2 2 2 2 2 2 2 2 2 2 2 2 2 2 2 2 2 2 2 2 2 2 2 2 2
left_child=1 6 5 4 9 7 -1 8 -3 15 11 12 22 -2 -14 18 19 -18 23 -17 -21 -22 -7 -4 -25 -5 27 -6 29 -28
right_child=13 2 3 25 26 10 -8 -9 -10 -11 -12 -13 14 -15 -16 16 17 -19 -20 20 21 -23 -24 24 -26 -27 28 -29 -30 -31
leaf_value=0.031132305881203793 0.020140429689101916 0.0084728866668254878 -0.034585080364418007 0.0045016313234924801 0.0098898651328013371 -0.024298271757461687 0.012005017386203295 -0.018942200009944826 -0.0068272421847105124 -0.024195959085648071 0.037536424217381924 -0.022260066376697248 0.048627607985207905 0.030859423230011809 0.013861808311015762 -0.0031126187186036117 0.0046064038613576825 -0.020477824750895803 0.018571652724168164 -0.030436442871994585 -0.059760919535079407 -0.13669861063240021 0.013593122531134287 -0.00025291294594831674 -0.017234633259647213 0.032060094460992526 0.0071972301612418486 -0.035556657643050299 -0.019372465306614458 0.097923920076144366
leaf_weight=19505 49168 21418 3834 15389 7941 2764 31919 13536 29670 69922 3815 3833 3861 41554 3848 1269 10961 44376 3271 3745 3399 738 3063 14753 23852 3030 6792 4552 2267 1140
leaf_count=19505 49168 21418 3834 15389 7941 2764 31919 13536 29670 69922 3815 3833 3861 41554 3848 1269 10961 44376 3271 3745 3399 738 3063 14753 23852 3030 6792 4552 2267 1140
internal_value=0 -0.00633984 -0.0106274 -0.0147311 -0.0168895 -4.71779e-05 0.01926 -0.00429397 -0.000412856 -0.019202 0.0129081 0.00749864 0.0159254 0.0250501 0.031274 -0.0160333 -0.0198514 -0.0155092 -0.0106468 -0.0461092 -0.0530316 -0.0734858 -0.00438042 -0.0128988 -0.010745 0.00903511 0.00146664 -0.00666921 0.0114324 0.0202366
internal_weight=0 358463 307039 221231 202812 85808 51424 64624 51088 180120 21184 17369 13536 90722 7709 110198 64488 55337 45710 9151 7882 4137 5827 42439 38605 18419 22692 12493 10199 7932
internal_count=449185 358463 307039 221231 202812 85808 51424 64624 51088 180120 21184 17369 13536 90722 7709 110198 64488 55337 45710 9151 7882 4137 5827 42439 38605 18419 22692 12493 10199 7932
is_linear=0
shrinkage=0.1


Tree=19
num_leaves=31
num_cat=0
split_feature=0 1 1 0 0 0 0 1 1 1 1 0 1 1 0 1 1 0 1 1 1 1 0 1 1 0 0 1 1 1
split_gain=5787.81 3233.57 1091.53 780.349 907.892 445.909 360.714 330.168 236.989 222.673 251.69 198.771 449.123 588.851 202.77 246.212 396.097 193.4 362.871 453.78 324.928 389.603 316.263 185.016 162.851 265.45 162.526 149.198 632.914 260.846
threshold=-0.55310649999999983 11.300000000000002 2.9000000000000004 -1.4611649999999996 -0.64492099999999997 -0.95642099999999985 -1.5557649999999998 5.1000000000000005 3.4000000000000008 4.9000000000000012 4.7000000000000002 -0.76505949999999989 6.4000000000000012 8.4000000000000004 -0.69422099999999987 7.0500000000000007 7.4500000000000002 -0.77212099999999995 4.5000000000000009 4.3000000000000016 3.4000000000000008 3.9000000000000004 -0.85847099999999987 5.3000000000000016 11.900000000000002 -1.4872149999999997 -0.39881149999999993 5.5000000000000009 6.4000000000000012 9.9000000000000021
decision_type=2 2 2 2 2 2 2 2 2 2 2 2 2 2 2 2 2 2 2 2 2 2 2 2 2 2 2 2 2 2
left_child=1 2 -1 -4 5 23 -3 9 -2 10 17 -9 -13 14 -14 -16 -17 18 19 20 22 -22 -7 -5 -8 -26 -10 -6 -29 -30
right_child=8 6 3 4 27 7 24 11 26 -11 -12 12 13 -15 15 16 -18 -19 -20 -21 21 -23 -24 -25 25 -27 -28 28 29 -31
leaf_value=0.0064475630139454844 0.031298934486520741 0.029591441158728291 0.013880247751338179 -0.00053388403146443293 0.0084585445127692196 -0.013584445510181365 0.0071346205304522849 -0.018742376710757298 0.017285262131131185 0.0080384692675667564 -0.035554420537763705 -0.044256596106993874 -0.011552698459695733 -0.033722288425207657 -0.0062537192399165584 0.10000587640664516 -0.0003588888672290797 -0.0033311352769230932 0.015394185163293711 -0.058650158261160934 0.011659363802309024 -0.024666774496172137 -0.060034904985841367 -0.011808061548462544 -0.017448729970961138 0.035505721012771767 0.030107965572590874 -0.03178540167761109 0.013606628768455437 -0.019607879358474578
leaf_weight=38853 24100 19445 11644 18272 17556 3131 19756 55318 52770 4941 4968 11650 4601 11553 1606 780 793 16353 2938 2926 5883 5927 2756 71571 1163 5088 12163 5894 11831 2955
leaf_count=38853 24100 19445 11644 18272 17556 3131 19756 55318 52770 4941 4968 11650 4601 11553 1606 780 793 16353 2938 2926 5883 5927 2756 71571 1163 5088 12163 5894 11831 2955
internal_value=0 -0.00564387 -0.00924489 -0.0114552 -0.0125718 -0.0149831 0.0192889 -0.018592 0.0228303 -0.0121103 -0.0143284 -0.0223341 -0.0287467 -0.0194006 0.00186665 0.0212886 0.0494088 -0.0116865 -0.0174856 -0.0221698 -0.0161382 -0.00657137 -0.0353302 -0.00951515 0.0115858 0.0256535 0.0196872 0.00167888 -0.00407662 0.00696867
internal_weight=0 360152 314700 275847 264203 225967 45452 136124 89033 49823 44882 86301 30983 19333 7780 3179 1573 39914 23561 20623 17697 11810 5887 89843 26007 6251 64933 38236 20680 14786
internal_count=449185 360152 314700 275847 264203 225967 45452 136124 89033 49823 44882 86301 30983 19333 7780 3179 1573 39914 23561 20623 17697 11810 5887 89843 26007 6251 64933 38236 20680 14786
is_linear=0
shrinkage=0.1


Tree=20
num_leaves=31
num_cat=0
split_feature=0 0 1 1 0 1 1 0 1 1 1 1 1 1 1 1 1 0 1 0 1 0 0 0 1 1 1 1 1 0
split_gain=4742.99 2980.19 867.179 775.761 496.701 367.588 262.705 257.286 254.291 312.664 320.801 207.975 429.806 312.122 269.359 911.881 205.455 204.165 203.26 344.807 241.58 550.816 401.338 213.518 330.445 369.748 841.117 336.688 1012.49 274.482
threshold=-0.61302099999999993 -1.3392149999999998 3.9000000000000004 11.100000000000001 -0.50247099999999989 11.300000000000002 11.100000000000001 -1.4734149999999999 3.4000000000000008 3.9000000000000004 4.5000000000000009 6.7000000000000002 5.7000000000000002 8.4000000000000004 9.7000000000000011 9.9000000000000021 6.1000000000000005 -0.96952099999999997 10.100000000000001 -1.0284149999999996 10.700000000000001 -1.2781149999999999 -1.2650149999999998 -0.67662099999999992 4.5000000000000009 7.0500000000000007 7.4500000000000002 9.7000000000000011 9.9000000000000021 -0.7614209999999999
decision_type=2 2 2 2 2 2 2 2 2 2 2 2 2 2 2 2 2 2 2 2 2 2 2 2 2 2 2 2 2 2
left_child=1 5 17 18 8 6 -1 -8 -2 -10 -11 12 -12 -13 -15 -16 -14 -3 19 -4 22 -22 -20 29 -25 -26 -27 -28 -29 -21
right_child=4 2 3 -5 -6 -7 7 -9 9 10 11 13 16 14 15 -17 -18 -19 20 23 21 -23 -24 24 25 26 27 28 -30 -31
leaf_value=0.012333515442441453 0.022672838576153646 0.014398325482744834 -0.0010098225671223511 0.0075075660974760448 0.023086006704484949 0.021632671742018442 0.0020733917486162471 -0.039692968517126073 -0.022352802118815612 0.031891819231291217 0.010653629346729013 0.033518579024254522 -0.038297734249215044 -0.011998845553674999 0.078099691155677747 -0.011278431978681188 -0.0042199986388444573 -0.0021927929311129565 0.01264192751736852 -0.014183500438176518 -0.059349020987140892 -0.0018932462099209302 -0.030811353447250719 0.024330131442171041 -0.022450887847494855 0.090489495126212516 -0.023853216044224138 0.097291028202471444 -0.044411927806966643 -0.025435912139543933
leaf_weight=14781 12435 8661 19385 16424 64324 33516 4534 2186 3471 5276 10618 5289 3518 5327 1766 3228 3559 51641 2330 89473 1960 11221 24220 3066 11225 1025 4099 1003 1014 28610
leaf_count=14781 12435 8661 19385 16424 64324 33516 4534 2186 3471 5276 10618 5289 3518 5327 1766 3228 3559 51641 2330 89473 1960 11221 24220 3066 11225 1025 4099 1003 1014 28610
internal_value=0 -0.00616224 -0.0104076 -0.0133793 0.0171352 0.0150858 0.00488041 -0.0115131 0.0101099 0.00639503 0.00898137 0.00535202 -0.00207009 0.0137655 0.003643 0.0203278 -0.0211602 0.000190141 -0.0151063 -0.0135068 -0.0215037 -0.0104369 -0.0269979 -0.0152432 -0.00606049 -0.0111339 0.00665546 -0.00739456 0.0260532 -0.0169098
internal_weight=0 330374 275357 215055 118811 55017 21501 6720 54487 42052 38581 33305 17695 15610 10321 4994 7077 60302 198631 158900 39731 13181 26550 139515 21432 18366 7141 6116 2017 118083
internal_count=449185 330374 275357 215055 118811 55017 21501 6720 54487 42052 38581 33305 17695 15610 10321 4994 7077 60302 198631 158900 39731 13181 26550 139515 21432 18366 7141 6116 2017 118083
is_linear=0
shrinkage=0.1


Tree=21
num_leaves=31
num_cat=0
split_feature=0 1 1 0 0 0 1 0 1 0 1 1 1 1 0 1 0 1 1 1 1 0 0 1 1 1 1 0 1 1
split_gain=3845.42 2446.08 789.826 427.082 408.04 297.154 260.045 296.302 247.766 261.487 204.669 258.371 252.992 197.008 210.328 171.338 192.843 163.75 349.539 248.407 178.067 155.296 148.121 142.24 754.475 137.31 141.008 136.305 307.916 314.444
threshold=-0.61661149999999987 10.900000000000002 3.9000000000000004 -0.5175209999999999 -1.6296649999999999 -1.2905149999999999 10.100000000000001 -1.0549699999999997 10.700000000000001 -1.2781149999999999 3.4000000000000008 3.9000000000000004 4.5000000000000009 2.3000000000000003 -0.7614209999999999 11.900000000000002 -1.5007599999999999 6.7000000000000002 5.7000000000000002 7.4500000000000002 6.1000000000000005 -1.4734149999999999 -0.64832099999999981 9.7000000000000011 9.9000000000000021 5.3000000000000016 5.5000000000000009 -0.68372099999999991 4.5000000000000009 6.4000000000000012
decision_type=2 2 2 2 2 2 2 2 2 2 2 2 2 2 2 2 2 2 2 2 2 2 2 2 2 2 2 2 2 2
left_child=1 2 13 10 -3 -4 7 -7 -8 -10 -2 -12 -13 14 -1 16 -6 18 25 -19 -20 -17 -16 -21 -25 -14 -27 -9 -29 -30
right_child=3 4 5 -5 15 6 8 27 9 -11 11 12 17 -15 22 21 -18 19 20 23 -22 -23 -24 24 -26 26 -28 28 29 -31
leaf_value=0.028767544352317855 0.020028538912444244 0.024376412115866906 0.002629568487887644 0.020209673319346394 0.016165137663191262 0.0026377130568749404 -0.026831590515865936 -0.014855508539290865 -0.11814615531265736 -0.0021177209244489042 -0.022895653862654689 0.028539469511943916 0.00042659665200187318 -0.001986587189821237 -0.020916136452098499 0.0011749183580726658 0.00045000631732318262 0.036051366672915919 -0.038235590836449174 -0.0053966415354856113 -0.0047934952014673784 0.031269217228054633 0.03877226266919262 0.073619846644230505 -0.011080086918091682 0.047384205333974833 0.004953044695918141 0.022125734065267005 -0.023923254536906403 0.0015418814655212493
leaf_weight=4493 11118 17695 11468 71461 10302 12275 24949 122811 200 6735 3135 4744 6366 52875 1890 2651 32261 3192 3166 6339 3203 4855 533 1589 3110 1554 1579 3240 9688 9708
leaf_count=4493 11118 17695 11468 71461 10302 12275 24949 122811 200 6735 3135 4744 6366 52875 1890 2651 32261 3192 3166 6339 3203 4855 533 1589 3110 1554 1579 3240 9688 9708
internal_value=0 -0.00560403 -0.0100012 0.0152763 0.0113234 -0.0130017 -0.0139472 -0.0122821 -0.022184 -0.00546389 0.00809541 0.00460192 0.00707608 8.94097e-05 0.0159611 0.00671029 0.00425372 0.00369306 -0.0032919 0.011482 -0.0214174 0.0206404 -0.00778617 0.00437702 0.0175618 0.0088611 0.0259993 -0.0135412 -0.0064107 -0.0111776
internal_weight=0 328629 260865 120556 67764 201074 189606 157722 31884 6935 49095 37977 34842 59791 6916 50069 42563 30098 15868 14230 6369 7506 2423 11038 4699 9499 3133 145447 22636 19396
internal_count=449185 328629 260865 120556 67764 201074 189606 157722 31884 6935 49095 37977 34842 59791 6916 50069 42563 30098 15868 14230 6369 7506 2423 11038 4699 9499 3133 145447 22636 19396
is_linear=0
shrinkage=0.1


Tree=22
num_leaves=31
num_cat=0
split_feature=0 0 1 1 0 0 0 0 1 1 1 1 1 1 1 1 1 1 1 1 0 1 1 0 1 1 1 1 1 0
split_gain=3138.21 1767.13 630.081 574.252 492.204 291.028 221.549 187.989 250.211 585.408 221.953 207.284 180.122 289.872 266.73 263.04 174.516 174.341 626.347 157.805 155.943 149.804 286.987 270.745 245.696 386.647 274.285 235.744 279.251 264.513
threshold=-0.55310649999999983 -1.4004149999999997 2.9000000000000004 11.500000000000002 -0.64492099999999997 -0.8552114999999999 -1.7481649999999997 -0.69782099999999991 9.9000000000000021 9.7000000000000011 10.100000000000001 4.5000000000000009 6.1000000000000005 8.4000000000000004 7.0500000000000007 7.4500000000000002 5.3000000000000016 5.7000000000000002 6.7000000000000002 8.4000000000000004 -1.3142649999999998 5.5000000000000009 4.9000000000000012 -0.75422099999999992 6.7000000000000002 7.0500000000000007 6.4000000000000012 6.4000000000000012 7.0500000000000007 -0.72241149999999987
decision_type=2 2 2 2 2 2 2 2 2 2 2 2 2 2 2 2 2 2 2 2 2 2 2 2 2 2 2 2 2 2
left_child=1 6 -3 4 5 16 -1 21 9 11 -10 -9 -13 14 -14 -16 -4 -2 -19 -20 -5 22 -7 24 26 -26 -23 29 -29 -25
right_child=17 2 3 20 -6 7 -8 8 10 -11 -12 12 13 -15 15 -17 -18 18 19 -21 -22 23 -24 27 25 -27 -28 28 -30 -31
leaf_value=0.030460213954651306 0.020134720100252121 0.0050827870164128972 -0.0023608259202643183 0.029183015298700623 0.001046917905702973 -0.018708415639847924 0.011189704001599269 0.0073916593724559949 -0.080709441559053574 0.077805823329137935 -0.0087356843882693911 -0.026478225500090203 -0.0077444078247423291 -0.030143483727659483 0.082971831752202185 0.0041364112470853821 -0.010462161086049625 -0.0098164648794566746 0.032292974546097697 0.014356556742644378 0.0045456831438315456 -0.02132208742203506 0.0038640584851571957 -0.079584063422714735 0.037245601747796266 -0.014372111472561245 -0.06728600330205517 0.0090719769876749425 -0.034585946756799449 -0.025410073021130741
leaf_weight=7043 56922 38853 36089 4175 38236 22621 39015 6004 849 827 865 6769 2590 2552 841 852 101026 10021 7352 14738 6679 6489 7500 2054 1615 14305 1623 1837 7237 1606
leaf_count=7043 56922 38853 36089 4175 38236 22621 39015 6004 849 827 865 6769 2590 2552 841 852 101026 10021 7352 14738 6679 6489 7500 2054 1615 14305 1623 1837 7237 1606
internal_value=0 -0.00415586 -0.00683821 -0.00852098 -0.00944646 -0.0112206 0.0141365 -0.0156723 -0.00768728 -0.00460909 -0.0443866 -0.00808508 -0.0149156 -0.00346462 0.0124318 0.043298 -0.00832987 0.0168111 0.0109194 0.0203262 0.0140225 -0.0183165 -0.013088 -0.0226 -0.0163534 -0.00913577 -0.0305183 -0.0343888 -0.0257476 -0.0558126
internal_weight=0 360152 314094 275241 264387 226151 46058 89036 22149 20435 1714 19608 13604 6835 4283 1693 137115 89033 32111 22090 10854 66887 30121 36766 24032 15920 8112 12734 9074 3660
internal_count=449185 360152 314094 275241 264387 226151 46058 89036 22149 20435 1714 19608 13604 6835 4283 1693 137115 89033 32111 22090 10854 66887 30121 36766 24032 15920 8112 12734 9074 3660
is_linear=0
shrinkage=0.1


Tree=23
num_leaves=31
num_cat=0
split_feature=0 1 1 0 0 0 1 1 1 0 1 1 1 1 1 1 1 0 1 0 0 0 0 1 0 1 1 1 1 1
split_gain=2559.35 1659.34 534.113 295.996 277.621 204.977 186.062 238.993 238.726 159.452 154.771 297.427 241.929 223.77 684.706 155.792 151.299 395.356 210.254 695.45 376.808 168.42 148.041 250.69 224.348 249.424 289.002 179.199 175.38 331.311
threshold=-0.61661149999999987 10.900000000000002 3.9000000000000004 -0.48061149999999991 -1.6655649999999997 -0.99546449999999986 3.4000000000000008 3.9000000000000004 4.5000000000000009 -0.97592099999999993 6.7000000000000002 5.7000000000000002 8.4000000000000004 9.7000000000000011 9.9000000000000021 5.3000000000000016 10.300000000000002 -1.2905149999999999 10.500000000000002 -1.1936149999999996 -1.2271649999999996 -1.1157699999999997 -0.69782099999999991 4.5000000000000009 -0.7614209999999999 4.5000000000000009 4.7000000000000002 4.3000000000000016 6.4000000000000012 9.9000000000000021
decision_type=2 2 2 2 2 2 2 2 2 2 2 2 2 2 2 2 2 2 2 2 2 2 2 2 2 2 2 2 2 2
left_child=1 2 9 6 -3 16 -2 -8 -9 -1 11 15 -12 -14 -15 -10 21 -18 19 -19 -20 -4 24 -24 25 27 -27 -7 -25 -30
right_child=3 4 5 -5 -6 22 7 8 10 -11 12 -13 13 14 -16 -17 17 18 20 -21 -22 -23 23 28 -26 26 -28 -29 29 -31
leaf_value=0.01349525860318973 0.017695130278083164 0.02181306580623206 0.01619050898493336 0.017985170678990501 0.0060775342787777473 -0.017190733962093706 -0.017485535005466478 0.024984595613917138 0.00050328051829199704 -0.001887125641124117 0.026568669004685366 -0.015703977207422379 -0.0098920588536473581 0.061741009799278483 -0.0091882822329635433 0.023758988262235166 0.0022494271204659753 0.015594686100314146 -0.052733668207113893 -0.066995507518589667 -0.0037604911194225954 -0.0041725871750728661 0.017190865912883751 -0.018911990073067514 -0.023297578501918794 0.016998854373224199 -0.011502641191541291 -0.044031461232357599 0.0059106708518154062 -0.033738582502509704
leaf_weight=7741 15310 14179 4725 53768 53585 7503 4281 6501 8760 52050 6514 8718 6569 2158 3685 4292 11468 1510 1995 3139 7394 28933 3919 11720 22462 3733 75749 3721 10464 2639
leaf_count=7741 15310 14179 4725 53768 53585 7503 4281 6501 8760 52050 6514 8718 6569 2158 3685 4292 11468 1510 1995 3139 7394 28933 3919 11720 22462 3733 75749 3721 10464 2639
internal_value=0 -0.00457187 -0.00819351 0.0124627 0.00937005 -0.010661 0.00801675 0.00513831 0.00719041 0.000104395 0.00434786 -0.00140216 0.0109619 0.0027713 0.0170081 0.00815065 -0.00571612 -0.0115253 -0.0227781 -0.0401701 -0.0141664 -0.00131396 -0.0127225 -0.00631356 -0.0143503 -0.0121346 -0.010164 -0.026089 -0.0100244 -0.00207486
internal_weight=0 328629 260865 120556 67764 201074 66788 51478 47197 59791 40696 21770 18926 12412 5843 13052 59164 25506 14038 4649 9389 33658 141910 28742 113168 90706 79482 11224 24823 13103
internal_count=449185 328629 260865 120556 67764 201074 66788 51478 47197 59791 40696 21770 18926 12412 5843 13052 59164 25506 14038 4649 9389 33658 141910 28742 113168 90706 79482 11224 24823 13103
is_linear=0
shrinkage=0.1


Tree=24
num_leaves=31
num_cat=0
split_feature=0 0 1 1 0 0 1 1 1 1 1 1 0 0 0 0 0 1 1 0 0 1 1 0 1 0 0 1 1 1
split_gain=2095.78 1226.48 462.078 448.697 281.381 311.786 154.344 190.769 143.528 157.037 194.176 210.805 318.442 184.221 249.391 164.141 138.597 114.392 220.76 487.323 135.331 109.317 405.432 301.285 156.418 1011.05 287.964 401.326 194.551 240.762
threshold=-0.54962099999999992 -1.5007599999999999 11.900000000000002 2.9000000000000004 -0.64142099999999991 -0.97592099999999993 5.1000000000000005 4.9000000000000012 4.7000000000000002 3.4000000000000008 3.9000000000000004 4.5000000000000009 -0.69782099999999991 -0.76505949999999989 -0.86520599999999992 -0.6697209999999999 -0.38891149999999991 2.3000000000000003 2.5500000000000003 -0.68007099999999987 -0.82402099999999989 6.7000000000000002 7.0500000000000007 -0.71542099999999986 8.4000000000000004 -0.70856799999999986 -0.74001149999999993 9.5000000000000018 9.7000000000000011 9.9000000000000021
decision_type=2 2 2 2 2 2 2 2 2 2 2 2 2 2 2 2 2 2 2 2 2 2 2 2 2 2 2 2 2 2
left_child=1 -1 3 17 5 -5 7 8 9 13 -11 12 -12 14 -7 -13 -2 -3 -19 20 -20 -8 23 -23 25 -24 27 -26 -28 -30
right_child=16 2 -4 4 -6 6 21 -9 -10 10 11 15 -14 -15 -16 -17 -18 18 19 -21 -22 22 24 -25 26 -27 28 -29 29 -31
leaf_value=0.015353811502482729 0.012054459483471535 0.015049174118375192 0.024026339354524456 -0.0039692519231083242 0.00097004823702892561 -0.0092405564581333061 -0.017813543071690828 0.011064109329426853 -0.024353239137191215 0.0075415918595110338 -0.021072502673683557 0.013535326632441867 0.016393402877450378 -0.00038881455374499053 -0.047761767129459821 -0.049250639571826189 0.022486674357263092 -0.0073551588363578169 0.0076943378770852446 0.03899654616869571 -0.013858482548250421 0.028150425001105775 -0.039660569890957634 -0.028533489318892758 0.013988790679496444 0.036756251930406846 -0.040129973839705874 -0.012637956222573441 0.020493747619912031 -0.02734911870607426
leaf_weight=31944 71862 8014 5334 100599 38148 3541 37662 5315 5343 10682 13327 4906 2734 3979 3199 455 15478 14517 7723 4194 4678 4143 8613 1212 7585 2167 4766 22311 1571 3183
leaf_count=31944 71862 8014 5334 100599 38148 3541 37662 5315 5343 10682 13327 4906 2734 3979 3199 455 15478 14517 7723 4194 4678 4143 8613 1212 7585 2167 4766 22311 1571 3183
internal_value=0 -0.00335587 -0.00516752 -0.00564729 -0.00702387 -0.00825703 -0.0111975 -0.00691518 -0.00889915 -0.00697095 -0.00347181 -0.00896361 -0.0146948 -0.017451 -0.0275238 0.00820654 0.0139032 0.00439539 0.00165113 0.00952967 -0.000435982 -0.0136544 -0.0108347 0.0153211 -0.013625 -0.0242992 -0.0107057 -0.00588241 -0.0258525 -0.011539
internal_weight=0 361845 329901 324567 285441 247293 146694 53481 48166 42823 32104 21422 16061 10719 6740 5361 87340 39126 31112 16595 12401 93213 55551 5355 50196 10780 39416 29896 9520 4754
internal_count=449185 361845 329901 324567 285441 247293 146694 53481 48166 42823 32104 21422 16061 10719 6740 5361 87340 39126 31112 16595 12401 93213 55551 5355 50196 10780 39416 29896 9520 4754
is_linear=0
shrinkage=0.1


Tree=25
num_leaves=31
num_cat=0
split_feature=0 1 1 0 0 0 0 1 1 1 1 1 1 1 1 0 1 0 1 1 1 1 1 0 1 0 1 1 1 1
split_gain=1697.58 1024.94 361.108 231.479 268.162 183.868 144.541 126.456 218.129 245.817 195.03 124.819 656.113 310.257 190.079 164.267 322.959 121.507 146.712 439.143 184.264 145.155 450.678 166.197 123.062 120.555 109.157 107.003 718.432 212.403
threshold=-0.54962099999999992 11.300000000000002 2.9000000000000004 -1.4734149999999999 -0.64492099999999997 -0.8449589999999999 -1.7048149999999997 4.9000000000000012 6.7000000000000002 5.7000000000000002 5.3000000000000016 7.0500000000000007 8.4000000000000004 9.5000000000000018 6.7000000000000002 -0.88462099999999988 7.4500000000000002 -0.70132099999999986 9.9000000000000021 9.7000000000000011 10.100000000000001 10.100000000000001 10.300000000000002 -0.74702099999999982 9.5000000000000018 -1.1250149999999997 11.100000000000001 9.7000000000000011 9.9000000000000021 8.4000000000000004
decision_type=2 2 2 2 2 2 2 2 2 2 2 2 2 2 2 2 2 2 2 2 2 2 2 2 2 2 2 2 2 2
left_child=1 2 -1 26 5 11 -3 -2 9 10 -9 14 15 -14 -5 25 -17 21 19 24 -20 -7 23 -23 -19 -13 -4 29 -29 -6
right_child=7 6 3 4 27 17 -8 8 -10 -11 -12 12 13 -15 -16 16 -18 18 20 -21 -22 22 -24 -25 -26 -27 -28 28 -30 -31
leaf_value=0.0039558537542426619 0.016251449175328062 0.021818298768704128 0.016852531851413045 -0.0040074821500597699 0.0018457645322031747 -0.01306765748205292 0.0080761825483944543 -0.00086597052021312668 0.015724037001883188 -0.010168136857767622 0.025227438536795124 0.0076875368861245019 0.013286224786565326 -0.0078019747032892399 0.020940043561638106 -0.017189972820798493 -0.11812659364116929 -0.0048131060097538082 -0.065082573299579199 0.065470432566720888 -0.0015641149798491611 -0.078034808785103424 0.017438414626944381 -0.020190286804348097 -0.042474146311344885 -0.032877033877909766 -0.0036168603179615282 0.070993325672922075 -0.012881706617628911 -0.021212361863791294
leaf_weight=39126 44440 9742 6124 61377 30460 57617 35710 6103 21591 9808 5398 819 7881 60793 3214 637 631 19992 905 885 922 1568 1130 727 907 6948 4534 1531 3067 4598
leaf_count=39126 44440 9742 6124 61377 30460 57617 35710 6103 21591 9808 5398 819 7881 60793 3214 637 631 19992 905 885 922 1568 1130 727 907 6948 4534 1531 3067 4598
internal_value=0 -0.00302029 -0.0050375 -0.00630658 -0.00688429 -0.00820999 0.0110216 0.0125129 0.00864012 0.00146246 0.011381 -0.00601465 -0.0087148 -0.0053819 -0.00276611 -0.0340478 -0.0674195 -0.0119003 -0.00580866 -0.00352581 -0.0330278 -0.0142566 -0.0342574 -0.0597111 -0.00644757 -0.0285997 0.00814469 0.000702797 0.0150462 -0.0011784
internal_weight=0 361845 316393 277267 266609 226953 45452 87340 42900 21309 11501 142300 77709 68674 64591 9035 1268 84653 23611 21784 1827 61042 3425 2295 20899 7767 10658 39656 4598 35058
internal_count=449185 361845 316393 277267 266609 226953 45452 87340 42900 21309 11501 142300 77709 68674 64591 9035 1268 84653 23611 21784 1827 61042 3425 2295 20899 7767 10658 39656 4598 35058
is_linear=0
shrinkage=0.1


Tree=26
num_leaves=31
num_cat=0
split_feature=0 1 1 1 0 0 0 1 1 1 0 0 1 1 1 0 1 0 1 1 0 1 0 0 1 0 1 1 0 0
split_gain=1387.27 937.296 319.42 197.852 167.162 157.208 142.738 189.546 172.434 139.735 168.003 127.459 127.346 126.738 180.727 196.642 178.183 501.025 248.217 415.347 641.393 206.698 532.008 290.925 240.026 264.955 441.219 372.528 303.258 178.615
threshold=-0.61661149999999987 10.900000000000002 5.1000000000000005 3.4000000000000008 -1.7726149999999998 -1.2905149999999999 -0.50247099999999989 3.9000000000000004 4.3000000000000016 2.3000000000000003 -0.75422099999999992 -0.65182099999999987 10.500000000000002 10.100000000000001 10.700000000000001 -1.2781149999999999 8.4000000000000004 -0.73642099999999988 9.7000000000000011 9.9000000000000021 -0.70856799999999986 7.4500000000000002 -0.78952099999999992 -1.0653149999999998 6.7000000000000002 -0.68712099999999987 7.0500000000000007 7.0500000000000007 -0.70856799999999986 -0.82761149999999983
decision_type=2 2 2 2 2 2 2 2 2 2 2 2 2 2 2 2 2 2 2 2 2 2 2 2 2 2 2 2 2 2
left_child=1 2 9 -2 -3 12 7 -5 -9 10 -1 -12 -4 16 -15 -16 21 -18 -19 20 -20 24 23 -23 29 26 28 -27 -26 -7
right_child=3 4 5 6 -6 13 -8 8 -10 -11 11 -13 -14 14 15 -17 17 18 19 -21 -22 22 -24 -25 25 27 -28 -29 -30 -31
leaf_value=0.022993548768167258 0.016025633183414042 0.024154553424345786 0.020195168874307286 -0.019342392201603678 0.0056649260514089438 -0.0070069398914771848 0.010666447737279386 0.025544088045689684 0.0025791437460767012 -0.0027700298171481601 -0.023799057129149436 0.029989429600745039 -0.0038833069837193378 -0.019367553551420707 -0.098834831073880192 0.0017835752450597823 0.0043823684061403472 -0.035215605375848551 -0.073631463324839039 -0.03519748273065753 0.062804170246188187 -0.0073070025675293811 0.011114010367574046 -0.055141874917437522 0.022200966916724081 -0.0063475117374473741 -0.021979292128678645 0.074535422113053862 -0.074494017591511003 -0.018652552058628796
leaf_weight=4602 31238 5305 2961 3589 62459 29545 45914 3594 36221 97138 1722 592 8507 24949 200 6735 27235 5795 451 1926 1460 1780 2783 4450 5417 1151 6231 1127 345 23763
leaf_count=4602 31238 5305 2961 3589 62459 29545 45914 3594 36221 97138 1722 592 8507 24949 200 6735 27235 5795 451 1926 1460 1780 2783 4450 5417 1151 6231 1127 345 23763
internal_value=0 -0.00336596 -0.00608789 0.00917543 0.00711241 -0.00893835 0.00677964 0.00266807 0.00465213 -0.00179221 0.0119416 -0.0100381 0.00233368 -0.00982774 -0.0153982 -0.00111818 -0.00826235 -0.00255038 -0.0221531 -0.00242482 0.0306051 -0.0110118 -0.0252366 -0.0414748 -0.00911461 0.0024038 -0.00353463 0.0336679 0.0164114 -0.0121982
internal_weight=0 328629 260865 120556 67764 156811 89318 43404 39815 104054 6916 2314 11468 145343 31884 6935 113459 36867 9632 3837 1911 76592 9013 6230 67579 14271 11993 2278 5762 53308
internal_count=449185 328629 260865 120556 67764 156811 89318 43404 39815 104054 6916 2314 11468 145343 31884 6935 113459 36867 9632 3837 1911 76592 9013 6230 67579 14271 11993 2278 5762 53308
is_linear=0
shrinkage=0.1


Tree=27
num_leaves=31
num_cat=0
split_feature=0 0 1 1 1 1 0 1 1 0 1 0 0 1 1 0 1 0 1 0 1 0 1 0 1 0 0 1 0 1
split_gain=1130.5 711.823 314.751 268.229 272.56 207.186 233.964 678.352 389.817 380.356 364.709 238.748 200.138 197.541 791.084 184.154 203.915 180.719 156.222 152.108 150.873 189.034 253.359 183.757 150.334 144.823 142.187 133.553 112.982 105.467
threshold=-0.54962099999999992 -1.5007599999999999 11.900000000000002 5.5000000000000009 6.7000000000000002 7.0500000000000007 -0.68007099999999987 7.4500000000000002 8.4000000000000004 -0.73282099999999983 9.5000000000000018 -0.71201149999999991 -0.8310209999999999 9.7000000000000011 9.9000000000000021 -0.64832099999999981 5.3000000000000016 -0.71900599999999992 4.9000000000000012 -0.98242099999999988 10.700000000000001 -1.2650149999999998 10.100000000000001 -0.77912099999999984 10.500000000000002 -0.71900599999999992 -1.2398149999999999 5.1000000000000005 -0.6697209999999999 9.9000000000000021
decision_type=2 2 2 2 2 2 2 2 2 2 2 2 2 2 2 2 2 2 2 2 2 2 2 2 2 2 2 2 2 2
left_child=1 -1 3 15 12 25 8 -8 11 10 -10 -7 -5 -9 -15 19 18 -14 -17 -3 21 24 29 -24 -12 -6 -22 -20 -19 -23
right_child=-2 2 -4 4 5 6 7 13 9 -11 20 -13 17 14 -16 16 -18 28 27 -21 26 22 23 -25 -26 -27 -28 -29 -30 -31
leaf_value=0.011788782100404488 0.010211224891875788 0.0055785372319743102 0.020249594522622219 -0.0066780571763892576 0.020835722711823965 -0.026134020684768507 0.059047522931516529 -0.012056969390213538 0.01319878147029622 -0.031565542738567466 0.020592023285751018 0.023641194662498241 -0.031098038480061554 0.061924504189606183 -0.013547247346611585 0.0073785090068854298 0.041868805417600158 0.0012531943206395941 -0.036937542606538643 -0.0043608154750984342 -0.0062962602296757269 -0.0090704367103832395 -0.017662770834265307 -0.065841096210001268 -0.0085812546875642763 -0.0074288133154788195 0.005451347616364316 0.0042508112297285584 -0.01870694133503259 0.0077941859979023575
leaf_weight=31944 87340 18527 5334 21761 5239 13285 2078 8375 11477 5101 3357 1039 9010 2075 4200 22107 1542 4010 1581 91138 25124 10235 21451 822 3728 2772 17465 1568 9685 5815
leaf_count=31944 87340 18527 5334 21761 5239 13285 2078 8375 11477 5101 3357 1039 9010 2075 4200 22107 1542 4010 1581 91138 25124 10235 21451 822 3728 2772 17465 1568 9685 5815
internal_value=0 -0.00246472 -0.00384488 -0.00424085 -0.0066894 -0.00457148 -0.00549451 0.00557858 -0.00705239 -0.00493325 -0.00356755 -0.0225235 -0.0135309 -0.00200561 0.0114095 -0.000865707 0.00656562 -0.0200989 0.00441019 -0.00268164 -0.0057543 -0.0097644 -0.0125386 -0.0194408 0.00524157 0.0110555 -0.00147877 -0.0164284 -0.0128625 -0.00296029
internal_weight=0 361845 329901 324567 188104 143638 135627 16728 118899 104575 99474 14324 44466 14650 6275 136463 26798 22705 25256 109665 87997 45408 38323 22273 7085 8011 42589 3149 13695 16050
internal_count=449185 361845 329901 324567 188104 143638 135627 16728 118899 104575 99474 14324 44466 14650 6275 136463 26798 22705 25256 109665 87997 45408 38323 22273 7085 8011 42589 3149 13695 16050
is_linear=0
shrinkage=0.1


Tree=28
num_leaves=31
num_cat=0
split_feature=0 1 1 0 1 1 1 1 1 0 1 1 1 1 0 0 1 1 1 0 1 1 1 0 0 1 1 0 0 1
split_gain=919.308 657.199 196.714 183.852 151.828 132.894 518.695 210.239 159.945 158.276 127.067 228.938 255.7 169.357 107.081 95.9269 91.0837 140.636 102.421 87.8817 86.2017 81.0879 132.923 214.668 205.312 90.2969 80.2819 152.578 133.648 114.016
threshold=-0.61661149999999987 11.300000000000002 3.9000000000000004 -1.0200699999999998 3.4000000000000008 6.7000000000000002 5.7000000000000002 7.4500000000000002 3.9000000000000004 -0.59922099999999989 9.5000000000000018 9.9000000000000021 9.7000000000000011 9.3000000000000025 -0.95982099999999992 -1.3142649999999998 4.3000000000000016 5.3000000000000016 4.9000000000000012 -0.43775949999999991 5.5000000000000009 3.4000000000000008 2.9000000000000004 -0.77581149999999988 -0.8552114999999999 3.1000000000000005 10.300000000000002 -1.4485599999999998 -1.1250149999999997 11.100000000000001
decision_type=2 2 2 2 2 2 2 2 2 2 2 2 2 2 2 2 2 2 2 2 2 2 2 2 2 2 2 2 2 2
left_child=1 2 14 26 -2 6 8 -7 9 -6 13 12 -12 -9 -1 -3 -10 18 -18 -11 -19 22 -16 24 25 -24 28 29 -4 -28
right_child=4 15 3 -5 5 7 -8 10 16 19 11 -13 -14 -15 21 -17 17 20 -20 -21 -22 -23 23 -25 -26 -27 27 -29 -30 -31
leaf_value=0.0099838419687500683 0.013470049298636377 0.010920115976208252 0.020048899750462503 -0.0078587619440261946 -0.054847014322876933 0.024395746143516403 -0.014141534866835052 0.0070419365167477543 0.021447031315955087 -0.0090404060871643894 0.0063873831810210809 -0.004863634564354154 0.041272907097517242 -0.020685007896908796 0.00019679168896238688 -2.664686014127373e-05 0.010284959304029147 0.028598893666239186 -0.004377981826516622 0.010265175607239763 0.0065458139325948296 0.0062583424530677752 0.0069699629122639455 0.002222205048638281 -0.047203910795184684 -0.025890274774793789 0.012816263908543719 -0.0077017574953755193 -0.00024765925351939716 -0.0066544735297193866
leaf_weight=10039 31238 35080 3829 152124 560 8187 14109 5997 6884 5113 4701 5074 3799 3482 27803 10372 11273 4648 8250 4376 2865 10957 1667 5102 2545 1678 7683 33563 21245 4942
leaf_count=10039 31238 35080 3829 152124 560 8187 14109 5997 6884 5113 4701 5074 3799 3482 27803 10372 11273 4648 8250 4376 2865 10957 1667 5102 2545 1678 7683 33563 21245 4942
internal_value=0 -0.00274006 -0.00453166 -0.00589524 0.00746924 0.00537052 0.00254152 0.0106299 0.00789486 -0.00318614 0.00574112 0.0119452 0.0219792 -0.00314323 0.000562804 0.0084221 0.0111777 0.00856286 0.00408872 -0.000137337 0.0201892 -0.00133818 -0.00348369 -0.0127931 -0.0257995 -0.00951419 -0.00170368 -0.00417669 0.00285179 0.00519453
internal_weight=0 328629 283177 223386 120556 89318 58078 31240 43969 10049 23053 13574 8500 9479 59791 45452 33920 27036 19523 9489 7513 49752 38795 10992 5890 3345 71262 46188 25074 12625
internal_count=449185 328629 283177 223386 120556 89318 58078 31240 43969 10049 23053 13574 8500 9479 59791 45452 33920 27036 19523 9489 7513 49752 38795 10992 5890 3345 71262 46188 25074 12625
is_linear=0
shrinkage=0.1


Tree=29
num_leaves=31
num_cat=0
split_feature=0 0 1 1 1 1 0 1 1 0 1 0 1 1 0 0 1 0 1 0 1 1 1 0 0 0 1 0 1 0
split_gain=761.971 480.527 232.646 197.962 208.704 166.318 179.836 529.547 312.689 298.833 302.361 196.131 153.513 612.039 152.402 154.887 128.065 127.582 113.191 111.425 234.566 208.446 171.327 162.913 116.826 111.429 111.108 150.936 205.765 138.645
threshold=-0.54620599999999986 -1.5007599999999999 11.900000000000002 5.5000000000000009 6.7000000000000002 7.0500000000000007 -0.68007099999999987 7.4500000000000002 8.4000000000000004 -0.72942099999999988 9.5000000000000018 -0.71201149999999991 9.7000000000000011 9.9000000000000021 -0.82761149999999983 -0.71900599999999992 2.3000000000000003 -0.72241149999999987 6.4000000000000012 -0.65182099999999987 2.5500000000000003 2.9000000000000004 5.3000000000000016 -0.62380599999999986 -0.62380599999999986 -1.0653149999999998 10.700000000000001 -1.2650149999999998 10.100000000000001 -0.77912099999999984
decision_type=2 2 2 2 2 2 2 2 2 2 2 2 2 2 2 2 2 2 2 2 2 2 2 2 2 2 2 2 2 2
left_child=1 -1 3 16 14 17 8 -8 11 10 -10 -7 -9 -14 -5 -16 -3 -6 -17 25 23 24 -23 -21 -22 -18 27 -12 -29 -30
right_child=-2 2 -4 4 5 6 7 12 9 -11 26 -13 13 -15 15 18 19 -19 -20 20 21 22 -24 -25 -26 -27 -28 28 29 -31
leaf_value=0.0097147837859494889 0.0084863784633464577 0.011644430976405572 0.01758843058549002 -0.0056114539548645405 0.019606518532656363 -0.023051563171579869 0.051605288014966368 -0.010346805167047342 0.012326150859151709 -0.028487776859327865 0.0051339871335651082 0.022062951101534136 0.053954075799232587 -0.01160617709314149 -0.027739675018757612 -0.015279397553467841 0.014582662179336819 -0.0066531958495817545 0.0071573747584572148 -0.057316998774164664 0.061212420112946454 0.0012665288787769939 0.034873007846089675 -0.0071940044688026594 0.019515645090827892 -0.0034715862140332191 -0.0011786383718546123 -0.0021733314260502143 -0.015382225589292446 -0.055991909509045895
leaf_weight=31944 85632 8069 5334 22047 5187 13285 2137 8588 11593 4766 7085 1039 2128 4304 8724 11157 3541 2876 2816 882 918 18560 1652 2449 2507 98834 42589 16216 21451 875
leaf_count=31944 85632 8069 5334 22047 5187 13285 2137 8588 11593 4766 7085 1039 2128 4304 8724 11157 3541 2876 2816 882 918 18560 1652 2449 2507 98834 42589 16216 21451 875
internal_value=0 -0.0019989 -0.00312728 -0.00346595 -0.005567 -0.00371476 -0.00454174 0.00502905 -0.0059228 -0.00402485 -0.00285671 -0.0197792 -0.00159767 0.0100842 -0.011533 -0.017285 -0.000578193 0.0102399 -0.0107577 -0.0013407 0.00437793 0.00787899 0.00401331 -0.0204658 0.0306916 -0.00284712 -0.00485198 -0.00828074 -0.0107467 -0.0169738
internal_weight=0 363553 331609 326275 188863 144119 136056 17157 118899 104575 99809 14324 15020 6432 44744 22697 137412 8063 13973 129343 26968 23637 20212 3331 3425 102375 88216 45627 38542 22326
internal_count=449185 363553 331609 326275 188863 144119 136056 17157 118899 104575 99809 14324 15020 6432 44744 22697 137412 8063 13973 129343 26968 23637 20212 3331 3425 102375 88216 45627 38542 22326
is_linear=0
shrinkage=0.1


Tree=30
num_leaves=31
num_cat=0
split_feature=0 1 1 0 0 0 0 0 1 1 1 0 0 0 0 1 1 1 1 1 1 1 1 1 0 0 0 0 0 0
split_gain=617.196 395.421 163.633 93.2471 87.5268 114.969 80.4132 67.41 62.9135 133.556 152.817 212.712 135.342 105.282 62.0143 56.8851 127.985 154.212 89.6393 83.96 81.4782 168.744 52.715 119.221 352.773 99.4444 93.1533 78.8373 129.068 88.4422
threshold=-0.54620599999999986 11.300000000000002 2.9000000000000004 -0.37795649999999997 -0.63441149999999991 -0.98242099999999988 -1.7726149999999998 -0.99849399999999988 10.500000000000002 10.100000000000001 10.300000000000002 -0.74001149999999993 -0.8032999999999999 -0.86837099999999989 -0.7614209999999999 4.5000000000000009 6.7000000000000002 5.7000000000000002 5.3000000000000016 8.4000000000000004 9.7000000000000011 9.9000000000000021 2.3000000000000003 2.5500000000000003 -0.68372099999999991 -0.71201149999999991 -0.61661149999999987 -0.77212099999999995 -0.65532099999999993 -0.69782099999999991
decision_type=2 2 2 2 2 2 2 2 2 2 2 2 2 2 2 2 2 2 2 2 2 2 2 2 2 2 2 2 2 2
left_child=1 2 7 15 5 -4 -3 -1 9 -7 11 12 -11 -12 -14 -2 17 18 -17 -18 -21 -22 27 25 -25 -24 -26 -9 29 -29
right_child=3 6 4 -5 -6 8 -8 22 -10 10 13 -13 14 -15 -16 16 19 -19 -20 20 21 -23 23 24 26 -27 -28 28 -30 -31
leaf_value=0.017773089051538515 0.0095425637531196747 0.018496729670606841 -0.0017404001830068868 0.015805159403920903 0.00065794609675389349 -0.0058369888883311113 0.0053967389790406089 0.019513343702591224 0.0059229526239401482 -0.030427774505413646 -0.017575849046263081 0.00083906997795406421 -0.09051558017553582 0.018271892279661542 -0.037912108323403769 -0.00013132535842812456 0.019114017042059166 -0.01144823303245837 0.017152928788438996 -0.0013917448556641544 0.032548971311389577 -0.00249356915944925 -0.00024988055704274029 -0.0040033191353285218 0.044786753709350466 -0.017471912408726923 0.015764558373148062 -0.0028082652647899494 0.018269408316026668 -0.047181899480051054
leaf_weight=2859 31234 5305 89418 12017 36618 139621 40147 3766 4127 2874 1820 1710 673 1490 336 9312 6500 8919 4427 7722 2673 2828 9189 10137 2146 5279 2282 1244 1809 703
leaf_count=2859 31234 5305 89418 12017 36618 139621 40147 3766 4127 2874 1820 1710 673 1490 336 9312 6500 8919 4427 7722 2673 2828 9189 10137 2146 5279 2282 1244 1809 703
internal_value=0 -0.00179901 -0.00304565 0.00763774 -0.00389859 -0.00458786 0.00692572 0.0029853 -0.00625581 -0.00659422 -0.0184694 -0.0285482 -0.0414898 -0.00143895 -0.0729985 0.00630448 0.00391808 -0.00120901 0.00543803 0.00980812 0.00523365 0.014534 0.00182873 -0.000104189 0.00628256 -0.00653376 0.02983 0.00928932 -0.000961927 -0.0188302
internal_weight=0 363553 318101 85632 278687 242069 45452 39414 152651 148524 8903 5593 3883 3310 1009 73615 42381 22658 13739 19723 13223 5501 36555 29033 14565 14468 4428 7522 3756 1947
internal_count=449185 363553 318101 85632 278687 242069 45452 39414 152651 148524 8903 5593 3883 3310 1009 73615 42381 22658 13739 19723 13223 5501 36555 29033 14565 14468 4428 7522 3756 1947
is_linear=0
shrinkage=0.1


Tree=31
num_leaves=31
num_cat=0
split_feature=0 0 1 1 1 1 0 1 1 0 0 0 1 0 0 0 0 1 1 1 0 0 1 0 0 0 1 1 1 0
split_gain=499.929 336.653 172.799 153.533 163.537 143.448 223.263 231.884 223.302 236.408 124.014 125.541 120.653 479.096 231.77 97.457 90.2641 128.865 112.251 104.782 102.108 92.5175 86.6603 244.905 79.0202 86.1172 78.7499 93.656 89.5552 79.5002
threshold=-0.54620599999999986 -1.5007599999999999 11.900000000000002 5.5000000000000009 6.7000000000000002 7.4500000000000002 -0.69080649999999999 7.0500000000000007 7.0500000000000007 -0.70492099999999991 -0.82402099999999989 -0.71900599999999992 8.4000000000000004 -0.79982099999999989 -1.0458699999999996 -0.65532099999999993 -0.64832099999999981 5.3000000000000016 4.9000000000000012 5.1000000000000005 -0.8449589999999999 -0.62730649999999988 9.3000000000000025 -0.71900599999999992 -0.90062099999999989 -0.83461149999999995 3.1000000000000005 3.4000000000000008 3.9000000000000004 -1.0763699999999996
decision_type=2 2 2 2 2 2 2 2 2 2 2 2 2 2 2 2 2 2 2 2 2 2 2 2 2 2 2 2 2 2
left_child=1 -1 3 16 10 6 8 -8 9 -6 -5 -12 13 14 -7 -13 20 18 -18 21 26 -20 23 -14 -16 -26 -3 -28 -29 -30
right_child=-2 2 -4 4 5 12 7 -9 -10 -11 11 15 22 -15 24 -17 17 -19 19 -21 -22 -23 -24 -25 25 -27 27 28 29 -31
leaf_value=0.0081853963149275243 0.0068739665002093614 0.006785810414229149 0.015289913776176287 -0.0047135744558406923 0.016880033457222221 -0.0053880282535828886 0.0022179190528430746 0.046864224643526749 -0.014741204940805538 -0.086182157961844377 -0.024875786550432662 0.0014521245226394239 0.0179030712787276 0.011958036230099818 -0.034955554973451715 -0.015838104289056527 0.0055700763010467563 0.032341485515585154 -0.078633089825115382 0.0037474165266421634 -0.0047163932420112541 -0.019965401406074158 -0.0040655211680010479 -0.018131914805560447 -0.08024361249535604 -0.031537383932708184 -0.016929252264433158 0.012738286905530744 0.015099781257711881 -0.0033600260285369201
leaf_weight=31944 85632 18224 5334 22335 5475 2080 2356 2298 6182 232 8436 5181 5874 4050 2375 8792 22889 1599 339 1622 53703 1298 108804 2778 1064 551 3448 4994 2556 26740
leaf_count=31944 85632 18224 5334 22335 5475 2080 2356 2298 6182 232 8436 5181 5874 4050 2375 8792 22889 1599 339 1622 53703 1298 108804 2778 1064 551 3448 4994 2556 26740
internal_value=0 -0.00161911 -0.00256358 -0.00285545 -0.00470578 -0.00306616 0.00569505 0.0242629 -0.0015734 0.0126904 -0.00998693 -0.0152429 -0.00420224 -0.0146791 -0.0324519 -0.00942712 -0.000312308 0.00478301 0.00309775 -0.0142662 -0.0016015 -0.0321147 -0.00329956 0.00633289 -0.0465603 -0.0636262 0.00138765 -0.00121917 0.000360541 -0.00174946
internal_weight=0 363553 331609 326275 188863 144119 16543 4654 11889 5707 44744 22409 127576 10120 6070 13973 137412 27747 26148 3259 109665 1637 117456 8652 3990 1615 55962 37738 34290 29296
internal_count=449185 363553 331609 326275 188863 144119 16543 4654 11889 5707 44744 22409 127576 10120 6070 13973 137412 27747 26148 3259 109665 1637 117456 8652 3990 1615 55962 37738 34290 29296
is_linear=0
shrinkage=0.1


Tree=32
num_leaves=31
num_cat=0
split_feature=0 0 1 1 0 1 0 0 0 0 1 1 1 0 0 1 1 0 0 0 0 1 1 1 1 1 1 1 1 0
split_gain=406.748 288.787 123.226 138.923 84.2017 78.6089 77.4181 99.4474 78.5002 71.5324 554.292 98.6953 230.783 326.079 203.742 142.773 151.824 135.762 262.864 100.995 185.721 179.295 463.115 112.749 216.43 300.377 152.804 107.595 101.969 97.1831
threshold=-0.56761149999999982 -1.3392149999999998 5.5000000000000009 11.100000000000001 -0.38381149999999992 2.3000000000000003 -0.76862099999999989 -0.65901149999999986 -0.69422099999999987 -1.2398149999999999 10.500000000000002 10.500000000000002 10.300000000000002 -0.90381149999999988 -1.1456149999999998 10.100000000000001 6.7000000000000002 -1.1825649999999996 -1.1064149999999997 -0.66621149999999985 -0.73642099999999988 8.4000000000000004 7.0500000000000007 7.4500000000000002 9.7000000000000011 9.9000000000000021 7.0500000000000007 8.4000000000000004 9.3000000000000025 -0.84151149999999986
decision_type=2 2 2 2 2 2 2 2 2 2 2 2 2 2 2 2 2 2 2 2 2 2 2 2 2 2 2 2 2 2
left_child=1 -1 5 9 -2 6 -3 8 -8 10 -4 12 14 17 -11 16 29 -14 -19 20 21 22 -18 26 -25 -26 -21 -22 -23 -16
right_child=4 2 3 -5 -6 -7 7 -9 -10 11 -12 -13 13 -15 15 -17 19 18 -20 23 27 28 -24 24 25 -27 -28 -29 -30 -31
leaf_value=0.0050861963777178894 0.0045587336144445349 0.018048409797733193 0.035591118406890755 0.0041236607922542521 0.013019102214014703 -0.0011233263857697571 -0.0034450948820305425 0.016734758629557128 -0.04756766877128462 0.025277138326398947 -0.033161662244563461 0.0022374928759035764 -0.0010488450917015815 0.010524964305276191 -0.0042119903946840143 -0.017412904973476685 0.016880917303222078 -0.083588036605261484 -0.028666505232333252 0.0010717342195795058 -0.002458801368912948 0.016309186662805529 -0.019445276292574833 -0.009634909771838689 0.053149454713319291 -0.0085523170923316287 0.044757105359395644 -0.024942893927890633 0.0011592067666806043 -0.013771208663596225
leaf_weight=55017 82427 4369 1562 16424 13722 123886 1238 1525 598 2184 4704 16227 908 2067 20464 9338 4959 1194 3226 1616 3415 5590 12007 6338 1584 1572 1587 5649 21645 22143
leaf_count=55017 82427 4369 1562 16424 13722 123886 1238 1525 598 2184 4704 16227 908 2067 20464 9338 4959 1194 3226 1616 3415 5590 12007 6338 1584 1572 1587 5649 21645 22143
