tree
version=v3
num_class=1
num_tree_per_iteration=1
label_index=0
max_feature_idx=1
objective=regression
feature_names=Column_0 Column_1
feature_infos=[-1.8810199999999999:-0.308618] [2:12]
tree_sizes=2958 3004 3012 3022 3021 3054 3024 3028 3033 3024 3033 3017 3025 3005 3008 3029 3028 2996 3033 3051 3004 3036 3035 3022 3036 3043 3024 3037 3060 3048 2999 2993 2996 3020 3048 3023 3016 3038 3015 3003 3054 3041 3051 3031 3071 3036 2964 3026 3053 3007 3027 2982 3051 3037 3021 2987 2992 3016 2978 3017 3000 3038 2999 3025 2999 3015 3006 3005 3016 3040 3005 3057 2986 2994 2988 3010 2988 2980 3007 2971 3003 3013 3034 2974 2986 3011 2982 3013 2959 2997 2948 2977 2983 3007 2980 3017 3015 2959 2971 2967

Tree=0
num_leaves=31
num_cat=0
split_feature=0 1 1 0 0 0 0 0 1 1 1 1 0 1 1 1 0 0 0 0 1 1 1 1 0 1 1 1 0 0
split_gain=438429 222109 52019.6 30980.5 22123.6 21287.1 21259.6 12568 8347.54 8295.64 5626.5 5835 4848.07 4797.22 3961.63 5032.15 3185.4 2326.05 1557.66 1398.16 1366.74 2544.53 1313.32 1255.92 1212.32 1146.78 1488.64 1056.43 1041.94 1206.8
threshold=-0.59947099999999987 10.900000000000002 2.7000000000000006 -1.5234649999999996 -0.63397099999999995 -0.51737099999999991 -0.87697099999999983 -1.3479649999999996 11.500000000000002 5.1000000000000005 5.5000000000000009 6.7000000000000002 -0.66817099999999996 5.1000000000000005 5.5000000000000009 7.3000000000000016 -1.4477149999999999 -0.77907099999999996 -1.6445099999999997 -0.56142099999999984 6.9000000000000012 6.7000000000000002 4.3000000000000007 5.7000000000000002 -0.97997099999999981 7.7000000000000002 8.9000000000000021 8.9000000000000021 -0.86467099999999986 -0.6304209999999999
decision_type=2 2 2 2 2 2 2 2 2 2 2 2 2 2 2 2 2 2 2 2 2 2 2 2 2 2 2 2 2 2
left_child=1 2 28 18 6 10 7 -4 16 -8 -2 23 17 -9 -7 20 -5 27 -3 -13 21 -16 -6 -12 -15 -19 -27 -11 -1 -30
right_child=5 3 4 8 22 14 9 13 -10 12 11 19 -14 24 15 -17 -18 25 -20 -21 -22 -23 -24 -25 -26 26 -28 -29 29 -31
leaf_value=-4.5636832824593547 -4.4874464787391535 -4.4193473465403939 -4.5959497213050575 -4.530925436054603 -4.5703760017596258 -4.4254298597826249 -4.7265235178848011 -4.6779709410887698 -4.523171178314831 -4.7858054465285651 -4.5515243705346817 -4.5595192259611377 -4.7276031043719824 -4.7201881268306671 -4.5310124885271037 -4.4455315758844556 -4.6326547155408546 -4.7910320793619725 -4.4674068395490183 -4.5102460637736161 -4.5945390053562996 -4.4208287347366513 -4.6398752170901929 -4.6614526094560702 -4.7417617216580332 -4.8506180579394016 -4.7998202553848941 -4.751537190237773 -4.6135146855401485 -4.5294822744187604
leaf_weight=10434 19224 16135 8661 3663 3304 42683 34954 22124 16517 28166 1293 10792 13567 63002 8991 30580 19274 21300 11587 12348 2012 2733 15357 5297 44408 10672 12557 13218 14925 1930
leaf_count=10434 19224 16135 8661 3663 3304 42683 34954 22124 16517 28166 1293 10792 13567 63002 8991 30580 19274 21300 11587 12348 2012 2733 15357 5297 44408 10672 12557 13218 14925 1930
internal_value=-4.63127 -4.6857 -4.72054 -4.52045 -4.73291 -4.47686 -4.74012 -4.71258 -4.57738 -4.76843 -4.52961 -4.55687 -4.78316 -4.72037 -4.44717 -4.46812 -4.61641 -4.79193 -4.43943 -4.53323 -4.51839 -4.50533 -4.62757 -4.63988 -4.72911 -4.80779 -4.82316 -4.77486 -4.58852 -4.60389
internal_weight=0 385755 318579 67176 291290 135953 272629 138195 39454 134434 48954 29730 99480 129534 86999 44316 22937 85913 27722 23140 13736 11724 18661 6590 107410 44529 23229 41384 27289 16855
internal_count=521708 385755 318579 67176 291290 135953 272629 138195 39454 134434 48954 29730 99480 129534 86999 44316 22937 85913 27722 23140 13736 11724 18661 6590 107410 44529 23229 41384 27289 16855
is_linear=0
shrinkage=1


Tree=1
num_leaves=31
num_cat=0
split_feature=0 1 1 0 0 0 0 0 1 1 1 1 1 1 1 0 0 0 0 1 1 0 0 1 1 1 1 1 1 1
split_gain=355327 181393 41901.8 25094.2 18741.7 15119.4 17896.6 10379.9 6761.51 6346.16 4475.27 4598.74 4204.51 3529.3 4414.93 3524.71 2580.17 1993.44 1294.52 1117.06 2259.74 1108.84 1107.23 1027.15 991.898 986.032 970.402 3003.66 1688.1 1539.65
threshold=-0.60302099999999992 10.900000000000002 2.7000000000000006 -1.5234649999999996 -0.52462099999999989 -0.63752099999999989 -0.86772099999999985 -1.3338149999999998 11.500000000000002 5.1000000000000005 5.5000000000000009 6.7000000000000002 5.1000000000000005 5.5000000000000009 7.3000000000000016 -0.67792099999999988 -1.4477149999999999 -0.77582099999999987 -1.6224649999999998 6.9000000000000012 6.7000000000000002 -0.96687099999999992 -0.56832099999999997 4.3000000000000007 5.7000000000000002 11.300000000000002 8.9000000000000021 7.7000000000000002 9.1000000000000014 7.3000000000000016
decision_type=2 2 2 2 2 2 2 2 2 2 2 2 2 2 2 2 2 2 2 2 2 2 2 2 2 2 2 2 2 2
left_child=1 2 -1 18 10 6 7 -4 16 -8 -2 24 -9 -6 19 17 -5 -11 -3 20 -15 -14 -13 -7 -12 -18 27 29 -28 -17
right_child=4 3 5 8 13 23 9 12 -10 15 11 22 21 14 -16 26 25 -19 -20 -21 -22 -23 -24 -25 -26 -27 28 -29 -30 -31
leaf_value=0.037804125693003642 0.12482502509059284 0.18825553254378902 0.027821777842436612 0.090313533744453139 0.18419914030278509 0.045345114272957565 -0.088000109578039457 -0.042734261474268953 0.097292368065048998 -0.13159856802579453 0.065807065521193864 0.0577510574100275 -0.081394453180568205 0.087177430231825198 0.16547916185179945 -0.094998525968109149 -0.016097170449232878 -0.16360673037125392 0.1427221878952015 0.032124736445954621 0.18865067384319112 -0.10191804684466546 0.1026449932605995 -0.016120053757435544 -0.033466440056536449 0.033197382583231717 0.093994392746321431 -0.18292844730904517 -0.081798902036176124 0.02655154796587731
leaf_weight=27064 18330 18224 9337 3663 44428 3304 33111 23437 16517 38605 1256 9813 67905 9532 32169 6475 13466 39229 9498 2129 2851 42991 12481 15350 5066 5808 636 3920 3871 1242
leaf_count=27064 18330 18224 9337 3663 44428 3304 33111 23437 16517 38605 1256 9813 67905 9532 32169 6475 13466 39229 9498 2129 2851 42991 12481 15350 5066 5808 636 3920 3871 1242
internal_value=0 -0.0495059 -0.0811853 0.0997408 0.137576 -0.0923124 -0.0983117 -0.0741313 0.0485082 -0.125647 0.0862476 0.0615368 -0.0812177 0.164025 0.144824 -0.138911 0.0133786 -0.147731 0.172655 0.0990361 0.11054 -0.0893508 0.0828843 -0.00523333 -0.0137436 -0.00124282 -0.0963876 -0.111645 -0.056992 -0.0754358
internal_weight=0 383653 316477 67176 138055 289413 270759 143670 39454 127089 46946 28616 134333 91109 46681 93978 22937 77834 27722 14512 12383 110896 22294 18654 6322 19274 16144 11637 4507 7717
internal_count=521708 383653 316477 67176 138055 289413 270759 143670 39454 127089 46946 28616 134333 91109 46681 93978 22937 77834 27722 14512 12383 110896 22294 18654 6322 19274 16144 11637 4507 7717
is_linear=0
shrinkage=0.1


Tree=2
num_leaves=31
num_cat=0
split_feature=0 1 1 0 0 0 0 0 1 1 1 1 0 1 0 1 1 1 0 0 1 0 1 1 1 1 1 1 0 0
split_gain=288112 144664 34319.4 20326.3 16715 14109.9 13391.5 8244.27 5728.61 5629.22 4233.77 4584.78 2994.68 2938.68 2094.16 1760.8 1759.01 2319.36 1408.69 1372.95 1243.06 1083.17 1029.3 1078.96 961.279 1124.51 954.774 820.284 817.271 1173.4
threshold=-0.59607099999999991 10.900000000000002 2.7000000000000006 -1.5234649999999996 -0.63397099999999995 -0.88632099999999991 -0.49207099999999998 -1.3617149999999998 4.7000000000000002 11.700000000000001 5.5000000000000009 6.7000000000000002 -0.67137099999999983 5.1000000000000005 -0.7856709999999999 11.300000000000002 5.5000000000000009 7.3000000000000016 -1.4616149999999999 -0.55137099999999994 5.7000000000000002 -1.6655149999999999 7.7000000000000002 8.9000000000000021 6.9000000000000012 6.7000000000000002 4.3000000000000007 3.3000000000000003 -0.8421209999999999 -0.62712099999999993
decision_type=2 2 2 2 2 2 2 2 2 2 2 2 2 2 2 2 2 2 2 2 2 2 2 2 2 2 2 2 2 2
left_child=1 2 28 21 5 7 10 -4 -7 15 -2 20 14 27 -10 18 -8 24 -5 -13 -12 -3 -16 -24 25 -18 -6 -9 -1 -30
right_child=6 3 4 9 26 8 16 13 12 -11 11 19 -14 -15 22 -17 17 -19 -20 -21 -22 -23 23 -25 -26 -27 -28 -29 29 -31
leaf_value=0.054966405333393725 0.12421664522434075 0.17480857833842836 0.03364234714672628 0.076851667849974117 0.052037997013339832 -0.070069748582448271 0.17094810387205006 -0.0051579115550817239 -0.11185096934620926 0.10465059975442559 0.082977814154904558 0.065062903518902121 -0.080519997068577154 -0.078004754888988961 -0.12750266887645231 0.048187492881496985 0.093812500042037783 0.1565886269152067 -0.013095895750966225 0.10928672808425036 -0.014021001027991664 0.1352688293377354 -0.17939095676443975 -0.13687394766825436 0.030740227338045035 0.1740651237488203 -0.004552888571529164 -0.049281575513397874 0.0098499732270434619 0.092968747579266722
leaf_weight=11873 24512 14107 7990 1990 3621 28198 36601 5873 46046 10937 1648 12626 16038 103922 25602 12603 6993 25089 13924 15811 6662 13615 10996 13055 1636 2327 16876 14909 13689 1939
leaf_count=11873 24512 14107 7990 1990 3621 28198 36601 5873 46046 10937 1648 12626 16038 103922 25602 12603 6993 25089 13924 15811 6662 13615 10996 13055 1636 2327 16876 14909 13689 1939
internal_value=0 -0.0436677 -0.0716241 0.0897667 -0.0816452 -0.0881929 0.126466 -0.0648307 -0.110346 0.0436574 0.0920282 0.0705569 -0.12051 -0.07114 -0.127212 0.0202649 0.155506 0.139826 -0.00184821 0.0896514 0.00521535 0.15539 -0.141458 -0.156313 0.10144 0.11385 0.00544446 -0.0368122 0.0351885 0.0201627
internal_weight=0 387803 320627 67176 293126 272629 133905 132694 139935 39454 61259 36747 111737 124704 95699 28517 72646 36045 15914 28437 8310 27722 49653 24051 10956 9320 20497 20782 27501 15628
internal_count=521708 387803 320627 67176 293126 272629 133905 132694 139935 39454 61259 36747 111737 124704 95699 28517 72646 36045 15914 28437 8310 27722 49653 24051 10956 9320 20497 20782 27501 15628
is_linear=0
shrinkage=0.1


Tree=3
num_leaves=31
num_cat=0
split_feature=0 1 1 0 0 0 0 0 1 1 1 0 1 0 0 0 1 1 1 1 1 1 0 1 1 0 0 0 1 1
split_gain=233483 116249 27933.4 16504.7 15556 11133.4 10116.6 6609.85 4875.34 4408.46 3520.73 3025.58 2219.76 1954.34 1583.19 1529.64 1403.43 1273.36 1871.99 964.697 936.725 2036.7 897.935 855.145 1564.44 830.42 821.448 903.601 764.01 2032.75
threshold=-0.59257099999999985 10.900000000000002 2.7000000000000006 -1.5401149999999999 -0.6304209999999999 -0.89587099999999986 -0.48502099999999998 -1.3763649999999996 5.1000000000000005 11.300000000000002 4.3000000000000007 -0.66122099999999995 5.1000000000000005 -0.55472099999999991 -0.82222099999999987 -1.4477149999999999 11.700000000000001 5.7000000000000002 7.3000000000000016 5.3000000000000016 7.3000000000000016 5.7000000000000002 -0.7856709999999999 5.5000000000000009 6.7000000000000002 -0.65117099999999983 -0.69122099999999986 -0.75597099999999984 7.9000000000000012 8.5000000000000018
decision_type=2 2 2 2 2 2 2 2 2 2 2 2 2 2 2 2 2 2 2 2 2 2 2 2 2 2 2 2 2 2
left_child=1 2 -1 -3 5 7 10 -4 22 15 -2 14 -9 -12 19 -5 -11 -8 -19 -10 21 -15 -7 -6 -25 -24 27 -16 -26 -30
right_child=6 3 4 9 23 8 17 12 11 16 13 -13 -14 20 26 -17 -18 18 -20 -21 -22 -23 25 24 28 -27 -28 -29 29 -31
leaf_value=0.032187002356397508 0.12517481958161555 0.14293189497519029 0.034974495409866954 0.065857940719988337 0.040737235688606793 -0.048850149477787957 0.15474991884158515 -0.032080356561508448 -0.18400339998013515 0.04575635398923536 0.044583562526114645 -0.061503023993236809 -0.06902825691889676 0.10837292720336802 -0.11600125111791498 -0.013177863919536304 0.093643221441503 0.089679627108090465 0.14254500329796421 -0.092710451868979596 0.10390686533064325 0.031128729784836714 -0.087573048742076692 -0.066439646801418395 0.052130867657591375 -0.031032684031875958 -0.099777758378788106 -0.14207797469503 -0.096116428233596229 0.026428655114010182
leaf_weight=27713 16971 26121 7298 2993 6613 15850 35704 19400 1203 13141 16704 12139 100468 6563 27252 13466 11455 9370 23491 30595 15871 7113 19327 3034 3641 3001 12027 25934 1801 5449
leaf_count=27713 16971 26121 7298 2993 6613 15850 35704 19400 1203 13141 16704 12139 100468 6563 27252 13466 11455 9370 23491 30595 15871 7113 19327 3034 3641 3001 12027 25934 1801 5449
internal_value=0 -0.0388921 -0.0638027 0.08079 -0.0728192 -0.0791002 0.115071 -0.0574229 -0.0978109 0.0412526 0.0862175 -0.10857 -0.0630484 0.0719228 -0.114459 0.00119447 0.0680585 0.141676 0.127471 -0.0961643 0.0873786 0.0681976 -0.0670524 0.0111272 -0.00293467 -0.0799737 -0.123379 -0.128717 0.0147565 -0.00401323
internal_weight=0 389921 322745 67176 295032 274494 131787 127166 147328 41055 63222 109150 119868 46251 97011 16459 24596 68565 32861 31798 29547 13676 38178 20538 13925 22328 65213 53186 10891 7250
internal_count=521708 389921 322745 67176 295032 274494 131787 127166 147328 41055 63222 109150 119868 46251 97011 16459 24596 68565 32861 31798 29547 13676 38178 20538 13925 22328 65213 53186 10891 7250
is_linear=0
shrinkage=0.1


Tree=4
num_leaves=31
num_cat=0
split_feature=0 1 1 0 0 0 0 0 1 1 0 1 1 0 1 1 1 0 0 1 1 1 1 1 1 1 1 0 0 1
split_gain=189528 97287.4 22148.2 13398.4 11177.8 8144.49 7380.16 7642.46 3714.51 2646.18 2594.09 2574.01 1937.89 1340.05 1292.77 2369.88 1291.74 1283.7 1180.14 1163.67 1650.2 1554.59 1987.47 1094.03 1090.2 1097.84 1080.78 954.69 861.653 832.882
threshold=-0.60647099999999987 10.900000000000002 2.9000000000000004 -1.5234649999999996 -0.53147099999999992 -1.3198149999999997 -0.64442099999999991 -0.84867099999999984 11.700000000000001 4.3000000000000007 -0.45112099999999994 5.5000000000000009 6.9000000000000012 -0.68122099999999997 5.7000000000000002 6.7000000000000002 2.7000000000000006 -1.4760149999999999 -0.75922099999999981 7.3000000000000016 5.7000000000000002 7.9000000000000012 8.5000000000000018 8.7000000000000011 6.7000000000000002 6.9000000000000012 11.300000000000002 -1.0200699999999998 -1.6868149999999997 3.3000000000000003
decision_type=2 2 2 2 2 2 2 2 2 2 2 2 2 2 2 2 2 2 2 2 2 2 2 2 2 2 2 2 2 2
left_child=1 2 16 28 9 -4 7 12 17 -2 14 -9 29 18 -6 -16 -1 -5 -13 20 -11 -21 -23 27 -22 -26 -19 -14 -3 -7
right_child=4 3 5 8 10 6 -8 11 -10 19 -12 13 23 -15 15 -17 -18 26 -20 21 24 22 -24 -25 25 -27 -28 -29 -30 -31
leaf_value=0.02691673844372592 0.09931379938035631 0.14603509392437436 0.019530558561541331 0.077649101174196378 0.11981430319205955 -0.0087554192243683871 -0.013589986539084215 -0.073345379467866123 0.084821220747163556 0.059679622950648228 0.13443575022907397 -0.10043669262731439 -0.059706566247773298 -0.078346472800070108 0.022158993867494137 0.10108565423525084 -0.023245994622647426 -0.009123834672180137 -0.1279499158187293 0.12060464178931217 -0.0368045728161394 -0.018243666252022769 0.068134685507625012 -0.062261525554650102 0.11556032850074278 -0.0026598560033415306 0.032428518787667643 -0.096836264026694832 0.11048392497999762 -0.050867033765790153
leaf_weight=26885 11659 12091 10023 3044 20587 5188 19867 32718 10937 7018 50338 34086 10004 13550 4721 19593 6345 14400 28731 3548 4857 3547 10697 54920 1167 2403 11073 22500 15631 49580
leaf_count=26885 11659 12091 10023 3044 20587 5188 19867 32718 10937 7018 50338 34086 10004 13550 4721 19593 6345 14400 28731 3548 4857 3547 10697 54920 1167 2403 11073 22500 15631 49580
internal_value=0 -0.0365264 -0.0598668 0.072711 0.0994577 -0.0689914 -0.0722636 -0.0769026 0.0352753 0.058323 0.118849 -0.0968137 -0.0616275 -0.106868 0.101374 0.0857606 0.0173386 0.0162732 -0.113021 0.0439441 0.0238614 0.0613777 0.046625 -0.0708675 -0.00596802 0.0359852 0.00893879 -0.0854086 0.12599 -0.0468779
internal_weight=0 381573 314397 67176 140135 281167 271144 251277 39454 44896 95239 109085 142192 76367 44901 24314 33230 28517 62817 33237 15445 17792 14244 87424 8427 3570 25473 32504 27722 54768
internal_count=521708 381573 314397 67176 140135 281167 271144 251277 39454 44896 95239 109085 142192 76367 44901 24314 33230 28517 62817 33237 15445 17792 14244 87424 8427 3570 25473 32504 27722 54768
is_linear=0
shrinkage=0.1


Tree=5
num_leaves=31
num_cat=0
split_feature=0 1 1 0 0 0 0 0 1 1 1 0 1 0 0 0 1 0 0 1 0 0 0 0 1 1 0 0 1 1
split_gain=153920 75776.7 18432.9 11379.8 10901.9 7667.55 6235.41 4380.57 3617.55 2904.22 2341.62 1784.22 1436.86 1294.32 1279.25 1052.27 911.348 820.571 707.464 690.592 658.415 1090.05 653.766 744.959 646.33 1334.94 644.32 636.861 619.061 846.677
threshold=-0.5890709999999999 10.900000000000002 2.7000000000000006 -0.6304209999999999 -1.5401149999999999 -0.90887099999999987 -0.47432099999999994 -1.3907649999999998 4.7000000000000002 11.300000000000002 4.3000000000000007 -0.65782099999999988 5.1000000000000005 -0.54462099999999991 -0.82222099999999987 -1.4329149999999997 11.700000000000001 -0.39622099999999999 -0.69462099999999982 4.3000000000000007 -0.62377099999999985 -0.79562099999999991 -0.77237099999999992 -0.64792099999999986 7.3000000000000016 5.7000000000000002 -1.3048149999999998 -0.75922099999999981 7.3000000000000016 5.7000000000000002
decision_type=2 2 2 2 2 2 2 2 2 2 2 2 2 2 2 2 2 2 2 2 2 2 2 2 2 2 2 2 2 2
left_child=1 2 20 5 -3 7 10 -4 22 15 -2 14 -9 28 -10 -6 -11 -8 27 -5 21 -1 -7 -24 25 -15 -14 -16 29 -12
right_child=6 4 3 19 9 8 17 12 11 16 13 -13 26 24 18 -17 -18 -19 -20 -21 -22 -23 23 -25 -26 -27 -28 -29 -30 -31
leaf_value=0.039698038395514487 0.10395484424805537 0.11594470397061774 0.034114047066260464 0.047975488149053329 0.049677182113080622 -0.033578070789399533 0.10813280968797134 -0.02341375346927178 -0.076093314170314286 0.037091802288279782 0.056093579141463915 -0.049352909053636596 -0.01600779734367682 0.091430469312638929 -0.092995424039299224 -0.012285246328244324 0.075680727656851021 0.13169786484696988 -0.079751499023453395 0.0018464789339913041 0.080082578251511785 -0.0018951167755996844 -0.070715640909821964 -0.0047979447641421091 0.088985657709896082 0.02884670235210933 -0.056318574961017248 -0.11433927008612779 0.058651833942248578 -0.0049299311119569127
leaf_weight=14857 18165 26121 6593 3936 3474 15270 38536 17517 40221 13141 4198 11713 4145 6630 27978 12985 11455 23967 15894 18498 2116 10941 13884 1956 15763 7014 91382 27941 10457 4960
leaf_count=14857 18165 26121 6593 3936 3474 15270 38536 17517 40221 13141 4198 11713 4145 6630 27978 12985 11455 23967 15894 18498 2116 10941 13884 1956 15763 7014 91382 27941 10457 4960
internal_value=0 -0.0312417 -0.051235 -0.0585388 0.0654399 -0.0641354 0.0944352 -0.0451205 -0.0788257 0.0333066 0.0732863 -0.0864891 -0.0497416 0.0619221 -0.0903717 0.000793159 0.0550637 0.117169 -0.0983687 0.00993972 0.0264568 0.0220583 -0.0483426 -0.0625758 0.0751928 0.0592579 -0.0545695 -0.10366 0.0420265 0.0230431
internal_weight=0 392018 324842 296928 67176 274494 129690 119637 154857 41055 67187 123747 113044 49022 112034 16459 24596 62503 71813 22434 27914 25798 31110 15840 29407 13644 95527 55919 19615 9158
internal_count=521708 392018 324842 296928 67176 274494 129690 119637 154857 41055 67187 123747 113044 49022 112034 16459 24596 62503 71813 22434 27914 25798 31110 15840 29407 13644 95527 55919 19615 9158
is_linear=0
shrinkage=0.1


Tree=6
num_leaves=31
num_cat=0
split_feature=0 1 1 0 0 0 0 0 1 1 1 0 0 0 1 1 1 1 1 1 1 1 0 1 1 1 1 1 1 1
split_gain=124742 60892.2 15128.8 10163 8877.21 6145.47 4675.02 3486.22 2491.71 2345.64 1849.64 1604.88 1349.64 1031.51 1005.08 1852.37 1138.46 1627.48 863.614 851.146 1450.38 832.353 718.745 707.616 1078.33 721.319 689.912 675.292 632.935 862.255
threshold=-0.58557099999999995 10.900000000000002 2.9000000000000004 -0.62712099999999993 -1.5575649999999996 -0.93102099999999988 -0.47032099999999993 -1.4048149999999997 4.7000000000000002 11.300000000000002 4.3000000000000007 -0.65782099999999988 -0.82557099999999994 -1.4616149999999999 7.3000000000000016 5.7000000000000002 7.9000000000000012 8.5000000000000018 6.9000000000000012 6.7000000000000002 6.9000000000000012 2.7000000000000006 -1.3048149999999998 5.7000000000000002 7.3000000000000016 6.9000000000000012 11.700000000000001 6.7000000000000002 8.9000000000000021 7.1000000000000005
decision_type=2 2 2 2 2 2 2 2 2 2 2 2 2 2 2 2 2 2 2 2 2 2 2 2 2 2 2 2 2 2
left_child=1 2 21 5 -3 7 10 -4 -7 13 -2 12 28 -6 15 -12 -16 -18 -9 -17 -21 -1 -20 -8 25 27 -11 -25 29 -10
right_child=6 4 3 -5 9 8 23 18 11 26 14 -13 -14 -15 16 19 17 -19 22 20 -22 -23 -24 24 -26 -27 -28 -29 -30 -31
leaf_value=0.024210300825283644 0.094968503632615262 0.10695240225907586 0.034970534831629319 0.01251462846703974 0.054895788369149968 -0.043951243636220681 0.11636273280328116 -0.030933933050107568 -0.060510302691350853 0.035115328195258755 0.07211349823483261 -0.042949431840130357 -0.088313817264850963 -0.0090054419210070635 0.11201365991370014 -0.0060943981973862011 0.013413256131705353 0.077094158473402119 -0.013400163282225217 0.11882158990963887 0.0035368045137400533 -0.015079727788776018 -0.053530871855903099 0.056273811806399759 0.10687729437702626 -0.0049755186599258865 0.067943991594792238 0.12569887339768693 -0.050449701505249182 -0.093096133313776641
leaf_weight=28139 18251 24449 5925 21865 3086 29183 31919 33640 18578 13702 10892 13133 73357 13924 5386 7325 5437 15326 4813 1799 2774 6670 61361 4757 20436 1287 12015 1986 15867 14426
leaf_count=28139 18251 24449 5925 21865 3086 29183 31919 33640 18578 13702 10892 13133 73357 13924 5386 7325 5437 15326 4813 1799 2774 6670 61361 4757 20436 1287 12015 1986 15867 14426
internal_value=0 -0.0278198 -0.0456362 -0.0530613 0.0588959 -0.0583662 0.085947 -0.0395561 -0.0704539 0.0313973 0.0677994 -0.0761677 -0.0797369 0.00258769 0.0576671 0.0423164 0.0710459 0.0604187 -0.04398 0.0150386 0.0488894 0.0166817 -0.0506121 0.10614 0.0946769 0.0636275 0.0504529 0.0767214 -0.0668628 -0.0747535
internal_weight=0 394133 326957 292148 67176 270283 127575 105739 164544 42727 67190 135361 122228 17010 48939 22790 26149 20763 99814 11898 4573 34809 66174 60385 28466 8030 25717 6743 48871 33004
internal_count=521708 394133 326957 292148 67176 270283 127575 105739 164544 42727 67190 135361 122228 17010 48939 22790 26149 20763 99814 11898 4573 34809 66174 60385 28466 8030 25717 6743 48871 33004
is_linear=0
shrinkage=0.1


Tree=7
num_leaves=31
num_cat=0
split_feature=0 1 1 0 0 0 0 0 1 0 1 1 1 0 1 1 1 1 0 1 0 0 1 1 1 0 1 0 1 1
split_gain=101425 52239.9 11711.9 7270.98 6671.62 4421.34 3156.02 4388.26 2250.06 1618.82 1502.18 1492.8 1208.55 1141.4 966.419 1814.51 858.382 1584.88 1088.68 1086.2 886.874 754.65 706.381 700.567 1679.44 699.483 999.541 699.414 882.354 641.208
threshold=-0.60992099999999982 10.900000000000002 2.9000000000000004 -1.5076649999999998 -0.53792099999999987 -1.3198149999999997 -0.64792099999999986 -0.84552099999999986 11.700000000000001 -0.42187099999999994 4.3000000000000007 5.5000000000000009 5.1000000000000005 -0.82557099999999994 5.7000000000000002 6.7000000000000002 8.9000000000000021 7.7000000000000002 -0.69462099999999982 7.3000000000000016 -0.74572099999999997 -1.6004149999999997 7.5000000000000009 6.7000000000000002 5.7000000000000002 -0.68122099999999997 9.1000000000000014 -0.98992099999999994 10.300000000000002 2.3000000000000003
decision_type=2 2 2 2 2 2 2 2 2 2 2 2 2 2 2 2 2 2 2 2 2 2 2 2 2 2 2 2 2 2
left_child=1 2 13 21 10 -4 7 12 -5 14 -2 -9 -7 29 -6 -16 17 18 -13 -20 -19 -3 -21 24 -12 -18 -27 28 -14 -1
right_child=4 3 5 8 9 6 -8 11 -10 -11 23 16 27 -15 15 -17 25 20 19 22 -22 -23 -24 -25 -26 26 -28 -29 -30 -31
leaf_value=0.055810705137153076 0.070691939352106117 0.10113461009888747 0.014361960895807652 0.0091241201754692358 0.090229699609164743 -0.024525236347511428 -0.014950880079024516 -0.053663033879373823 0.063672849417858501 0.10321420478893979 0.040223253479270263 -0.083553638796730931 -0.033494252811506531 -0.0056874691009460967 0.018111394647253899 0.076506498110100685 -0.071269628469303542 -0.088379039151828626 -0.05883606074292283 0.10477610229554171 -0.13161078637152254 0.066261344673607808 -0.033221666309906202 0.039163246087118846 -0.037833046453808916 0.10494263318859934 -0.04482225827662549 -0.056409492941133038 -0.061279203109560358 0.014834257244153071
leaf_weight=6454 11195 20306 10023 27505 28620 24059 19896 31669 10429 36029 6727 24104 41657 17147 6575 27904 19570 9592 6004 752 9391 8936 732 20508 4670 518 3190 62442 15751 9353
leaf_count=6454 11195 20306 10023 27505 28620 24059 19896 31669 10429 36029 6727 24104 41657 17147 6575 27904 19570 9592 6004 752 9391 8936 732 20508 4670 518 3190 62442 15751 9353
internal_value=0 -0.0269934 -0.0442012 0.0530063 0.0720214 -0.0508525 -0.0532794 -0.0563367 0.0241209 0.0863025 0.0391754 -0.0718264 -0.0449788 0.0121813 0.0766461 0.0653708 -0.0796151 -0.0869292 -0.073207 -0.039901 -0.109766 0.0904778 0.0367071 0.0281166 0.00823914 -0.0637241 -0.0239004 -0.0490847 -0.0411176 0.0315649
internal_weight=0 379480 312304 67176 142228 279350 269327 249431 37934 99128 43100 105522 143909 32954 63099 34479 73853 50575 31592 7488 18983 29242 1484 31905 11397 23278 3708 119850 57408 15807
internal_count=521708 379480 312304 67176 142228 279350 269327 249431 37934 99128 43100 105522 143909 32954 63099 34479 73853 50575 31592 7488 18983 29242 1484 31905 11397 23278 3708 119850 57408 15807
is_linear=0
shrinkage=0.1


Tree=8
num_leaves=31
num_cat=0
split_feature=0 1 1 0 0 0 0 0 1 1 1 1 1 0 1 1 0 1 0 0 1 1 1 1 0 0 0 1 1 1
split_gain=82294.2 39391 10148.3 8044.55 5889.49 4181.49 2676.24 2405.65 2029.71 1907.44 1185.43 1072.11 2036.7 1055.18 2556.85 904.157 897.741 1517.38 839.129 817.104 674.548 1229.85 823.568 1223.42 647.496 624.29 816.607 587.847 1364.19 621.354
threshold=-0.57862099999999994 10.900000000000002 2.7000000000000006 -0.62712099999999993 -1.5076649999999998 -0.92142099999999993 -0.46272099999999999 -1.4189149999999999 4.7000000000000002 11.500000000000002 4.3000000000000007 8.9000000000000021 7.5000000000000009 -0.69122099999999986 7.3000000000000016 3.3000000000000003 -0.6747709999999999 9.1000000000000014 -0.77907099999999996 -1.4329149999999997 7.3000000000000016 5.7000000000000002 7.9000000000000012 8.5000000000000018 -1.7102149999999998 -0.6304209999999999 -0.76917099999999994 5.5000000000000009 6.7000000000000002 7.9000000000000012
decision_type=2 2 2 2 2 2 2 2 2 2 2 2 2 2 2 2 2 2 2 2 2 2 2 2 2 2 2 2 2 2
left_child=1 2 25 5 24 7 10 -4 -7 19 -2 12 13 -10 -15 -9 18 -18 -13 -6 21 -12 -22 -24 -3 26 -1 -5 -29 -30
right_child=6 4 3 27 9 8 -8 15 11 -11 20 16 -14 14 -16 -17 17 -19 -20 -21 22 -23 23 -25 -26 -27 -28 28 29 -31
leaf_value=0.028565205637839465 0.079483892556721281 0.1018985249477187 0.034326794359410939 0.032998772129187705 0.046147032895298271 -0.034681917357415874 0.087392564287710653 0.010583694851085543 -0.064366242487605627 0.048330337066548934 0.061208260578553303 -0.042043434035259682 -0.088464060956891855 -0.045038059280898012 0.12115360654259731 -0.036913731694498082 0.12534244111155401 -0.031197036854083527 -0.075561333054463345 -0.0056783541483598331 0.095746799632417209 0.014664316875912319 0.011045626896784917 0.066231533865705669 0.07061207692147517 0.062364096828152783 -0.0091104355049647125 -0.051175451733436662 0.045704894625866188 0.00075368202345014264
leaf_weight=16537 18368 10111 5240 8442 3639 32931 56375 4170 47923 15744 10958 20295 32358 12312 1001 103022 718 4501 11819 18551 5325 11780 5461 15194 19131 3195 8822 3915 4602 9268
leaf_count=16537 18368 10111 5240 8442 3639 32931 56375 4170 47923 15744 10958 20295 32358 12312 1001 103022 718 4501 11819 18551 5325 11780 5461 15194 19131 3195 8822 3915 4602 9268
internal_value=0 -0.0221136 -0.0362803 -0.0416592 0.0477057 -0.0466834 0.0713316 -0.0318319 -0.0568739 0.0217088 0.057835 -0.0624556 -0.0681708 -0.0574475 -0.0325422 -0.035066 -0.0481277 -0.00966124 -0.0543791 0.00282064 0.0496728 0.037095 0.0606811 0.0516409 0.08143 0.0207069 0.0154584 0.0112686 0.000954015 0.0156683
internal_weight=0 398247 331071 302517 67176 276290 123461 112432 163858 37934 67086 130927 93594 61236 13313 107192 37333 5219 32114 22190 48718 22738 25980 20655 29242 28554 25359 26227 17785 13870
internal_count=521708 398247 331071 302517 67176 276290 123461 112432 163858 37934 67086 130927 93594 61236 13313 107192 37333 5219 32114 22190 48718 22738 25980 20655 29242 28554 25359 26227 17785 13870
is_linear=0
shrinkage=0.1


Tree=9
num_leaves=31
num_cat=0
split_feature=0 1 1 0 0 0 1 0 0 1 1 1 0 0 1 1 1 0 1 1 1 1 0 1 1 1 1 1 1 1
split_gain=66790.2 34592.8 7680.94 4829.13 4820.79 3048.4 1971.85 1731.8 2226.26 1451.31 1225.92 1062.39 803.271 855.948 802.113 758.883 897.245 604.158 598.92 566.559 796.772 702.54 564.517 523.208 1147.8 1520.31 697.864 658.327 629.027 528.123
threshold=-0.61342099999999988 10.900000000000002 2.7000000000000006 -1.5575649999999996 -0.54137099999999994 -1.3048149999999998 5.1000000000000005 -0.90237099999999992 -0.65447099999999991 11.300000000000002 4.3000000000000007 4.3000000000000007 -0.79887099999999989 -0.64792099999999986 8.5000000000000018 8.9000000000000021 7.5000000000000009 -1.4329149999999997 3.3000000000000003 5.7000000000000002 6.7000000000000002 8.1000000000000014 -0.89587099999999986 7.3000000000000016 7.9000000000000012 8.5000000000000018 5.7000000000000002 6.4000000000000012 9.1000000000000014 8.9000000000000021
decision_type=2 2 2 2 2 2 2 2 2 2 2 2 2 2 2 2 2 2 2 2 2 2 2 2 2 2 2 2 2 2
left_child=1 2 22 -3 11 -4 12 -8 15 17 -6 -2 18 -14 19 16 -9 -5 -7 -12 -21 -22 -1 26 -25 -26 -13 -28 29 -27
right_child=4 3 5 9 10 6 7 8 -10 -11 14 23 13 -15 -16 -17 -18 -19 -20 20 21 -23 -24 24 25 28 27 -29 -30 -31
leaf_value=0.03669819685291955 0.056355338560080265 0.078379568770266375 0.011243182692162838 0.033842086910658091 0.084963461227316059 0.0036393500395274243 -0.037460051592644747 -0.057883287408456711 -0.021306526917813786 0.037642275356313065 0.070235403690473139 0.030542324125670008 -0.048556032567069585 -0.0024836540599236906 0.07815434354801018 -0.048112794214954388 -0.080949855889732678 -0.01050075424566772 -0.025541519122844126 0.022019266324569332 0.069767086197282099 0.030948255249341101 0.0053365603372040604 0.084529751803301564 -0.038208814664494307 0.045634337484301311 -0.045597125836345224 0.011966236784830518 0.02137166848317297 0.12875726841647051
leaf_weight=8416 11203 24449 10738 4025 34892 10083 94198 43682 16316 25717 15121 6766 21715 4952 20661 31345 27467 12985 23256 9227 14401 6894 18048 3397 3415 2241 3506 4585 6847 1160
leaf_count=8416 11203 24449 10738 4025 34892 10083 94198 43682 16316 25717 15121 6766 21715 4952 20661 31345 27467 12985 23256 9227 14401 6894 18048 3397 3415 2241 3506 4585 6847 1160
internal_value=0 -0.022126 -0.0362148 0.0429351 0.0578604 -0.0410202 -0.0430758 -0.0475865 -0.0556152 0.0226533 0.069791 0.0298613 -0.0270638 -0.0400005 0.0618065 -0.0610768 -0.0667881 -8.10665e-06 -0.0167161 0.0544065 0.0465646 0.0572 0.0153101 0.0205618 0.03251 0.0195765 0.00684196 -0.0129772 0.0388326 0.0739856
internal_weight=0 377392 310216 67176 144316 283752 273014 213008 118810 42727 101196 43120 60006 26667 66304 102494 71149 17010 33339 45643 30522 21295 26464 31917 17060 13663 14857 8091 10248 3401
internal_count=521708 377392 310216 67176 144316 283752 273014 213008 118810 42727 101196 43120 60006 26667 66304 102494 71149 17010 33339 45643 30522 21295 26464 31917 17060 13663 14857 8091 10248 3401
is_linear=0
shrinkage=0.1


Tree=10
num_leaves=31
num_cat=0
split_feature=0 1 1 0 0 0 0 0 0 1 1 1 1 1 0 0 1 0 0 1 1 1 0 0 1 1 1 1 1 1
split_gain=54294.9 25890.1 6684.94 5208.85 3927.19 2822.01 1948.66 1849.32 1389.01 1188.64 1039.98 932.17 806.319 1156.79 580.191 492.181 541.133 611.969 490.418 457.78 946.688 456.445 452.153 605.716 502.07 441.596 851.959 437.683 415.125 386.281
threshold=-0.57862099999999994 10.900000000000002 2.7000000000000006 -0.62377099999999985 -1.5784649999999998 -0.8552209999999999 -0.45492099999999996 -1.4048149999999997 -0.65447099999999991 11.300000000000002 3.3000000000000003 5.1000000000000005 5.5000000000000009 6.7000000000000002 -1.4616149999999999 -0.99957099999999988 10.300000000000002 -1.2906149999999998 -0.76567099999999988 6.9000000000000012 7.1000000000000005 10.700000000000001 -0.6304209999999999 -0.75597099999999984 2.3000000000000003 7.9000000000000012 8.5000000000000018 9.1000000000000014 11.900000000000002 5.5000000000000009
decision_type=2 2 2 2 2 2 2 2 2 2 2 2 2 2 2 2 2 2 2 2 2 2 2 2 2 2 2 2 2 2
left_child=1 2 22 5 -3 7 12 -4 11 14 -9 18 -2 -14 -6 16 -12 -18 -7 -15 -21 -19 23 24 -1 -22 -27 -28 -11 -5
right_child=6 4 3 29 9 8 -8 10 -10 28 15 -13 13 19 -16 -17 17 21 -20 20 25 -23 -24 -25 -26 26 27 -29 -30 -31
leaf_value=0.039806729067798592 0.059866633308001585 0.072802353415957727 0.026303912449089514 0.028785472285453063 0.036230343946724995 -0.02281884727995849 0.07260144529740728 0.0059105920341606024 -0.021708618795265134 0.027838306765022539 -0.019610933866970069 -0.058194054876159022 0.0076822105239426732 0.093850382133018356 -0.0080479340867056891 -0.038013411208510248 -0.011483286747833728 -0.063759200562805818 -0.049022337784947717 -0.022956257581482738 0.071969717178824485 -0.025370040572618924 0.052256651970519277 -0.010469464376221174 0.0058129141588868886 0.009374071327610289 0.076968140400352464 0.042147495342131309 0.057049894676564544 0.0018406812141765786
leaf_weight=8690 29390 22421 5925 7847 3758 12932 52271 7368 16603 20715 42027 81612 9551 1983 13924 76322 5477 9275 15954 1960 6420 4650 3195 7980 8689 5823 5478 10585 6358 16525
leaf_count=8690 29390 22421 5925 7847 3758 12932 52271 7368 16603 20715 42027 81612 9551 1983 13924 76322 5477 9275 15954 1960 6420 4650 3195 7980 8689 5823 5478 10585 6358 16525
internal_value=0 -0.017962 -0.0294471 -0.0338128 0.0386416 -0.037697 0.0579398 -0.0284571 -0.0486775 0.0215281 -0.030693 -0.0527297 0.0471746 0.0382507 0.00136264 -0.0326508 -0.0259881 -0.0398016 -0.0372913 0.0473039 0.0442543 -0.0509398 0.0168047 0.0123381 0.0228108 0.0489081 0.0421433 0.0540225 0.0346985 0.010516
internal_weight=0 398247 331071 302517 67176 278145 123461 151044 127101 44755 145119 110498 71190 41800 17682 137751 61429 19402 28886 32249 30266 13925 28554 25359 17379 28306 21886 16063 27073 24372
internal_count=521708 398247 331071 302517 67176 278145 123461 151044 127101 44755 145119 110498 71190 41800 17682 137751 61429 19402 28886 32249 30266 13925 28554 25359 17379 28306 21886 16063 27073 24372
is_linear=0
shrinkage=0.1


Tree=11
num_leaves=31
num_cat=0
split_feature=0 1 1 0 0 0 0 0 1 1 1 1 0 1 1 1 1 1 1 0 0 1 1 0 1 1 1 1 1 1
split_gain=44033.8 20814.5 5456.15 4568.59 3223.48 2858.27 1565.03 1507.12 1202.81 1008.81 833.953 766.539 615.24 555.48 1660.23 1004.16 997.764 1668.75 1196.97 541.705 537.286 531.219 879.141 530.194 517.691 508.496 605.004 1972.14 2177.67 614.034
threshold=-0.57507099999999989 10.900000000000002 2.7000000000000006 -0.64087099999999986 -1.5076649999999998 -0.82887099999999991 -1.4329149999999997 -0.43062099999999998 11.700000000000001 3.3000000000000003 5.5000000000000009 4.3000000000000007 -0.68457099999999993 8.9000000000000021 7.7000000000000002 7.3000000000000016 9.9000000000000021 9.7000000000000011 9.1000000000000014 -1.0091699999999999 -1.4760149999999999 7.3000000000000016 5.7000000000000002 -0.75257099999999988 7.5000000000000009 4.3000000000000007 8.5000000000000018 7.9000000000000012 7.3000000000000016 9.1000000000000014
decision_type=2 2 2 2 2 2 2 2 2 2 2 2 2 2 2 2 2 2 2 2 2 2 2 2 2 2 2 2 2 2
left_child=1 2 -1 5 -3 6 -4 11 -6 -8 -7 -2 23 14 15 -14 17 18 -15 -11 -10 22 -13 -12 -17 -5 27 28 -27 -28
right_child=7 4 3 25 8 10 9 -9 20 19 12 21 13 16 -16 24 -18 -19 -20 -21 -22 -23 -24 -25 -26 26 29 -29 -30 -31
leaf_value=0.015374817898620975 0.060342115028255774 0.059727201354575245 0.031190300135463096 0.029432360303304796 0.0045797846677560648 -0.034613136166426743 0.0051339304793893269 0.068592415396212206 -0.024474449550045893 -0.022373047517731018 -0.049767079523818737 0.047205494488900157 -0.037619396093089445 0.099875378904984019 -0.098501927603134323 0.1207161460921235 -0.080157889014280531 0.15716103239584778 -0.052599715545243876 -0.03465945102089537 0.051935882434741454 0.047684384193910023 0.011086278787759984 -0.06963516589316697 -0.0030012334724772135 -0.015503421342940922 0.055190205903151227 -0.084477256537810005 0.077153032733539961 0.00083514963977297059
leaf_weight=28781 23064 29242 4574 6265 27505 33100 8630 40170 1020 57734 28960 13030 5612 684 4213 671 1387 708 2082 94823 9409 31208 13957 25049 682 13545 3123 3146 3121 6213
leaf_count=28781 23064 29242 4574 6265 27505 33100 8630 40170 1020 57734 28960 13030 5612 684 4213 671 1387 708 2082 94823 9409 31208 13957 25049 682 13545 3123 3146 3121 6213
internal_value=0 -0.0160014 -0.0262419 -0.0301778 0.0347775 -0.0346241 -0.0264913 0.0527472 0.0155446 -0.0281282 -0.0476936 0.0449142 -0.0538746 -0.036677 -0.0489493 -0.0189758 -0.00845646 0.0201705 -0.0148944 -0.0300098 0.0444626 0.0387998 0.0285255 -0.0589818 0.0583545 0.0035856 -0.00196984 -0.0118597 0.00184812 0.0190175
internal_weight=0 400279 333103 304322 67176 268909 165761 121429 37934 161187 103148 81259 70048 16039 11178 6965 4861 3474 2766 152557 10429 58195 26987 54009 1353 35413 29148 19812 16666 9336
internal_count=521708 400279 333103 304322 67176 268909 165761 121429 37934 161187 103148 81259 70048 16039 11178 6965 4861 3474 2766 152557 10429 58195 26987 54009 1353 35413 29148 19812 16666 9336
is_linear=0
shrinkage=0.1


Tree=12
num_leaves=31
num_cat=0
split_feature=0 1 1 0 0 0 1 1 1 1 1 1 0 0 1 0 1 0 1 0 0 1 0 1 1 0 1 1 0 1
split_gain=35850.7 18446.6 4059.13 2866.33 2685.68 1748.34 1006.98 1804.22 1069.14 853.399 839.401 775.516 772.253 757.677 686.523 611.461 551.295 1366.92 1728.85 547.523 511.877 1262.07 990.324 807.138 1813.55 440.765 760.785 735.965 429.883 419.642
threshold=-0.61342099999999988 10.900000000000002 2.9000000000000004 -0.51017099999999982 -1.5784649999999998 -1.3048149999999998 6.9000000000000012 8.9000000000000021 10.100000000000001 11.300000000000002 4.3000000000000007 6.7000000000000002 -0.95012099999999988 -1.0541199999999997 4.7000000000000002 -0.81882099999999991 7.5000000000000009 -0.69802099999999989 7.3000000000000016 -0.39172099999999993 -0.6646709999999999 9.1000000000000014 -0.74572099999999997 9.7000000000000011 9.9000000000000021 -0.69802099999999989 9.9000000000000021 9.7000000000000011 -0.5649209999999999 10.700000000000001
decision_type=2 2 2 2 2 2 2 2 2 2 2 2 2 2 2 2 2 2 2 2 2 2 2 2 2 2 2 2 2 2
left_child=1 2 15 10 -3 -4 11 13 20 -6 -2 12 -7 -8 -14 -1 17 -15 -19 -5 22 -22 -9 -23 -25 -24 27 -27 -12 -10
right_child=3 4 5 19 9 6 7 8 29 -11 28 -13 14 16 -16 -17 -18 18 -20 -21 21 23 25 24 -26 26 -28 -29 -30 -31
leaf_value=0.020501575289982487 0.045552368471075778 0.059549398053463889 0.009137875332807039 0.049646708445805009 6.0731891645458251e-05 -0.012470899602043549 -0.020464420537449596 -0.012200434211700235 -0.046317442782300836 0.028307118108948811 0.008736009721413588 0.007292742340048515 -0.02066085155738414 -0.050927929982121561 -0.039477670296091338 -0.0068515423596487521 -0.058122972116733368 -0.032421116698012092 0.10666753447449769 0.068073523669620481 0.13030038915062794 -0.044524695368715637 -0.07189163205057475 0.1568838186571675 -0.055653035118370935 -0.028502377597565284 -0.13162374304363961 0.10096025304703773 0.028266340215364723 -0.018818685161074353
leaf_weight=16352 16188 22421 10738 61003 17682 27188 8636 31287 25348 27073 21413 7002 32305 17099 48497 16338 45648 2687 1339 21919 786 2433 4592 775 833 2132 543 553 23793 7105
leaf_count=16352 16188 22421 10738 61003 17682 27188 8636 31287 25348 27073 21413 7002 32305 17099 48497 16338 45648 2687 1339 21919 786 2433 4592 775 833 2132 543 553 23793 7105
internal_value=0 -0.0162105 -0.0264986 0.0423911 0.0312997 -0.0304245 -0.0320169 -0.0373642 -0.026532 0.0171474 0.0260124 -0.0249582 -0.0270493 -0.0483368 -0.0319546 0.00683087 -0.0519417 -0.0385848 0.0138381 0.0545175 -0.016364 0.0143595 -0.0201562 -0.00819169 0.0467823 -0.0519865 -0.0236703 -0.00183838 0.0190153 -0.0402971
internal_weight=0 377392 310216 144316 67176 277526 266788 151796 76387 44755 61394 114992 107990 75409 80802 32690 66773 21125 4026 82922 43934 4827 39107 4041 1608 7820 3228 2685 45206 32453
internal_count=521708 377392 310216 144316 67176 277526 266788 151796 76387 44755 61394 114992 107990 75409 80802 32690 66773 21125 4026 82922 43934 4827 39107 4041 1608 7820 3228 2685 45206 32453
is_linear=0
shrinkage=0.1


Tree=13
num_leaves=31
num_cat=0
split_feature=0 1 1 0 0 0 0 0 1 0 1 1 1 1 1 1 1 1 1 1 1 1 1 1 0 1 1 1 0 1
split_gain=29084 15067.5 3295.13 2430.46 2192.74 1575.41 943.661 939.86 890.247 889.997 792.847 874.866 770.936 1278.86 642.605 798.076 529.556 548.328 1002.92 1271.43 574.398 477.36 455.272 487.979 436.15 654.43 912.219 619.013 435.201 434.018
threshold=-0.61677099999999985 10.900000000000002 2.7000000000000006 -0.5063709999999999 -1.5076649999999998 -0.94667099999999993 -1.4477149999999999 -0.65117099999999983 11.700000000000001 -0.77582099999999987 5.1000000000000005 5.3000000000000016 5.5000000000000009 6.7000000000000002 7.7000000000000002 8.9000000000000021 6.9000000000000012 7.3000000000000016 7.9000000000000012 8.5000000000000018 9.1000000000000014 8.9000000000000021 4.3000000000000007 8.5000000000000018 -0.69122099999999986 9.9000000000000021 9.7000000000000011 9.1000000000000014 -1.4760149999999999 6.9000000000000012
decision_type=2 2 2 2 2 2 2 2 2 2 2 2 2 2 2 2 2 2 2 2 2 2 2 2 2 2 2 2 2 2
left_child=1 2 -1 12 -3 6 -4 9 -6 10 -7 -12 -2 -14 -11 -16 -15 -18 -19 -20 21 -21 -5 -24 -17 26 27 -26 -10 -8
right_child=3 4 5 22 8 7 29 -9 28 14 11 -13 13 16 15 24 17 18 19 20 -22 -23 23 -25 25 -27 -28 -29 -30 -31
leaf_value=0.0097909232417628059 0.036918742058702825 0.048747475354672699 0.031389944356697314 0.059374623860380484 0.0028739391420205336 -0.013480103843201625 -0.0091983569525231727 -0.01137369960893236 -0.024857716114087918 -0.03622396691685667 -0.089229136574658419 -0.032042088926658746 -0.018795478752854103 0.078108579740358924 -0.075198206838016965 -0.0521209337129971 -0.017761000057518215 0.065057172666472748 -0.026554080709559821 0.035882705039336382 0.016693671282148739 0.099769972496674977 0.03722451063867644 0.058258271690195679 0.068549537290281973 -0.074743964799413101 0.115452301840475 -0.045570356087599038 0.043911583286868755 -0.02370901995573018
leaf_weight=26248 25917 29242 3871 29289 27505 24655 30544 18577 1020 41836 2781 70277 8837 1730 11978 9541 3219 5243 5224 3459 10171 1767 35502 16001 633 1278 652 1908 9409 63394
leaf_count=26248 25917 29242 3871 29289 27505 24655 30544 18577 1020 41836 2781 70277 8837 1730 11978 9541 3219 5243 5224 3459 10171 1767 35502 16001 633 1278 652 1908 9409 63394
internal_value=0 -0.0147437 -0.024098 0.0378113 0.0281697 -0.0272531 -0.0169969 -0.0327016 0.0123071 -0.0350951 -0.0289861 -0.034219 0.0235067 0.0147399 -0.0438959 -0.0562453 0.0243577 0.0211604 0.0260045 0.0160751 0.0305386 0.0574841 0.0494202 0.0437593 -0.0400435 -0.0142707 0.00993377 -0.0171414 0.0371857 -0.0189909
internal_weight=0 375349 308173 146359 67176 281925 97809 184116 37934 165539 97713 73058 65567 39650 67826 25990 30813 29083 25864 20621 15397 5226 80792 51503 14012 4471 3193 2541 10429 93938
internal_count=521708 375349 308173 146359 67176 281925 97809 184116 37934 165539 97713 73058 65567 39650 67826 25990 30813 29083 25864 20621 15397 5226 80792 51503 14012 4471 3193 2541 10429 93938
is_linear=0
shrinkage=0.1


Tree=14
num_leaves=31
num_cat=0
split_feature=0 0 1 1 0 0 0 0 1 1 1 1 1 1 0 1 1 1 1 1 0 1 1 1 1 1 1 1 1 1
split_gain=23716.9 11244.1 2717.64 3053.66 2739.98 1512.47 851.597 838.566 715.783 539.651 535.244 948.185 508.614 1105.82 433.865 537.403 378.784 1118.66 358.218 645.541 353.428 348.126 1009.87 617.266 1817.04 713.37 477.195 1409.84 840.851 802.679
threshold=-0.57177099999999992 -1.4048149999999997 2.7000000000000006 11.100000000000001 -0.64087099999999986 -0.81202099999999988 -0.41352099999999997 -1.6224649999999998 3.3000000000000003 11.900000000000002 7.7000000000000002 8.9000000000000021 5.7000000000000002 6.7000000000000002 -0.68122099999999997 9.1000000000000014 6.9000000000000012 7.1000000000000005 7.9000000000000012 8.5000000000000018 -0.74242099999999989 5.5000000000000009 6.7000000000000002 7.9000000000000012 8.5000000000000018 7.3000000000000016 9.9000000000000021 9.7000000000000011 9.1000000000000014 8.9000000000000021
decision_type=2 2 2 2 2 2 2 2 2 2 2 2 2 2 2 2 2 2 2 2 2 2 2 2 2 2 2 2 2 2
left_child=1 7 -3 4 5 8 12 -1 -4 -5 -7 20 -2 -14 -13 -16 -15 -18 -19 -20 -12 -6 -23 25 -25 -24 27 28 29 -26
right_child=6 2 3 9 21 10 -8 -9 -10 -11 11 14 13 16 15 -17 17 18 19 -21 -22 22 23 24 26 -27 -28 -29 -30 -31
leaf_value=0.052021278841118471 0.04255275285786312 0.011789281158531615 0.006041187873576534 0.0092293751774611462 0.016827082693495487 -0.030470455733997939 0.053085546622615401 0.024219125525736823 -0.022260649405425575 0.051744591232124243 -0.046092791616776686 -0.039259172154872179 -0.0040831421154310116 0.071786479336339512 0.082061578333377849 -0.017835755691477582 -0.032827324159293771 0.056195337008260453 0.0058935013982695612 0.04066011533592194 -0.075934479120247256 -0.041531182502213278 -0.0012998989312751185 -0.069951231052877746 0.010947414060135163 0.064708969578355313 -0.025202498710853855 0.13389897407601065 -0.02579156086850817 0.11572764085006366
leaf_weight=18224 38831 28998 9443 17855 11936 57458 31993 26807 166500 3585 6707 15306 9167 2545 626 3853 2490 7329 7315 19788 9721 5560 3264 3302 2192 3285 2202 1073 3256 1097
leaf_count=18224 38831 28998 9443 17855 11936 57458 31993 26807 166500 3585 6707 15306 9167 2545 626 3853 2490 7329 7315 19788 9721 5560 3264 3302 2192 3285 2202 1073 3256 1097
internal_value=0 -0.0116192 -0.0175553 -0.0201479 -0.0226978 -0.0262066 0.0391251 0.0354706 -0.0207417 0.0163384 -0.0364715 -0.0459933 0.0340187 0.0272047 -0.0312485 -0.00387377 0.034472 0.0318999 0.0365808 0.0312767 -0.0637511 0.002756 -0.0039006 0.00673567 -0.00577874 0.0318104 0.0157994 0.0276511 0.0102326 0.0458954
internal_weight=0 402250 357219 328221 306781 269614 119458 45031 175943 21440 93671 36213 87465 48634 19785 4479 39467 36922 34432 27103 16428 37167 25231 19671 13122 6549 9820 7618 6545 3289
internal_count=521708 402250 357219 328221 306781 269614 119458 45031 175943 21440 93671 36213 87465 48634 19785 4479 39467 36922 34432 27103 16428 37167 25231 19671 13122 6549 9820 7618 6545 3289
is_linear=0
shrinkage=0.1


Tree=15
num_leaves=31
num_cat=0
split_feature=0 1 1 0 0 0 0 1 1 1 1 0 1 0 1 1 0 1 1 0 1 1 1 1 0 1 1 1 1 1
split_gain=19258.6 10035.7 2094.52 1745.86 1505.55 1186.6 615.649 561.96 613.957 913.148 539.769 534.675 519.388 499.501 1570.45 457.517 569.841 1438.85 1205.48 759.117 435.335 392.886 388.182 384.187 415.618 378.054 563.634 860.735 416.569 673.355
threshold=-0.62012099999999981 10.900000000000002 2.9000000000000004 -0.54802099999999987 -1.5784649999999998 -0.9600709999999999 -1.4477149999999999 4.7000000000000002 8.9000000000000021 7.5000000000000009 4.3000000000000007 -0.91522099999999995 11.300000000000002 -0.69462099999999982 7.3000000000000016 9.9000000000000021 -0.68797099999999989 9.7000000000000011 9.1000000000000014 -0.73557099999999986 4.3000000000000007 8.5000000000000018 10.300000000000002 10.100000000000001 -0.70857099999999995 8.1000000000000014 7.3000000000000016 6.9000000000000012 6.7000000000000002 5.7000000000000002
decision_type=2 2 2 2 2 2 2 2 2 2 2 2 2 2 2 2 2 2 2 2 2 2 2 2 2 2 2 2 2 2
left_child=1 2 11 20 -3 6 -4 -7 9 13 -5 -1 -6 -9 -15 16 19 18 -18 -10 -2 25 23 24 -17 26 27 28 29 -12
right_child=3 4 5 10 12 7 -8 8 15 -11 21 -13 -14 14 -16 22 17 -19 -20 -21 -22 -23 -24 -25 -26 -27 -28 -29 -30 -31
leaf_value=0.02568816327948277 0.030505847562074213 0.044038013236787514 0.025829037465777555 0.047357759141831227 -0.0010391745136049692 -0.015304614971203986 -0.014942678569583557 -0.031645976525741887 -0.010338528840134604 -0.046604114744327713 0.038254346785486955 -0.0034430580349426934 0.020996833708661872 -0.0204694325779998 0.099557762132736594 -0.0087493150760083044 0.084853414458888277 0.12229908138173616 -0.038482387575367885 -0.059359253300607255 0.007597776021129328 0.043437985217878498 -0.012948399264808064 -0.063037645085406852 -0.071660308960987171 0.0059013244650355607 0.052907578286709715 -0.027777663311322587 0.063596117588558196 0.0047114826011598124
leaf_weight=8602 11201 22421 3871 35967 17682 32625 85603 55229 17987 36884 15746 23548 27073 14308 1180 3984 1050 1052 3231 3832 31981 21621 6308 5399 1426 7102 9050 2854 3237 9654
leaf_count=8602 11201 22421 3871 35967 17682 32625 85603 55229 17987 36884 15746 23548 27073 14308 1180 3984 1050 1052 3231 3832 31981 21621 6308 5399 1426 7102 9050 2854 3237 9654
internal_value=0 -0.0121146 -0.0197955 0.0304712 0.0228869 -0.022629 -0.0131787 -0.0272121 -0.0297701 -0.0338484 0.037419 0.00435124 0.0122908 -0.0271954 -0.0113248 -0.0198574 -0.0117857 0.017517 -0.00823184 -0.0189479 0.0135399 0.032258 -0.0326613 -0.0441655 -0.0253318 0.0271844 0.0309128 0.0245918 0.029811 0.0255054
internal_weight=0 373295 306119 148413 67176 273969 89474 184495 151870 107601 105231 32150 44755 70717 15488 44269 27152 5333 4281 21819 43182 69264 17117 10809 5410 47643 40541 31491 28637 25400
internal_count=521708 373295 306119 148413 67176 273969 89474 184495 151870 107601 105231 32150 44755 70717 15488 44269 27152 5333 4281 21819 43182 69264 17117 10809 5410 47643 40541 31491 28637 25400
is_linear=0
shrinkage=0.1


Tree=16
num_leaves=31
num_cat=0
split_feature=0 0 1 1 0 0 0 0 0 1 1 1 0 1 0 1 1 0 0 0 1 1 0 1 1 1 1 1 0 1
split_gain=15628.5 7653.35 1947.4 1996.75 1360.32 1049.64 780.867 581.152 491.479 395.977 767.066 798.341 361.25 309.063 298.455 286.037 280.729 1218.55 276.998 586.603 445.573 428.155 273.553 267.831 1548 490.129 316.416 275.569 255.382 307.619
threshold=-0.58197099999999991 -1.4048149999999997 11.500000000000002 2.7000000000000006 -0.62377099999999985 -0.85192099999999982 -0.49917099999999998 -1.6868149999999997 -0.65447099999999991 6.9000000000000012 9.1000000000000014 9.5000000000000018 -1.0780149999999997 5.5000000000000009 -0.39172099999999993 6.7000000000000002 11.100000000000001 -1.3617149999999998 -0.65117099999999983 -0.72862099999999985 2.5000000000000004 2.3000000000000003 -1.3479649999999996 7.9000000000000012 8.5000000000000018 7.3000000000000016 7.5000000000000009 8.1000000000000014 -1.0780149999999997 3.3000000000000003
decision_type=2 2 2 2 2 2 2 2 2 2 2 2 2 2 2 2 2 2 2 2 2 2 2 2 2 2 2 2 2 2
left_child=1 7 3 18 5 9 -2 -1 13 15 12 -12 -11 -7 -8 28 22 -18 19 21 -20 -3 -13 25 27 -10 -27 -25 -5 -30
right_child=6 2 -4 4 -6 8 14 -9 23 10 11 16 -14 -15 -16 -17 17 -19 20 -21 -22 -23 -24 24 -26 26 -28 -29 29 -31
leaf_value=0.047824376810426186 0.020863658837986764 0.028138104763333449 0.026915320706253354 0.01166878645099791 0.0052821277812019939 -0.021768952121154511 0.033103105220981428 0.022190883344618603 -0.010118953511421528 -0.0068289415813967474 0.018621368700630313 0.0072503617041802595 -0.033273575436028435 -0.033203280286795499 0.046910317342420196 0.021105420149260579 -0.089408627424369946 0.012040950483754836 0.014353943211428036 -0.02534697868939928 0.089474291626445671 -0.0017920788960777527 -0.021135980073034622 -0.056435335531800558 0.0014947508482401936 0.11913882693904501 0.019611913811698287 -0.14823747774783666 0.0064561819208663876 -0.015544379037530285
leaf_weight=12091 48758 9565 10888 4983 22583 34762 54786 32940 9327 6072 7589 3670 34611 73876 21919 3155 1359 9193 3193 4981 1049 9553 45283 493 4368 477 967 971 7531 40715
leaf_count=12091 48758 9565 10888 4983 22583 34762 54786 32940 9327 6072 7589 3670 34611 73876 21919 3155 1359 9193 3193 4981 1049 9553 45283 493 4368 477 967 971 7531 40715
internal_value=0 -0.00973914 -0.0147155 -0.0160474 -0.018356 -0.0202006 0.0307587 0.0290736 -0.0270956 -0.0149403 -0.0184927 -0.0119234 -0.0293267 -0.0295445 0.0370486 -0.00815009 -0.0158189 -0.00102482 0.00936659 0.0052188 0.0329304 0.0131824 -0.0190079 -0.0110714 -0.028332 -0.00172552 0.0524889 -0.117323 -0.00988413 -0.0121102
internal_weight=0 396245 351214 340326 311985 289402 125463 45031 125241 164161 107777 67094 40683 108638 76705 56384 59505 10552 28341 24099 4242 19118 48953 16603 5832 10771 1444 1464 53229 48246
internal_count=521708 396245 351214 340326 311985 289402 125463 45031 125241 164161 107777 67094 40683 108638 76705 56384 59505 10552 28341 24099 4242 19118 48953 16603 5832 10771 1444 1464 53229 48246
is_linear=0
shrinkage=0.1


Tree=17
num_leaves=31
num_cat=0
split_feature=0 0 1 0 0 1 1 1 0 1 1 0 0 1 1 1 1 1 1 1 1 1 1 1 1 1 1 1 1 1
split_gain=12709 6068.72 1742.58 1803.12 1297.39 1606.8 560.73 526.173 507.264 501.654 613.721 452.005 397.416 381.331 1146.31 725.528 709.012 387.366 1180.8 717.613 650.464 366.561 365.033 439.402 421.625 354.176 339.697 326.553 318.995 459.608
threshold=-0.56832099999999997 -1.4189149999999999 11.500000000000002 -0.64442099999999991 -0.79222099999999995 3.3000000000000003 4.3000000000000007 3.9000000000000004 -0.40917099999999995 7.7000000000000002 7.9000000000000012 -1.736165 -1.0288699999999997 8.5000000000000018 8.1000000000000014 7.3000000000000016 7.9000000000000012 9.9000000000000021 9.7000000000000011 9.1000000000000014 8.9000000000000021 8.7000000000000011 5.7000000000000002 6.4000000000000012 5.1000000000000005 2.3000000000000003 4.3000000000000007 7.5000000000000009 7.3000000000000016 5.7000000000000002
decision_type=2 2 2 2 2 2 2 2 2 2 2 2 2 2 2 2 2 2 2 2 2 2 2 2 2 2 2 2 2 2
left_child=1 11 3 4 5 25 7 -5 26 -6 -11 -1 -7 14 15 22 27 18 19 20 21 -15 24 -24 -8 -3 -2 -17 29 -28
right_child=8 2 -4 6 9 12 13 -9 -10 10 -12 -13 -14 17 -16 16 -18 -19 -20 -21 -22 -23 23 -25 -26 -27 28 -29 -30 -31
leaf_value=0.048496143326677385 0.034825280858690751 0.029341268060646589 0.02556424073557767 0.016279911014290674 -0.02132952299878639 -0.0093036651928204671 -0.019305920962879173 0.086074961977274767 0.040180814216737339 -0.085875175787336944 -0.032982132523494488 0.02218647747855956 -0.018961683112933253 0.048721558426226802 -0.074341094849993863 0.097863285400167643 -0.033376317813984056 -0.021836894262095889 0.11623498130891774 -0.023153123712362823 0.099809815369497068 -0.029117775888982157 -0.051897000920199124 -0.0061044030158876666 0.029263422449804583 0.0034958344012462391 0.026679288543638442 0.033647023107597721 0.027686082100613497 0.0011537214996317001
leaf_weight=8029 25493 7524 11557 10654 59059 65065 3611 1202 29985 2375 28734 34976 123431 1215 2419 1189 1215 2406 1184 3597 1208 1205 3690 4849 3539 17955 13440 2371 33685 14846
leaf_count=8029 25493 7524 11557 10654 59059 65065 3611 1202 29985 2375 28734 34976 123431 1215 2419 1189 1215 2406 1184 3597 1208 1205 3690 4849 3539 17955 13440 2371 33685 14846
internal_value=0 -0.00841274 -0.0126401 -0.0139027 -0.0166817 -0.012442 0.00465144 0.023356 0.0289566 -0.026743 -0.0370202 0.0270985 -0.0156279 -0.00192939 -0.00924256 -0.00154741 0.0325831 0.0135442 0.0236676 0.00849803 0.0398787 0.00996272 -0.0119352 -0.025893 0.00473421 0.011128 0.0251087 0.0550945 0.0211115 0.0132821
internal_weight=0 404259 361254 349697 304143 213975 45554 11856 117449 90168 31109 43005 188496 33698 22883 20464 4775 10815 8409 7225 3628 2420 15689 8539 7150 25479 87464 3560 61971 28286
internal_count=521708 404259 361254 349697 304143 213975 45554 11856 117449 90168 31109 43005 188496 33698 22883 20464 4775 10815 8409 7225 3628 2420 15689 8539 7150 25479 87464 3560 61971 28286
is_linear=0
shrinkage=0.1


Tree=18
num_leaves=31
num_cat=0
split_feature=0 1 0 1 0 0 0 0 1 1 0 1 1 1 1 1 1 1 1 1 1 1 1 1 1 1 1 1 1 1
split_gain=10321 5428.13 1272.18 1219.08 968.896 629.73 530.671 521.309 388.997 557.819 441.793 368.688 340.05 636.501 289.232 322.766 272.535 271.237 629.489 413.254 331.463 358.685 684.487 381.373 300.371 293.263 285.776 345.393 283.691 1176.94
threshold=-0.61677099999999985 11.300000000000002 -1.4329149999999997 2.7000000000000006 -0.50267099999999987 -0.83207099999999989 -1.6004149999999997 -0.65782099999999988 5.1000000000000005 5.3000000000000016 -0.86167099999999985 4.3000000000000007 6.9000000000000012 8.7000000000000011 10.100000000000001 9.1000000000000014 6.7000000000000002 6.7000000000000002 5.7000000000000002 6.9000000000000012 7.1000000000000005 7.9000000000000012 8.5000000000000018 9.1000000000000014 8.3000000000000025 5.1000000000000005 8.9000000000000021 8.7000000000000011 9.7000000000000011 9.9000000000000021
decision_type=2 2 2 2 2 2 2 2 2 2 2 2 2 2 2 2 2 2 2 2 2 2 2 2 2 2 2 2 2 2
left_child=1 2 -1 -4 11 8 -3 -7 -5 10 -10 -2 16 -14 15 -15 -11 18 25 -19 -21 -22 24 26 -23 -13 27 -24 -25 -30
right_child=4 6 3 5 -6 7 -8 -9 9 12 -12 17 13 14 -16 -17 -18 19 -20 20 21 22 23 28 -26 -27 -28 -29 29 -31
leaf_value=0.016209296195386861 0.026050920063823993 0.038365531341872011 0.0061265377689750135 -0.0018609501548244875 0.030071353681705409 -0.025209152004106256 0.015703234321511914 -0.0082062641817170542 -0.037586812790129119 -0.0073259283651776492 -0.13792359575782856 -0.0016068140189363202 -0.027114517034017668 -0.018182866064779712 -0.015596826059026486 0.0045380809645811301 0.022581251454586473 0.061598479931222444 -0.02304888942500237 -0.029384712068086172 0.034573575222057444 -0.0056084678131499179 0.054769771526681922 -0.0083968160886157567 -0.055511621153570917 0.031544156180687309 0.072572879938802487 -0.0074328260256554986 0.088966435792350668 -0.011238636324027163
leaf_weight=14079 17922 16221 26248 28543 78673 95752 28465 22216 4610 24638 485 5323 34909 9259 47194 19253 3477 1787 7329 1810 6900 3580 1801 5362 1819 5351 1826 1770 1823 3283
leaf_count=14079 17922 16221 26248 28543 78673 95752 28465 22216 4610 24638 485 5323 34909 9259 47194 19253 3477 1787 7329 1810 6900 3580 1801 5362 1819 5351 1826 1770 1823 3283
internal_value=0 -0.00878293 -0.0132037 -0.0145118 0.0225245 -0.0163776 0.0239296 -0.0220071 -0.0125248 -0.0146411 -0.047138 0.0137526 -0.0134476 -0.0159436 -0.0107925 -0.00284033 -0.00362729 0.00932353 -0.000482453 0.0148818 0.0120967 0.0147625 0.00833399 0.0188004 -0.0224216 0.0150122 0.0403932 0.0239385 0.00766772 0.0245377
internal_weight=0 375349 330663 316584 146359 290336 44686 117968 172368 143825 5095 67686 138730 110615 75706 28512 28115 49764 18003 31761 29974 28164 21264 15865 5399 10674 5397 3571 10468 5106
internal_count=521708 375349 330663 316584 146359 290336 44686 117968 172368 143825 5095 67686 138730 110615 75706 28512 28115 49764 18003 31761 29974 28164 21264 15865 5399 10674 5397 3571 10468 5106
is_linear=0
shrinkage=0.1


Tree=19
num_leaves=31
num_cat=0
split_feature=0 1 0 0 1 0 1 0 1 1 0 1 1 0 1 1 0 1 1 0 1 0 1 1 1 1 1 1 1 0
split_gain=8438.32 4025.3 1105.94 1058.42 943.642 624.143 443.473 430.16 399.426 501.287 383.129 949.833 372.479 348.239 309.584 308.963 403.53 1084.6 835.593 562.242 325.79 305.126 286.796 378.726 468.565 616.08 394.342 507.383 285.845 329.443
threshold=-0.5649209999999999 11.300000000000002 -0.62377099999999985 -1.4616149999999999 2.3000000000000003 -0.94062099999999982 4.7000000000000002 -1.5784649999999998 8.9000000000000021 7.5000000000000009 -0.70857099999999995 7.3000000000000016 4.3000000000000007 -0.71192099999999991 5.1000000000000005 9.9000000000000021 -0.69122099999999986 9.7000000000000011 9.1000000000000014 -0.73217099999999991 10.300000000000002 -0.76567099999999988 8.5000000000000018 8.1000000000000014 7.3000000000000016 6.9000000000000012 6.7000000000000002 5.7000000000000002 10.100000000000001 -0.70492099999999991
decision_type=2 2 2 2 2 2 2 2 2 2 2 2 2 2 2 2 2 2 2 2 2 2 2 2 2 2 2 2 2 2
left_child=1 2 3 -1 13 14 -7 -3 9 10 21 -12 -2 -5 -6 16 19 18 -18 -10 28 -8 23 24 25 26 27 -14 29 -17
right_child=12 7 -4 4 5 6 8 -9 15 -11 11 -13 22 -15 -16 20 17 -19 -20 -21 -22 -23 -24 -25 -26 -27 -28 -29 -30 -31
leaf_value=0.017365012300449682 0.031876845790062829 0.033700798595895129 0.0065682825898695021 0.021986937190198341 0.0045228674306778066 -0.0093115386598130786 -0.018992278201588119 0.013623008644754339 -0.0045573573159482204 -0.033790579408761914 -0.012953089180051187 0.074811875925360233 0.024677903468554575 -0.017613864231329796 -0.010591590826700022 -0.0022923490348713545 0.074400500163807975 0.11020425802315546 -0.028655760854540965 -0.049756485003041223 -0.0035403808579758168 -0.037445098058628716 0.028894704599455309 -0.0048909895497891969 0.038120560900902822 -0.026761563920643869 0.049698797342200778 -0.0029713309708482038 -0.050912418687763139 -0.060478364813768809
leaf_weight=11758 38599 17613 35182 10080 15696 45543 36385 27073 16703 34610 16306 1334 17378 2848 99195 3775 1042 1047 3212 3295 5375 11889 24018 7631 10144 3396 3503 10738 5029 1311
leaf_count=11758 38599 17613 35182 10080 15696 45543 36385 27073 16703 34610 16306 1334 17378 2848 99195 3775 1042 1047 3212 3295 5375 11889 24018 7631 10144 3396 3503 10738 5029 1311
internal_value=0 -0.00677807 -0.010277 -0.0120926 -0.0131933 -0.0143267 -0.017893 0.0215367 -0.0206587 -0.0240453 -0.0189282 -0.00631599 0.0238628 0.013263 -0.00852671 -0.0123124 -0.00550228 0.0190279 -0.00341255 -0.0120047 -0.023435 -0.0235369 0.0198355 0.0157138 0.0191956 0.013713 0.0180601 0.0141182 -0.0340069 -0.0172907
internal_weight=0 406301 361615 326433 314675 301747 186856 44686 141313 100524 65914 17640 115407 12928 114891 40789 25299 5301 4254 19998 15490 48274 76808 52790 45159 35015 31619 28116 10115 5086
internal_count=521708 406301 361615 326433 314675 301747 186856 44686 141313 100524 65914 17640 115407 12928 114891 40789 25299 5301 4254 19998 15490 48274 76808 52790 45159 35015 31619 28116 10115 5086
is_linear=0
shrinkage=0.1


Tree=20
num_leaves=31
num_cat=0
split_feature=0 0 0 0 1 1 1 1 0 1 1 1 1 1 1 1 1 1 0 0 0 0 1 1 1 1 1 1 1 1
split_gain=6835.04 3273.71 917.267 1065.82 883.6 952.184 424.803 492.953 345.914 302.931 971.271 593.543 555.053 315.259 565.265 301.034 485.894 341.321 348.053 299.127 293.659 289.418 299.059 287.256 284.821 901.078 543.65 494.288 269.092 266.374
threshold=-0.5649209999999999 -1.4048149999999997 -0.64792099999999986 -0.78242099999999992 3.3000000000000003 11.500000000000002 4.3000000000000007 3.9000000000000004 -0.40477099999999994 8.5000000000000018 8.1000000000000014 7.3000000000000016 7.9000000000000012 5.5000000000000009 5.1000000000000005 7.7000000000000002 7.9000000000000012 7.1000000000000005 -0.71192099999999991 -0.63397099999999995 -1.736165 -1.0336699999999996 10.300000000000002 6.9000000000000012 9.9000000000000021 9.7000000000000011 9.1000000000000014 8.9000000000000021 7.5000000000000009 8.7000000000000011
decision_type=2 2 2 2 2 2 2 2 2 2 2 2 2 2 2 2 2 2 2 2 2 2 2 2 2 2 2 2 2 2
left_child=1 20 3 4 -3 21 7 -4 -2 10 11 13 28 14 -8 17 -17 23 -19 -12 -1 22 -6 -5 25 26 27 29 -13 -11
right_child=8 2 6 15 5 -7 9 -9 -10 24 19 12 -14 -15 -16 16 -18 18 -20 -21 -22 -23 -24 -25 -26 -27 -28 -29 -30 -31
leaf_value=0.036660425323213022 0.018382860066086963 0.0093541481200185954 0.012377392071169939 -0.017917342621051418 0.0017609732051353498 0.018734740311205634 -0.017043976123337461 0.077102774142581515 0.031165106356287359 0.039552035849056102 -0.1398382402808461 0.084122070110761213 -0.027878641042409887 -0.021228652879867596 0.043230074029521927 -0.075047359386197041 -0.025667509553909382 -0.017226334803818674 0.029393175964398627 -0.050504906860596901 0.015562769574322328 -0.014332589923369951 -0.01224757228350299 -0.055214691446164914 -0.017953879575591847 0.096932044162513317 -0.019623873065038034 0.083072799680436529 0.028342933141730583 -0.02402659870385555
leaf_weight=8029 87475 26583 11640 45122 27431 10888 3948 1309 27932 1326 453 1300 1328 10623 2568 2158 26015 3367 3054 2172 37002 130481 34289 2164 2628 1288 3929 1312 2584 1310
leaf_count=8029 87475 26583 11640 45122 27431 10888 3948 1309 27932 1326 453 1300 1328 10623 2568 2158 26015 3367 3054 2172 37002 130481 34289 2164 2628 1288 3929 1312 2584 1310
internal_value=0 -0.00610027 -0.00926937 -0.0112823 -0.00778997 -0.010034 0.00334427 0.0189204 0.0214766 -0.00214121 -0.00837829 -0.00162019 0.0279305 -0.0106066 0.00671044 -0.0210781 -0.0294499 -0.0166866 0.00494716 -0.0659213 0.0193245 -0.0116637 -0.00602158 -0.0196242 0.0110681 0.01939 0.00671074 0.0329186 0.0470126 0.00795567
internal_weight=0 406301 361270 311552 229672 203089 49718 12949 115407 36769 24976 22351 5212 17139 6516 81880 28173 53707 6421 2625 45031 192201 61720 47286 11793 9165 7877 3948 3884 2636
internal_count=521708 406301 361270 311552 229672 203089 49718 12949 115407 36769 24976 22351 5212 17139 6516 81880 28173 53707 6421 2625 45031 192201 61720 47286 11793 9165 7877 3948 3884 2636
is_linear=0
shrinkage=0.1


Tree=21
num_leaves=31
num_cat=0
split_feature=0 1 1 0 0 0 0 1 1 1 0 1 1 1 0 1 1 0 1 0 1 1 1 1 1 1 1 1 0 1
split_gain=5544.75 2687.03 801.433 682.401 689.521 442.326 302.993 282.168 277.402 536.623 349.606 296.877 606.919 338.28 305.39 282.465 256.22 313.337 289.66 280.133 265.838 1251.93 336.796 958.926 372.09 280.523 271.085 505.41 251.545 480.94
threshold=-0.56142099999999984 11.300000000000002 2.7000000000000006 -1.4616149999999999 -0.62377099999999985 -0.81532099999999985 -1.6004149999999997 4.3000000000000007 5.1000000000000005 5.3000000000000016 -0.87082099999999996 6.9000000000000012 7.9000000000000012 7.5000000000000009 -1.0921699999999996 6.7000000000000002 5.5000000000000009 -0.70157099999999983 3.6000000000000001 -0.75257099999999988 8.7000000000000011 8.1000000000000014 9.9000000000000021 9.7000000000000011 9.1000000000000014 6.4000000000000012 7.7000000000000002 7.3000000000000016 -0.65447099999999991 4.3000000000000007
decision_type=2 2 2 2 2 2 2 2 2 2 2 2 2 2 2 2 2 2 2 2 2 2 2 2 2 2 2 2 2 2
left_child=1 2 -1 -4 5 8 -3 -2 -5 10 -10 15 13 -13 -15 -11 18 19 -7 -18 21 25 23 24 -22 -19 27 -27 -20 -30
right_child=7 6 3 4 -6 16 -8 -9 9 11 -12 12 -14 14 -16 -17 17 20 28 -21 22 -23 -24 -25 -26 26 -28 -29 29 -31
leaf_value=0.0074780781639447839 0.02658029787378708 0.028618168463647665 0.013989695096783062 -0.00052549644522440072 0.0030696337152994056 -0.02236773175673297 0.011494066790598695 0.016018081057095981 -0.0304197542332117 -0.0045593465218234869 -0.098397325592690058 -0.016387749258595295 -0.0083018471632882295 0.0038734762744338808 -0.047064206915316376 0.024785218114581356 -0.018929289808843366 -0.025963389642829487 -0.0078122873850575633 -0.035275218058505892 0.025732612906582731 -0.071166770394293297 -0.031171203747461174 0.092377642482934091 -0.024582960873253908 -0.005595382566813952 -0.025346592204062459 0.049860060005102035 0.082459438884305583 -0.001457050731546704
leaf_weight=29663 38102 16221 11758 30969 33386 12273 28465 75236 4463 26236 911 15088 92693 1363 8625 3749 23761 4990 18032 18764 2434 3761 2480 1221 3710 4988 2507 2451 945 2463
leaf_count=29663 38102 16221 11758 30969 33386 12273 28465 75236 4463 26236 911 15088 92693 1363 8625 3749 23761 4990 18032 18764 2434 3761 2480 1221 3710 4988 2507 2451 945 2463
internal_value=0 -0.0054311 -0.00827447 -0.00967339 -0.0105368 -0.0121093 0.0177101 0.0195689 -0.00915717 -0.0109029 -0.0419433 -0.00977388 -0.0120357 -0.0258378 -0.0401131 -0.00089042 -0.0172961 -0.020702 -0.0101164 -0.0261419 -0.012597 -0.0196001 0.000702784 0.0114356 -0.00465 -0.00661516 0.00309203 0.0126761 -0.00310334 0.021812
internal_weight=0 408370 363684 334021 322263 288877 44686 113338 184097 153128 5374 147754 117769 25076 9988 29985 104780 71067 33713 42525 28542 18697 9845 7365 6144 14936 9946 7439 21440 3408
internal_count=521708 408370 363684 334021 322263 288877 44686 113338 184097 153128 5374 147754 117769 25076 9988 29985 104780 71067 33713 42525 28542 18697 9845 7365 6144 14936 9946 7439 21440 3408
is_linear=0
shrinkage=0.1


Tree=22
num_leaves=31
num_cat=0
split_feature=0 1 1 0 0 0 1 1 1 1 1 1 0 1 1 0 1 0 0 0 1 1 0 0 0 1 0 1 1 1
split_gain=4511.01 2487.61 602.524 526.47 375.536 369.1 357.486 260.526 341.695 366.535 647.377 277.393 253.122 683.986 616.604 394.388 249.101 241.398 258.8 231.887 207.914 244.559 298.868 251.68 228.549 206.928 241.256 487.271 285.101 259.299
threshold=-0.62012099999999981 10.900000000000002 2.3000000000000003 -0.50267099999999987 -0.97007099999999991 -1.5076649999999998 11.900000000000002 4.7000000000000002 8.9000000000000021 6.9000000000000012 6.7000000000000002 9.9000000000000021 -0.68797099999999989 9.7000000000000011 9.1000000000000014 -0.73557099999999986 2.7000000000000006 -0.71882099999999982 -0.65117099999999983 -1.4915649999999998 10.300000000000002 10.100000000000001 -0.74242099999999989 -0.70157099999999983 -0.80537099999999995 5.1000000000000005 -1.3048149999999998 10.300000000000002 9.1000000000000014 10.700000000000001
decision_type=2 2 2 2 2 2 2 2 2 2 2 2 2 2 2 2 2 2 2 2 2 2 2 2 2 2 2 2 2 2
left_child=1 2 17 16 25 -3 -7 -6 9 10 -9 12 15 14 -14 -10 -2 -1 -19 -8 21 23 24 -13 -23 -4 -27 28 -28 -29
right_child=3 5 4 -5 7 6 19 8 11 -11 -12 20 13 -15 -16 -17 -18 18 -20 -21 -22 22 -24 -25 -26 26 27 29 -30 -31
leaf_value=0.019067584909473169 0.025743150488242245 0.020005641033077181 0.0080534794124324759 0.020354954189336617 -0.0066773392287174651 0.0011776000761426488 -0.060360374533649765 -0.015866556999456851 -0.00012846135877706802 -0.023785915035024464 0.019890505175953151 0.0013415444338390418 0.066948536878540535 0.090371773015183648 -0.02126037922376825 -0.035328687265323781 0.00635935414619241 -0.03156622712204632 0.030366922128131191 0.03431211297675129 -0.0036974923712395462 -0.041689946653280123 -0.0085755469074148601 -0.048891591800881679 -0.097160092775019302 0.0069786595649506122 -0.0086887309984175487 -0.033364923763841141 0.0088488297580157933 -0.0063369569528293956
leaf_weight=9863 7419 29242 10524 78673 50296 32715 273 50382 18793 54620 5629 4110 1050 1052 3231 3832 62321 2206 972 4946 6796 2618 1905 1317 1037 10738 36771 10662 12394 5321
leaf_count=9863 7419 29242 10524 78673 50296 32715 273 50382 18793 54620 5629 4110 1050 1052 3231 3832 62321 2206 972 4946 6796 2618 1905 1317 1037 10738 36771 10662 12394 5321
internal_value=0 -0.00586318 -0.00968726 0.0147473 -0.0106231 0.0115631 0.00505495 -0.0129377 -0.0149513 -0.0179571 -0.012273 -0.0076815 -0.00147074 0.0181277 0.000374604 -0.00609033 0.00842142 0.0113446 -0.0126238 0.0293599 -0.0174459 -0.02595 -0.0406899 -0.0108488 -0.057428 -0.0050872 -0.00690957 -0.0091987 -0.00426769 -0.0243669
internal_weight=0 373295 306119 148413 293078 67176 37934 206668 156372 110631 56011 45741 27958 5333 4281 22625 69740 13041 3178 5219 17783 10987 5560 5427 3655 86410 75886 65148 49165 15983
internal_count=521708 373295 306119 148413 293078 67176 37934 206668 156372 110631 56011 45741 27958 5333 4281 22625 69740 13041 3178 5219 17783 10987 5560 5427 3655 86410 75886 65148 49165 15983
is_linear=0
shrinkage=0.1


Tree=23
num_leaves=31
num_cat=0
split_feature=0 1 0 0 1 0 1 1 1 1 1 1 1 1 1 1 1 0 1 1 0 1 0 0 1 1 1 1 1 1
split_gain=3689.62 1798.39 572.166 664.983 563.419 442.132 300.82 666.351 353.026 935.386 334.714 462.86 244.972 360.001 255.679 236.762 872.363 236.071 221.81 467.939 221.624 232.847 217.069 216.501 214.626 189.142 603.975 485.896 376.208 238.665
threshold=-0.55802099999999988 11.300000000000002 -0.64792099999999986 -0.76567099999999988 3.3000000000000003 -1.4760149999999999 5.5000000000000009 6.7000000000000002 7.9000000000000012 8.5000000000000018 7.3000000000000016 6.9000000000000012 9.1000000000000014 8.9000000000000021 8.7000000000000011 9.7000000000000011 9.9000000000000021 -0.38662099999999994 5.1000000000000005 4.9000000000000012 -1.03867 10.300000000000002 -0.60647099999999987 -1.5575649999999996 7.5000000000000009 9.1000000000000014 9.5000000000000018 7.1000000000000005 7.9000000000000012 6.7000000000000002
decision_type=2 2 2 2 2 2 2 2 2 2 2 2 2 2 2 2 2 2 2 2 2 2 2 2 2 2 2 2 2 2
left_child=1 2 3 4 -1 -6 18 -8 10 22 11 -9 13 14 -11 -14 -17 -2 19 -4 21 -7 -10 -3 -12 27 -27 29 -29 -22
right_child=17 23 6 -5 5 20 7 8 9 12 24 -13 15 -15 -16 16 -18 -19 -20 -21 25 -23 -24 -25 -26 26 -28 28 -30 -31
leaf_value=0.0074021980758819999 0.014002199279117647 0.022662899099638766 0.012807882904657109 -0.016795176451479821 0.012286415235983951 0.0036379320083740185 -0.029990432311723731 0.048861047618032109 -0.068461692340241451 0.038602708580173915 0.073048824944043481 -0.021337556037692888 -0.016766194501613863 0.07046502977820103 -0.021375527136017942 0.081202290208743019 -0.015164537984320126 0.02602886430182192 0.038484874222110971 -0.046910270917650182 -0.0099786213824915315 -0.0089262043427122423 -0.023359970102154435 0.0085802801477325909 0.025149102928480979 0.018322376705869076 -0.01181792046869639 -0.032639651512336637 -0.013190195221948767 0.0077784623467764677
leaf_weight=28432 91427 18969 16841 71602 10630 25725 7219 1389 1990 1428 1401 2901 4261 1416 1415 1401 2851 19868 2778 1423 54962 34576 2301 25717 2815 8733 27854 17410 23195 8778
leaf_count=28432 91427 18969 16841 71602 10630 25725 7219 1389 1990 1428 1401 2901 4261 1416 1415 1401 2851 19868 2778 1423 54962 34576 2301 25717 2815 8733 27854 17410 23195 8778
internal_value=0 -0.0043793 -0.00669317 -0.00833636 -0.00581584 -0.0075897 0.00282769 -0.00316094 0.00441394 -0.0038823 0.0210562 0.00139108 0.00968888 0.029269 0.00875072 -0.000106947 0.0165876 0.0161492 0.0121593 0.00815507 -0.00863965 -0.00356622 -0.0442764 0.0145583 0.0410664 -0.0108104 -0.00462369 -0.0129797 -0.0215294 -0.00753319
internal_weight=0 410413 365727 311897 240295 211863 53830 32788 25569 17063 8506 4290 12772 4259 2843 8513 4252 111295 21042 18264 201233 60301 4291 44686 4216 140932 36587 104345 40605 63740
internal_count=521708 410413 365727 311897 240295 211863 53830 32788 25569 17063 8506 4290 12772 4259 2843 8513 4252 111295 21042 18264 201233 60301 4291 44686 4216 140932 36587 104345 40605 63740
is_linear=0
shrinkage=0.1


Tree=24
num_leaves=31
num_cat=0
split_feature=0 1 1 0 0 0 1 1 1 1 1 1 1 0 1 1 1 1 1 0 0 1 1 1 0 1 0 0 0 1
split_gain=2988.59 1456.7 470.517 413.986 448.815 214.968 210.991 465.969 401.112 538.119 207.301 394.938 246.909 182.875 182.84 482.238 384.844 220.627 325.248 239.868 181.513 163.338 150.827 143.502 348.793 242.724 141.774 138.11 241.029 137.536
threshold=-0.55802099999999988 11.300000000000002 2.3000000000000003 -0.62377099999999985 -0.98662099999999986 -1.4760149999999999 5.7000000000000002 7.1000000000000005 6.9000000000000012 6.7000000000000002 7.9000000000000012 8.5000000000000018 9.1000000000000014 -1.6445099999999997 6.9000000000000012 8.9000000000000021 6.7000000000000002 10.100000000000001 10.300000000000002 -0.73887099999999994 -0.8088209999999999 5.1000000000000005 5.1000000000000005 4.9000000000000012 -0.65117099999999983 4.7000000000000002 -0.92762099999999992 -0.70157099999999983 -0.79562099999999991 8.1000000000000014
decision_type=2 2 2 2 2 2 2 2 2 2 2 2 2 2 2 2 2 2 2 2 2 2 2 2 2 2 2 2 2 2
left_child=1 2 26 4 5 -4 -2 8 9 -8 -9 29 -13 -3 16 -16 22 -17 19 20 -19 -7 23 25 -25 -6 -1 28 -27 -12
right_child=6 13 3 -5 14 21 7 10 -10 -11 11 12 -14 -15 15 17 -18 18 -20 -21 -22 -23 -24 24 -26 27 -28 -29 -30 -31
leaf_value=0.030213707863147383 0.01899568445842191 0.022857121109687482 0.011057773700521498 0.0032000603336344389 -0.005386951539397178 0.010003593743392318 -0.0084640537130602697 0.030803364100755345 -0.039554830243040406 0.03744091064053795 0.016073562686744588 0.033821730314969004 0.012136146002948725 0.0089070821230185938 -0.019786839998391152 -0.001933503195132585 0.01732375267372167 -0.035191104446911377 -0.0034642530814756184 -0.0046836850060436473 -0.082566272859649181 -0.0053156208030749261 -0.013840875971800618 0.015892178065489006 -0.077200861730794809 -0.01892352305854287 0.0063221548698541939 0.002320170249242838 -0.067929971261906794 -0.010967051986713792
leaf_weight=3145 54292 13439 10630 37264 52174 7617 10295 7689 2654 3396 2521 8094 14945 31247 56398 34606 5831 2832 7587 1798 1132 80700 40579 5382 435 3045 11813 1262 1497 7409
leaf_count=3145 54292 13439 10630 37264 52174 7617 10295 7689 2654 3396 2521 8094 14945 31247 56398 34606 5831 2832 7587 1798 1132 80700 40579 5382 435 3045 11813 1262 1497 7409
internal_value=0 -0.00394137 -0.00602385 -0.00676454 -0.00794896 -0.00237732 0.0145342 0.010285 -0.00397471 0.0029225 0.0160175 0.0125692 0.0197547 0.0131025 -0.0105184 -0.0135183 -0.00767777 -0.00614621 -0.0170673 -0.0349787 -0.04872 -0.0039944 -0.00907452 -0.00604271 0.0089306 -0.007545 0.0113455 -0.0269444 -0.0350756 -0.00410206
internal_weight=0 410413 365727 350769 313505 98947 111295 57003 16345 13691 40658 32969 23039 44686 214558 104353 110205 47955 13349 5762 3964 88317 104374 63795 5817 57978 14958 5804 4542 9930
internal_count=521708 410413 365727 350769 313505 98947 111295 57003 16345 13691 40658 32969 23039 44686 214558 104353 110205 47955 13349 5762 3964 88317 104374 63795 5817 57978 14958 5804 4542 9930
is_linear=0
shrinkage=0.1


Tree=25
num_leaves=31
num_cat=0
split_feature=0 0 0 1 0 1 1 1 1 1 1 1 1 1 1 1 0 1 1 1 0 1 1 1 1 1 0 1 1 0
split_gain=2421.18 1194.96 457.66 514.888 374.637 541.832 395.452 295.097 274.248 324.227 380.25 341.889 286.779 269.258 262.171 569.773 236.639 233.171 859.589 391.326 228.493 215.109 212.868 312.688 210.232 790.231 208.828 207.744 738.36 837.047
threshold=-0.55472099999999991 -1.3338149999999998 -0.65117099999999983 11.100000000000001 -0.76237099999999991 5.1000000000000005 5.3000000000000016 11.300000000000002 6.9000000000000012 7.9000000000000012 10.100000000000001 9.1000000000000014 6.7000000000000002 9.5000000000000018 5.5000000000000009 6.4000000000000012 -1.0541199999999997 7.9000000000000012 8.5000000000000018 7.3000000000000016 -1.1199149999999998 8.3000000000000025 9.1000000000000014 8.9000000000000021 9.7000000000000011 9.9000000000000021 -0.77582099999999987 11.300000000000002 11.100000000000001 -1.4616149999999999
decision_type=2 2 2 2 2 2 2 2 2 2 2 2 2 2 2 2 2 2 2 2 2 2 2 2 2 2 2 2 2 2
left_child=1 27 3 4 5 -3 16 -5 12 20 11 -11 -8 -13 -4 -16 -7 19 21 -17 -10 -19 23 -20 -24 -26 -12 28 -1 -30
right_child=-2 2 14 7 -6 6 8 -9 9 10 26 13 -14 -15 15 17 -18 18 22 -21 -22 -23 24 -25 25 -27 -28 -29 29 -31
leaf_value=0.014996853609961589 0.013234287276288443 0.0023643292044109518 0.010923828201947696 0.032689046363381491 -0.014669017073123193 0.00053089835805066249 -0.0038654553875380189 0.0020003120048534299 0.0087781392963067507 -0.0096570526590401135 -0.01453797326082315 0.018781168862252562 0.022856342182300676 -0.0023045057439956148 -0.030396573041066112 -0.001646097231671328 -0.044810345527411727 -0.026005291600381758 0.0078544997256180856 0.037091953753565075 -0.022306156459256998 -0.071925829966706864 -0.015269531606075798 0.063364403080109474 0.074434766522113324 -0.014061537027006086 -0.10552393308305366 0.015173507379900404 -0.0018601666547328304 -0.078175851068400415
leaf_weight=15146 109281 55614 22613 4311 67645 1522 31272 11470 2595 27134 36728 10466 4608 14373 6198 6162 4723 3073 3049 4521 26656 1527 4570 1521 1504 3066 254 33216 4847 2043
leaf_count=15146 109281 55614 22613 4311 67645 1522 31272 11470 2595 27134 36728 10466 4608 14373 6198 6162 4723 3073 3049 4521 26656 1527 4570 1521 1504 3066 254 33216 4847 2043
internal_value=0 -0.0035067 -0.00562378 -0.00719669 -0.00817499 -0.00614073 -0.00909088 0.0103838 -0.00809106 -0.0104154 -0.00741214 -0.00189701 -0.000433626 0.00658002 0.00252246 -0.00287609 -0.03376 0.00300712 -0.00384292 0.0147477 -0.0195485 -0.0412489 0.00870759 0.0263295 -0.000103342 0.0150628 -0.0151629 0.0101791 0.00265079 -0.024489
internal_weight=0 412427 357175 299371 283590 215945 160331 15781 154086 118206 88955 51973 35880 24839 57804 35191 6245 28993 18310 10683 29251 4600 13710 4570 9140 4570 36982 55252 22036 6890
internal_count=521708 412427 357175 299371 283590 215945 160331 15781 154086 118206 88955 51973 35880 24839 57804 35191 6245 28993 18310 10683 29251 4600 13710 4570 9140 4570 36982 55252 22036 6890
is_linear=0
shrinkage=0.1


Tree=26
num_leaves=31
num_cat=0
split_feature=0 1 1 0 0 0 1 1 0 0 1 1 1 1 1 1 1 1 1 1 0 0 0 0 0 1 1 1 1 1
split_gain=1973.27 1124.78 329.209 313.032 201.429 193.659 181.94 644.645 173.744 236.916 154.061 655.008 204.952 179.47 628.873 198.647 403.851 256.175 163.727 138.785 138.96 148.506 138.341 134.454 220.038 153.878 717.374 133.501 163.884 262.427
threshold=-0.62012099999999981 10.900000000000002 2.3000000000000003 -0.43877099999999997 -1.7616649999999998 -0.95342099999999996 5.7000000000000002 6.4000000000000012 -0.70157099999999983 -0.65447099999999991 9.9000000000000021 9.7000000000000011 9.3000000000000025 8.5000000000000018 8.1000000000000014 7.3000000000000016 6.9000000000000012 6.7000000000000002 7.5000000000000009 11.900000000000002 -1.4915649999999998 -1.2338149999999997 -1.4616149999999999 -0.67137099999999983 -0.76237099999999991 2.5000000000000004 2.7000000000000006 9.1000000000000014 8.9000000000000021 8.7000000000000011
decision_type=2 2 2 2 2 2 2 2 2 2 2 2 2 2 2 2 2 2 2 2 2 2 2 2 2 2 2 2 2 2
left_child=1 2 8 6 -3 -4 -2 -8 -1 -10 11 12 13 14 15 16 17 -9 -17 20 -6 -22 -21 24 -7 -25 -27 28 29 -15
right_child=3 4 5 -5 19 23 7 10 9 -11 -12 -13 -14 27 -16 18 -18 -19 -20 22 21 -23 -24 25 -26 26 -28 -29 -30 -31
leaf_value=0.014881862301222504 0.011501844038854802 0.025309090445100171 -0.0034673653076024817 0.016808480581681048 0.010524126069425224 -0.0075838976028798815 -0.021951084181691512 -0.0038960245199492344 -0.039003470464941854 0.022163601069867006 -0.010376012590006469 0.05519552915702404 -0.011645058667105301 0.035289710455990136 -0.02543166007750013 0.041999079661122686 -0.020422483735748953 0.040762970130825714 0.014260289507928139 0.0055941169321309563 -0.0050450376727977156 0.0094314733750991246 0.029978395615343097 -0.045182674021823778 -0.015398158717388116 0.092817130726613822 -0.0041254106586209845 0.0010379135976807 0.045181768805240143 -0.010529663106458215
leaf_weight=10423 45597 6010 96332 44175 20430 114990 8753 2325 1545 1073 4409 2899 5662 2881 5592 2900 4390 2870 7992 4822 20622 10796 4496 828 52481 785 27662 2856 2904 2208
leaf_count=10423 45597 6010 96332 44175 20430 114990 8753 2325 1545 1073 4409 2899 5662 2881 5592 2900 4390 2870 7992 4822 20622 10796 4496 828 52481 785 27662 2856 2904 2208
internal_value=0 -0.00387784 -0.00644924 0.00975371 0.00783995 -0.00714099 0.00676397 0.00307997 0.00909707 -0.0139338 0.00747175 0.00920201 0.00607061 0.0087876 0.00428971 0.0124062 0.00190681 0.020776 0.0216458 0.00612348 0.00410414 -7.05513e-05 0.0173597 -0.0089397 -0.0100327 -0.00268717 -0.00145026 0.0195956 0.0262265 0.0154097
internal_weight=0 373295 306119 148413 67176 293078 104238 58641 13041 2618 49888 45479 42580 36918 26069 20477 9585 5195 10892 61166 51848 31418 9318 196746 167471 29275 28447 10849 7993 5089
internal_count=521708 373295 306119 148413 67176 293078 104238 58641 13041 2618 49888 45479 42580 36918 26069 20477 9585 5195 10892 61166 51848 31418 9318 196746 167471 29275 28447 10849 7993 5089
is_linear=0
shrinkage=0.1


Tree=27
num_leaves=31
num_cat=0
split_feature=0 0 1 1 0 1 1 1 1 1 0 0 0 1 0 1 0 1 0 0 1 1 1 0 0 0 1 1 1 0
split_gain=1615.09 820.127 327.76 332.565 258.923 245.492 183.532 247.189 395.023 235.311 221.901 178.288 172.531 158.544 226.501 212.677 212.267 199.417 362.838 351.849 289.338 191.867 172.665 154.241 152.095 143.631 181.814 142.169 617.354 660.578
threshold=-0.55137099999999994 -1.3338149999999998 2.7000000000000006 11.100000000000001 -0.64792099999999986 11.300000000000002 6.9000000000000012 8.9000000000000021 9.5000000000000018 6.7000000000000002 -1.0714699999999999 -1.1294149999999998 -0.71192099999999991 8.5000000000000018 -0.74922099999999991 8.7000000000000011 -0.71882099999999982 7.9000000000000012 -0.6646709999999999 -0.70492099999999991 7.7000000000000002 8.1000000000000014 7.1000000000000005 -0.69122099999999986 -0.38662099999999994 -0.88962099999999988 7.5000000000000009 11.300000000000002 11.100000000000001 -1.4477149999999999
decision_type=2 2 2 2 2 2 2 2 2 2 2 2 2 2 2 2 2 2 2 2 2 2 2 2 2 2 2 2 2 2
left_child=1 27 -3 4 6 -5 9 11 -9 10 -4 -8 -11 17 -15 -16 -17 19 -19 25 22 -20 -21 -14 -2 26 -13 28 -1 -30
right_child=24 2 3 5 -6 -7 7 8 -10 12 -12 13 23 14 15 16 -18 18 21 20 -22 -23 -24 -25 -26 -27 -28 -29 29 -31
leaf_value=0.013572286900349458 0.0091398535503063733 0.0053761706045459233 0.014029693857870736 0.029015624271799857 0.00025064168603367709 0.0010248121547292795 0.0093012497273342442 0.0058867385561890088 -0.01015893829485999 0.021323239749523305 -0.0066339739886158867 -0.0057603867525033783 -0.078362662657437965 -0.017617981057167744 -0.072993039418704067 -0.076998241812237037 0.002416202305609095 -0.00060736623042016648 -0.0012306147423634471 -0.016008218821016926 -0.040879011919304743 -0.10454586518067376 0.034430801784385325 0.0035452770094881593 0.018832592980843388 -0.027905727685247256 -0.026898382700220675 0.012642584229234768 -0.0040370375876938175 -0.074367953420187011
leaf_weight=15146 87430 30300 5482 4311 51815 11470 3106 20769 58726 5402 99932 9968 340 10341 1655 484 1105 16278 272 905 924 530 2714 710 19868 14743 6876 33216 5078 1812
leaf_count=15146 87430 30300 5482 4311 51815 11470 3106 20769 58726 5402 99932 9968 340 10341 1655 484 1105 16278 272 905 924 530 2714 710 19868 14743 6876 33216 5078 1812
internal_value=0 -0.00283117 -0.00457601 -0.00549297 -0.00620694 0.00867125 -0.00748764 -0.00978114 -0.00596682 -0.0044247 -0.00555937 -0.014119 0.0141138 -0.015208 -0.0248501 -0.047904 -0.021773 -0.0127463 -0.00384255 -0.0169555 0.00906572 -0.0695063 0.0218176 -0.0229773 0.0109346 -0.020698 -0.0143893 0.00851095 0.00228313 -0.0225334
internal_weight=0 414410 359158 328858 313077 15781 261262 149396 79495 111866 105414 69901 6452 66795 13585 3244 1589 53210 17080 36130 4543 802 3619 1050 107298 31587 16844 55252 22036 6890
internal_count=521708 414410 359158 328858 313077 15781 261262 149396 79495 111866 105414 69901 6452 66795 13585 3244 1589 53210 17080 36130 4543 802 3619 1050 107298 31587 16844 55252 22036 6890
is_linear=0
shrinkage=0.1


Tree=28
num_leaves=31
num_cat=0
split_feature=0 1 1 0 1 1 1 1 1 1 1 1 1 1 1 1 1 0 1 1 1 0 1 1 0 1 1 0 0 1
split_gain=1316.25 763.713 244.251 282.349 321.405 366.024 276.311 242.78 252.566 343.585 259.368 242.712 378.065 405.693 437.745 334.956 307.087 216.605 196.274 322.264 301.108 176.48 476.923 538.924 348.288 228.51 167.256 198.712 272.185 165.513
threshold=-0.62012099999999981 10.700000000000001 5.1000000000000005 -1.2624149999999998 10.100000000000001 8.9000000000000021 7.5000000000000009 4.3000000000000007 8.5000000000000018 8.3000000000000025 9.1000000000000014 7.3000000000000016 6.9000000000000012 6.7000000000000002 5.7000000000000002 7.9000000000000012 5.1000000000000005 -0.76237099999999991 9.5000000000000018 9.9000000000000021 9.7000000000000011 -0.71192099999999991 7.3000000000000016 5.3000000000000016 -0.8552209999999999 5.3000000000000016 11.900000000000002 -1.4915649999999998 -1.2338149999999997 10.500000000000002
decision_type=2 2 2 2 2 2 2 2 2 2 2 2 2 2 2 2 2 2 2 2 2 2 2 2 2 2 2 2 2 2
left_child=1 2 17 29 5 6 21 -2 9 11 -10 12 13 14 16 -13 -9 -1 -12 20 -20 24 23 -23 25 -5 27 -3 -29 -4
right_child=7 26 3 4 -6 -7 -8 8 10 -11 18 15 -14 -15 -16 -17 -18 -19 19 -21 -22 22 -24 -25 -26 -27 -28 28 -30 -31
leaf_value=0.0026949969393688265 0.013891708360468394 0.010656551798735876 0.027760362960070513 -0.023262160455043895 -0.018950905917120869 0.0013993482881789704 -0.015074878569290687 -0.002335335953469912 0.02497814339377355 -0.024103325509640273 -0.0073045742523588199 0.025685944646153078 -0.02557160375507846 0.032008786142765103 -0.013978647701795455 -0.0015876078572079483 0.0211024798137492 -0.0079099781271162167 0.0078230518470361072 -0.0067467521886609124 0.045597847694113902 0.055873345371602684 0.058529673481092608 -0.0080468793279214728 -0.017264373646061142 4.7801125691349214e-05 0.016905241119873633 -0.0072095598878759784 0.0092970632394765891 -0.0012517165220977912
leaf_weight=55614 47168 25563 3410 4718 23898 43289 49900 12231 11025 4762 7229 10086 5181 4340 14331 8135 10296 29463 4639 5119 3871 1465 1445 13237 25188 38719 11233 24764 16744 4645
leaf_count=55614 47168 25563 3410 4718 23898 43289 49900 12231 11025 4762 7229 10086 5181 4340 14331 8135 10296 29463 4639 5119 3871 1465 1445 13237 25188 38719 11233 24764 16744 4645
internal_value=0 -0.00316712 -0.0054975 -0.00732939 -0.00806202 -0.00659977 -0.00917101 0.00796609 0.00520547 0.00181922 0.0125723 0.0037301 -0.000111876 0.0030899 -0.000315274 0.0135093 0.00837695 -0.00097761 0.00601491 0.0130797 0.0250059 -0.00569577 0.00371049 -0.00167747 -0.007909 -0.00248406 0.00561201 0.00372062 -0.000550918 0.0110302
internal_weight=0 373295 294991 209914 201859 177961 134672 148413 101245 69362 31883 64600 46379 41198 36858 18221 22527 85077 20858 13629 8510 84772 16147 14702 68625 43437 78304 67071 41508 8055
internal_count=521708 373295 294991 209914 201859 177961 134672 148413 101245 69362 31883 64600 46379 41198 36858 18221 22527 85077 20858 13629 8510 84772 16147 14702 68625 43437 78304 67071 41508 8055
is_linear=0
shrinkage=0.1


Tree=29
num_leaves=31
num_cat=0
split_feature=0 0 1 1 0 1 0 1 1 1 1 0 1 0 0 1 0 1 0 1 1 1 0 1 1 1 1 1 1 0
split_gain=1095.23 535.424 260.264 230.608 202.035 200.183 161.336 201.373 294.014 313.258 182.324 163.011 142.721 187.864 138.76 372.34 192.4 138.269 136.782 134.412 227.677 249.832 206.909 206.617 325.517 261.653 184.976 193.639 178.989 175.709
threshold=-0.53477099999999989 -1.3338149999999998 2.7000000000000006 11.100000000000001 -0.65117099999999983 11.300000000000002 -0.76237099999999991 10.100000000000001 9.1000000000000014 7.1000000000000005 9.5000000000000018 -0.77582099999999987 7.9000000000000012 -1.1007649999999998 -0.65782099999999988 2.5000000000000004 -0.70857099999999995 2.3000000000000003 -1.1007649999999998 3.6000000000000001 5.3000000000000016 4.9000000000000012 -0.70492099999999991 6.4000000000000012 6.9000000000000012 5.5000000000000009 7.1000000000000005 7.3000000000000016 4.3000000000000007 -0.73887099999999994
decision_type=2 2 2 2 2 2 2 2 2 2 2 2 2 2 2 2 2 2 2 2 2 2 2 2 2 2 2 2 2 2
left_child=1 -1 14 4 6 -5 7 8 9 18 -10 -9 13 -11 16 17 -3 -16 -4 -8 21 28 23 25 -25 -22 -26 -28 -21 -29
right_child=-2 2 3 5 -6 -7 19 11 10 12 -12 -13 -14 -15 15 -17 -18 -19 -20 20 22 -23 -24 24 26 -27 27 29 -30 -31
leaf_value=0.0069884593075291122 0.0095743535436933827 0.0049666526345234982 0.018607760800508636 0.025798520768226058 0.00014557315544571549 0.0005224267612290636 -0.023648563113118928 -0.010914824119448037 0.016762248349997799 0.0055867085893436495 -0.00058875275750551025 -0.091302167501036591 -0.0063313888040126961 -0.020395323901141519 0.015155286425540676 0.055093676588298141 -0.021137911419923879 -0.017575779345498473 -0.0022110618241102712 0.0091407189912574294 0.0095638124522642812 0.025631040295234404 -0.005043203481167431 0.02571513424595917 -0.061855763528791179 -0.049964874912747169 0.028279166049077837 -0.005446352643129846 -0.02267279180801024 -0.028327443745058595
leaf_weight=55252 97214 20397 3281 4311 62596 11470 7084 36728 10466 3213 14373 254 27134 20789 3848 1910 3277 1942 82738 3530 926 3577 20639 1844 934 3644 927 5696 3544 8170
leaf_count=55252 97214 20397 3281 4311 62596 11470 7084 36728 10466 3213 14373 254 27134 20789 3848 1910 3277 1942 82738 3530 926 3577 20639 1844 934 3644 927 5696 3544 8170
internal_value=0 -0.00219264 -0.00356646 -0.00437549 -0.00495378 0.00742726 -0.00618387 -0.00480877 -0.00328876 -0.00510175 0.00672215 -0.0114669 -0.0113001 -0.0169173 0.00514599 0.0168071 0.00135321 0.00417709 -0.00141697 -0.0107053 -0.00898923 0.00409319 -0.0122464 -0.0189609 -0.0140343 -0.0379028 -0.018695 -0.0159699 -0.00679752 -0.0189281
internal_weight=0 424494 369242 337868 322087 15781 259491 198976 161994 137155 24839 36982 51136 24002 31374 7700 23674 5790 86019 60515 53431 10651 42780 22141 17571 4570 15727 14793 7074 13866
internal_count=521708 424494 369242 337868 322087 15781 259491 198976 161994 137155 24839 36982 51136 24002 31374 7700 23674 5790 86019 60515 53431 10651 42780 22141 17571 4570 15727 14793 7074 13866
is_linear=0
shrinkage=0.1


Tree=30
num_leaves=31
num_cat=0
split_feature=0 0 1 1 0 0 0 0 1 1 0 1 1 1 1 1 1 1 1 1 1 1 1 0 1 1 1 1 1 1
split_gain=890.419 463.736 241.485 212.411 184.908 146.107 232.604 116.715 114.391 755.292 294.287 251.993 238.47 276.815 185.577 314.586 748.996 244.189 275.068 240.451 194.708 263.147 250.048 164.233 159.271 577.129 282.192 299.949 153.594 131.761
threshold=-0.55137099999999994 -1.5076649999999998 11.900000000000002 2.3000000000000003 -1.4915649999999998 -0.6646709999999999 -0.76237099999999991 -0.38662099999999994 4.3000000000000007 3.9000000000000004 -0.61342099999999988 3.1000000000000005 2.5000000000000004 2.7000000000000006 6.7000000000000002 7.9000000000000012 8.5000000000000018 5.7000000000000002 5.1000000000000005 8.3000000000000025 7.3000000000000016 6.9000000000000012 7.5000000000000009 -0.64442099999999991 9.9000000000000021 9.7000000000000011 9.1000000000000014 8.9000000000000021 5.3000000000000016 8.7000000000000011
decision_type=2 2 2 2 2 2 2 2 2 2 2 2 2 2 2 2 2 2 2 2 2 2 2 2 2 2 2 2 2 2
left_child=1 -1 3 -3 -4 6 -5 -2 9 11 -11 12 -7 -14 17 20 19 18 -10 -17 21 -16 -22 -13 25 26 27 29 -20 -18
right_child=7 2 4 5 -6 8 -8 -9 14 10 -12 23 13 -15 15 16 24 -19 28 -21 22 -23 -24 -25 -26 -27 -28 -29 -30 -31
leaf_value=0.0097130333227390883 0.0065467766173559656 0.0082471400183568473 -0.061803465395237935 -0.0034149324164978799 0.022736676318363586 -0.019668204227909242 -0.010549107766297507 0.015037654932587541 -0.016123307693434216 0.1164423591977968 0.034074635966472859 -0.054240674523798077 0.055080823437826401 0.0065708230364947594 0.034956716095687644 -0.021625883521412349 0.021950208756962148 -0.023984429967742141 0.040058283172971144 -0.066528371162503055 0.060852030144893848 -0.012028857268415615 0.014965266139753929 -0.0085092538603302702 -0.011891264570240083 0.064993824719774149 -0.012958736451277928 0.053115105015785348 0.0039269534381904149 -0.016338972244388319
leaf_weight=30754 87430 15176 273 242525 4946 1775 56313 19868 5418 762 1007 958 1761 3543 1775 3622 1803 7297 1760 1778 1786 3629 3544 4356 3605 1763 5366 1774 3549 1792
leaf_count=30754 87430 15176 273 242525 4946 1775 56313 19868 5418 762 1007 958 1761 3543 1775 3622 1803 7297 1760 1778 1786 3629 3544 4356 3605 1763 5366 1774 3549 1792
internal_value=0 -0.00210215 -0.00304926 -0.00334389 0.0183145 -0.00382813 -0.0047593 0.008119 0.00049127 0.0084296 0.0695547 -0.000295504 0.0120591 0.0226768 -0.00174551 0.00279803 -0.00418146 -0.0098719 -0.000271907 -0.0364104 0.0167798 0.00340404 0.0303412 -0.0167536 0.00662625 0.0119676 0.0032591 0.0194679 0.0159049 0.0028642
internal_weight=0 414410 383656 378437 5219 363261 298838 107298 64423 14162 1769 12393 7079 5304 50261 32237 21503 18024 10727 5400 10734 5404 5330 5314 16103 12498 10735 5369 5309 3595
internal_count=521708 414410 383656 378437 5219 363261 298838 107298 64423 14162 1769 12393 7079 5304 50261 32237 21503 18024 10727 5400 10734 5404 5330 5314 16103 12498 10735 5369 5309 3595
is_linear=0
shrinkage=0.1


Tree=31
num_leaves=31
num_cat=0
split_feature=0 1 1 0 0 1 1 0 1 1 1 1 1 1 1 1 0 1 1 1 1 1 1 1 0 1 1 1 1 1
split_gain=724.796 374.948 175.652 142.455 192.268 108.237 584.732 269.017 197.682 167.756 224.313 155.415 312.557 247.096 234.33 603.739 243.774 193.579 202.396 158.445 156.834 527.614 275.395 253.956 146.658 143.594 133.203 130.046 122.763 115.175
threshold=-0.53477099999999989 11.300000000000002 2.3000000000000003 -0.6646709999999999 -0.76237099999999991 4.3000000000000007 3.9000000000000004 -0.62012099999999981 3.1000000000000005 2.5000000000000004 2.7000000000000006 6.4000000000000012 5.7000000000000002 5.1000000000000005 7.9000000000000012 8.5000000000000018 -0.60647099999999987 7.3000000000000016 7.5000000000000009 8.1000000000000014 9.9000000000000021 9.7000000000000011 9.1000000000000014 8.9000000000000021 -0.64442099999999991 5.5000000000000009 8.7000000000000011 6.9000000000000012 4.9000000000000012 6.7000000000000002
decision_type=2 2 2 2 2 2 2 2 2 2 2 2 2 2 2 2 2 2 2 2 2 2 2 2 2 2 2 2 2 2
left_child=1 2 -1 4 -4 6 8 -8 9 -5 -11 12 13 28 17 16 19 27 -19 -16 21 22 23 26 -10 -15 -17 29 -7 -13
right_child=-2 -3 3 5 -6 11 7 -9 24 10 -12 14 -14 25 15 20 -18 18 -20 -21 -22 -23 -24 -25 -26 -27 -28 -29 -30 -31
leaf_value=0.0075484815692428656 0.0077887091946492737 0.0068808492576932171 -0.0029852846278328395 -0.013824145492213086 -0.0094941970737364798 -0.003689622034149723 0.11074994072863242 0.032930013592095048 -0.04881660664519237 0.046468022804703607 0.0057071626183914786 -0.0016310281272959503 -0.027050660698949066 0.025588106102559356 -0.019129606198240917 0.021037001854489049 -0.01274815972127453 0.051442402630317498 0.012929479172594311 -0.069578978531909835 -0.011843268761817544 0.057445491413744269 -0.012444617740775194 0.046138255103711612 -0.0062042835793778769 -0.0068942771809328111 -0.014850579181812325 -0.010153719594100491 -0.033576396399437089 0.031640499587849417
leaf_weight=15714 97214 44686 233812 2050 56313 4086 656 1376 958 2022 4063 2098 6279 4045 937 2072 3391 2050 4081 1855 4137 2034 6181 2054 5147 2051 2065 4146 2071 2064
leaf_count=15714 97214 44686 233812 2050 56313 4086 656 1376 958 2022 4063 2098 6279 4045 937 2072 3391 2050 4081 1855 4137 2034 6181 2054 5147 2051 2065 4146 2071 2064
internal_value=0 -0.0017837 -0.00280312 -0.00324989 -0.00424866 0.000667524 0.00787063 0.058053 0.000709782 0.0109167 0.0192517 -0.00136393 -0.00890891 0.000387759 0.00220618 -0.00370476 -0.0307654 0.0123283 0.0258069 -0.0526481 0.00531837 0.0102467 0.00248707 0.0173946 -0.012891 0.0146594 0.00312357 0.00238165 -0.0137425 0.0148688
internal_weight=0 424494 379808 364094 290125 73969 16272 2032 14240 8135 6085 57697 18532 12253 39165 24726 6183 14439 6131 2792 18543 14406 12372 6191 6105 6096 4137 8308 6157 4162
internal_count=521708 424494 379808 364094 290125 73969 16272 2032 14240 8135 6085 57697 18532 12253 39165 24726 6183 14439 6131 2792 18543 14406 12372 6191 6105 6096 4137 8308 6157 4162
is_linear=0
shrinkage=0.1


Tree=32
num_leaves=31
num_cat=0
split_feature=0 0 1 0 0 1 1 1 0 0 1 1 1 1 1 1 0 1 1 1 1 1 1 1 1 1 1 1 1 1
split_gain=588.558 318.417 171.667 168.992 177.638 206.477 155.186 363.238 228.882 149.775 137.669 113.355 288.672 242.496 186.462 482.134 221.009 177.581 162.078 156.336 148.138 181.293 161.449 144.424 527.408 131.618 129.61 125.293 122.435 114.992
threshold=-0.51372099999999987 -1.5076649999999998 11.900000000000002 -0.65782099999999988 -0.75922099999999981 3.3000000000000003 4.3000000000000007 3.9000000000000004 -0.60992099999999982 -1.4915649999999998 3.1000000000000005 6.4000000000000012 5.7000000000000002 5.1000000000000005 7.9000000000000012 8.5000000000000018 -0.6304209999999999 8.1000000000000014 7.3000000000000016 8.3000000000000025 9.1000000000000014 8.9000000000000021 8.7000000000000011 9.7000000000000011 9.9000000000000021 6.9000000000000012 5.5000000000000009 7.5000000000000009 4.9000000000000012 6.7000000000000002
decision_type=2 2 2 2 2 2 2 2 2 2 2 2 2 2 2 2 2 2 2 2 2 2 2 2 2 2 2 2 2 2
left_child=1 -1 3 4 5 -3 7 10 -9 -4 -5 12 13 28 18 16 17 -16 25 -18 21 22 -17 -22 -25 29 -15 -20 -8 -13
right_child=-2 2 9 6 -6 -7 11 8 -10 -11 -12 14 -14 26 15 20 19 -19 27 -21 23 -23 -24 24 -26 -27 -28 -29 -30 -31
leaf_value=0.0083291871836981956 0.0076157089160672061 0.0055559890378978679 -0.05631120206015066 0.01016185765283086 -0.0083474925945707674 -0.0033919669121986033 -0.002501125781897096 0.092435323607369405 0.024578666928913688 0.019774923566836515 -0.0072802004916284599 -0.0021852877251143528 -0.023703294344839768 0.024579460113740993 -0.011130395039733778 0.023678421619221554 -0.0054322158097381583 -0.088834480119474979 0.041177462104524054 -0.041011512022455426 -0.011785080642236725 0.039585053204783963 -0.013947773923344613 0.048118137232318961 -0.011150706612519039 -0.010636820816893395 -0.0048144333448498985 0.012475005819534084 -0.030956303862524012 0.029481874776284729
leaf_weight=30754 84953 29147 273 13559 61644 223795 4533 734 1540 4946 6792 2309 6980 4493 442 2303 3695 879 2289 1855 6795 2279 2259 2269 4438 4422 2252 4532 2269 2278
leaf_count=30754 84953 29147 273 13559 61644 223795 4533 734 1540 4946 6792 2309 6980 4493 442 2303 3695 879 2289 1855 6795 2279 2259 2269 4438 4422 2252 4532 2269 2278
